[{"input_weights":[[0.5706912875175476,0.4180770516395569,1.044735312461853,-0.2023862898349762,-0.7509227991104126,0.04483886808156967,0.21603699028491974,0.633548378944397,0.5471620559692383,2.193834066390991,1.635424256324768,0.6428873538970947,0.3161589801311493,-0.6415145993232727,1.2721394300460815,-0.7282399535179138,0.9091468453407288,-0.6529988646507263,-1.2447389364242554,0.03794468939304352,-0.25257834792137146,-0.043841879814863205,1.2976926565170288,-0.24537765979766846,1.2922176122665405,0.07466262578964233,1.1544679403305054,-1.6684767007827759,-0.11328795552253723,-0.508817732334137,-0.20275646448135376,-0.6181126832962036,-0.28116533160209656,1.2703341245651245,0.23621489107608795,-0.6988461017608643,-1.2423112392425537,0.015862585976719856,-0.3815377652645111,-0.27903836965560913,1.40712571144104,1.2254384756088257,0.32048681378364563,-0.14211323857307434,0.9025628566741943,1.1593177318572998,-0.26926830410957336,1.4976441860198975,-0.9815762639045715,0.47206124663352966,-0.541250467300415,-0.41255924105644226,-0.1604153960943222,-0.27017754316329956,1.6450330018997192,0.012056037783622742,1.7589499950408936,0.05058111622929573,-1.7303404808044434,-1.1853941679000854,-1.6106669902801514,0.2422170341014862,0.4123876988887787,2.3384087085723877,-0.3981724977493286,-0.08905123919248581,-0.510079026222229,-0.3313218951225281,0.5882602334022522,0.7412893772125244,-0.2520595192909241,1.0198208093643188,-1.0170828104019165,1.369539737701416,2.8062360286712646,0.689930260181427,-0.02700860984623432,0.035118114203214645,-0.37449538707733154,1.0848581790924072,-0.664541482925415,0.5678095817565918,1.204721212387085,-0.14076419174671173,0.9481470584869385,0.893332839012146,0.0177424568682909,0.644562840461731,-0.5944810509681702,0.10132430493831635,-0.31206002831459045,-1.0057361125946045,-1.6251896619796753,-0.5345547199249268,-1.4589043855667114,-0.8378376364707947,-0.12405963987112045,0.13927607238292694,1.2241274118423462,1.2058117389678955],[0.7614373564720154,-0.3602052628993988,0.24996447563171387,1.776588797569275,-0.920266330242157,-1.841295838356018,0.6261633634567261,1.9572434425354004,-0.5607379674911499,1.9249637126922607,1.5952454805374146,-0.7455649375915527,0.7439223527908325,-0.11788792908191681,-1.235032558441162,0.8652520179748535,-0.33132269978523254,-1.2972575426101685,1.063053011894226,0.15296918153762817,-0.8206629753112793,-2.242840051651001,0.3311331868171692,1.1580618619918823,0.5053200125694275,-0.26927801966667175,-1.6184825897216797,-0.6745584011077881,0.12195569276809692,-0.45388105511665344,-0.2024509608745575,-1.2376326322555542,-1.1757487058639526,1.8140937089920044,-0.20318740606307983,-1.5852155685424805,-1.1323964595794678,-0.0557781383395195,-0.1809173822402954,-0.6300370693206787,-0.8204912543296814,-2.12660813331604,0.2905177175998688,1.4556260108947754,0.271517813205719,1.3885735273361206,0.47190436720848083,-0.36032184958457947,-0.14853741228580475,-0.5928738117218018,0.18326158821582794,-0.7638723850250244,-1.8432444334030151,0.09347813576459885,-0.11314984411001205,-0.3116005063056946,-0.16596262156963348,0.7239182591438293,0.6954934597015381,-0.06282219290733337,0.7943806052207947,-1.7915287017822266,0.363701730966568,0.5491527318954468,0.01900346390902996,0.43088892102241516,1.4193356037139893,0.03148045390844345,0.6505777835845947,1.031956672668457,0.33976858854293823,-0.6692560911178589,0.5581982731819153,-0.5484644770622253,0.8050164580345154,1.3409857749938965,0.8457655310630798,0.4696533679962158,0.3372451663017273,1.4850401878356934,-1.150639295578003,1.1881510019302368,0.07948260009288788,0.47559213638305664,-0.38124504685401917,0.973717987537384,-1.2522773742675781,0.31734994053840637,0.429380863904953,2.5835156440734863,-0.17039726674556732,-1.438361644744873,-0.47453781962394714,-0.7583906054496765,0.8385055065155029,0.061733875423669815,0.9226493835449219,0.5946633815765381,2.629157304763794,1.4720056056976318],[-0.25167974829673767,-0.07393479347229004,-1.0413111448287964,0.2531784772872925,1.8725883960723877,-0.7405275702476501,0.10212677717208862,1.4227019548416138,1.8172338008880615,-1.3013498783111572,0.1804526001214981,-0.7401908040046692,0.38409146666526794,-0.893936812877655,0.381701797246933,0.5267244577407837,0.5538516044616699,-1.2624489068984985,0.49263718724250793,-0.9659128785133362,0.5763355493545532,-1.2275652885437012,-1.2967052459716797,-0.05538138374686241,-0.03003547713160515,-0.6874713897705078,-1.3944379091262817,1.5817316770553589,-1.2397985458374023,0.4528268873691559,1.1543972492218018,-0.6641163229942322,0.06199481710791588,0.35451212525367737,0.8434317111968994,0.8200675845146179,1.3993897438049316,-0.6901853084564209,0.06452084332704544,-0.8247371315956116,0.687379002571106,-2.506681442260742,-1.0885752439498901,-0.13361839950084686,1.4407786130905151,0.19409972429275513,0.7743542790412903,-0.6646367907524109,-0.21863234043121338,-0.35291844606399536,-0.4401603043079376,-0.8412882685661316,-2.268219232559204,-1.7709245681762695,0.15414121747016907,1.1139452457427979,-2.206543445587158,0.6787575483322144,-0.7494117617607117,-0.08389099687337875,0.8478593826293945,-0.18937839567661285,0.9721308350563049,0.9363909363746643,-1.0852465629577637,0.4399135708808899,-0.8079487681388855,0.4511428773403168,0.954304575920105,-0.5310956835746765,0.7762173414230347,1.4131532907485962,2.258673906326294,-1.256272315979004,-1.0437241792678833,-1.9321714639663696,-0.05418479070067406,-0.033055294305086136,0.5647143125534058,-1.0483933687210083,1.5377662181854248,0.05007648468017578,-0.015301033854484558,0.9424100518226624,-0.8371438384056091,-1.597535252571106,-0.6362961530685425,-2.568267822265625,0.2447032928466797,0.10041411966085434,-0.7829061150550842,1.5041677951812744,-0.2883235216140747,0.20016303658485413,-1.851297378540039,0.18198572099208832,-0.1514463871717453,1.104417085647583,-0.18210087716579437,-0.761195957660675],[0.14495530724525452,-0.45589178800582886,0.6894939541816711,-0.009659838862717152,0.5759316682815552,-1.614476203918457,0.7442243099212646,1.2766830921173096,-0.7869948744773865,-1.0031468868255615,-0.6138468980789185,0.007465709000825882,-1.2700629234313965,-1.8855221271514893,0.2732451260089874,1.1194785833358765,-0.01156708411872387,-0.05130233243107796,0.016971813514828682,0.6124195456504822,0.04274469614028931,0.9490172266960144,0.6148931980133057,-1.198644995689392,-0.1418984979391098,1.270632028579712,0.8285161852836609,1.9055941104888916,0.36626529693603516,-0.5775761604309082,0.945550262928009,-1.5491915941238403,-0.14077185094356537,0.6584753394126892,-0.2106250673532486,-0.29372936487197876,0.5472788214683533,0.5150600671768188,-1.2496176958084106,-0.48138511180877686,-0.1573527604341507,-0.7495476603507996,-1.6149193048477173,0.23387309908866882,0.5478509664535522,-0.47870510816574097,-0.2070886343717575,-0.02590281143784523,0.795243501663208,0.2932606637477875,-0.08779331296682358,2.4154417514801025,0.46674272418022156,-0.5160109996795654,0.27817606925964355,1.0622310638427734,1.8268260955810547,-1.76943039894104,-1.3630118370056152,0.3810945451259613,0.15922224521636963,-0.49556764960289,-0.22160471975803375,-1.0878669023513794,0.3545253574848175,0.6616363525390625,0.37527933716773987,-0.4669959247112274,0.7960983514785767,0.10288354009389877,2.029590606689453,0.9449905157089233,0.7558785080909729,-0.8696655631065369,0.08076131343841553,-0.8222447633743286,1.007894515991211,-0.8733039498329163,-1.7640200853347778,0.9452481865882874,-1.2936761379241943,0.3874973952770233,-0.766697883605957,2.3628416061401367,1.2949867248535156,1.7840644121170044,-0.34362950921058655,-0.25034597516059875,-0.17963950335979462,-1.3827766180038452,-0.17930074036121368,-0.11229155957698822,0.34242841601371765,-0.1080927774310112,-1.598582148551941,-0.8335486650466919,-0.8026365637779236,-2.1796040534973145,0.3291579782962799,-1.0282784700393677],[-0.16121894121170044,0.23830674588680267,-1.386423110961914,0.9234669208526611,1.027770757675171,-0.9086284041404724,0.24072007834911346,-0.6714321374893188,0.1932201385498047,-0.18114404380321503,-0.34546205401420593,-0.781456708908081,0.09437990933656693,0.6838061809539795,-0.9688378572463989,-0.4261819124221802,-1.1060014963150024,0.46532657742500305,1.2299518585205078,-1.3645764589309692,0.5216079950332642,-1.6923060417175293,1.5475363731384277,0.06395744532346725,0.5358864068984985,-0.029822014272212982,-2.253091812133789,0.6766452193260193,0.46381452679634094,-0.027892347425222397,-0.031021010130643845,0.8962978720664978,-1.5498631000518799,-0.9566681981086731,0.3852977454662323,0.7588784098625183,-0.49813833832740784,-0.022516515105962753,-1.9116861820220947,0.30490177869796753,-1.94554603099823,2.3225159645080566,1.3462029695510864,0.1794949471950531,0.07638520747423172,-0.7003263831138611,-2.260380983352661,0.5949288606643677,-0.07885400950908661,-1.5802134275436401,-0.18146410584449768,-2.025750160217285,-0.7949158549308777,-1.1290823221206665,1.1514250040054321,0.4089471101760864,0.8069027066230774,0.5517098903656006,-0.6400008797645569,0.10026692599058151,-0.07687164098024368,-0.21927028894424438,-0.5179575085639954,0.9665623903274536,0.596975564956665,-0.9908744692802429,-1.2850781679153442,0.8743295073509216,-0.4955769181251526,-1.480575680732727,1.3286656141281128,0.8770270943641663,0.12576401233673096,0.5772220492362976,3.3433477878570557,0.2967548668384552,-0.29002845287323,1.1746985912322998,0.644372284412384,1.1993263959884644,1.2446904182434082,-1.3440808057785034,-1.6068905591964722,-0.4368320107460022,-1.7848800420761108,1.1561094522476196,0.5175631046295166,-1.3181333541870117,0.162184476852417,-1.7933237552642822,0.7274971604347229,0.2321530431509018,-0.28741180896759033,0.5642357468605042,-0.17109814286231995,-0.32356810569763184,0.07608441263437271,3.0856549739837646,-0.5279064178466797,-1.3857663869857788],[0.28997623920440674,1.103672742843628,-0.24985022842884064,-0.9604405760765076,0.0651249811053276,-1.2107903957366943,-1.419812798500061,-0.21934430301189423,0.12458832561969757,0.1846231073141098,0.6576741337776184,0.1626829206943512,-0.20616480708122253,-0.06852197647094727,0.42081618309020996,0.7076395153999329,0.8616461157798767,-1.40999174118042,1.1786364316940308,1.712390661239624,-2.58760142326355,1.5273690223693848,0.4826417565345764,1.5574066638946533,2.4922056198120117,0.8017416596412659,-1.282363772392273,1.5924659967422485,0.17670947313308716,0.5175705552101135,0.15399058163166046,-0.31836533546447754,-1.7913808822631836,-0.3694551885128021,0.17976824939250946,-0.04678487405180931,-0.9756326079368591,1.3628122806549072,-0.0897863507270813,-0.4058142304420471,-0.24293728172779083,0.9915664792060852,1.1382685899734497,-1.8565735816955566,0.19642037153244019,-1.06623113155365,1.0123156309127808,0.35312801599502563,1.290074110031128,0.9510083794593811,-0.5025572180747986,-1.121155023574829,-0.4235163629055023,1.6738897562026978,0.7990151643753052,-0.5217317342758179,1.4996012449264526,-0.7852513194084167,-0.7300792336463928,-1.428768277168274,-0.9163244366645813,0.9451104402542114,0.6706436276435852,0.5319154858589172,0.39965736865997314,0.27984586358070374,0.26880890130996704,-0.7277258038520813,0.5496092438697815,-1.5310883522033691,0.24327857792377472,0.02201114222407341,-0.9557397365570068,0.11175114661455154,0.34403976798057556,-0.12755978107452393,1.3356797695159912,0.19197073578834534,-0.23950742185115814,-0.21665345132350922,0.40124163031578064,0.8461189270019531,0.18801341950893402,1.4529106616973877,0.40057051181793213,-2.0685157775878906,-1.0812487602233887,1.081495761871338,-0.2051447182893753,0.6021499037742615,-0.8504747748374939,1.0975801944732666,-0.623657763004303,-0.6746507287025452,-0.9768408536911011,0.5577316880226135,0.16539366543293,-0.1684245467185974,0.8832128643989563,-0.14745356142520905],[-0.6494942307472229,-0.16607318818569183,0.08554564416408539,0.7238418459892273,-1.538749098777771,-0.19710181653499603,-1.3380529880523682,-0.6306211948394775,-0.24901628494262695,-1.057816982269287,0.8362641930580139,0.9551695585250854,-0.5099825859069824,0.3041813373565674,-1.0292304754257202,1.8625496625900269,2.3459625244140625,-1.728614330291748,0.08573908358812332,-1.6478387117385864,0.5185297727584839,-0.9421038627624512,-0.9336012601852417,2.807007074356079,0.46758216619491577,-0.3659418523311615,-0.13641859591007233,0.4012393057346344,0.8475621342658997,1.6780496835708618,1.6135903596878052,0.4184049963951111,0.27208077907562256,1.3569225072860718,0.8761143684387207,-0.1091328039765358,0.8824943900108337,-0.5723076462745667,0.4803689122200012,1.8704004287719727,-0.9376072883605957,1.2402228116989136,0.8299658894538879,0.9596409797668457,0.3400125503540039,-0.5888921022415161,0.3608245551586151,2.2951114177703857,0.09207280725240707,0.7149203419685364,-0.40295466780662537,-0.7276827096939087,-0.4317812919616699,0.5344464182853699,-0.6658396124839783,0.6504132151603699,0.67974454164505,-0.5997377038002014,0.6416913866996765,-0.9696840643882751,-1.0364786386489868,0.847428560256958,1.3121867179870605,0.679995059967041,1.7590197324752808,0.6700538396835327,0.8482183814048767,-0.07488357275724411,2.073781967163086,-1.5631705522537231,-1.219210147857666,1.8067799806594849,-0.7082832455635071,-0.19012057781219482,1.2515745162963867,-0.09337281435728073,0.5625687837600708,0.5540428161621094,-0.48354145884513855,-1.3386088609695435,1.9820868968963623,1.2664027214050293,1.6286005973815918,1.0704340934753418,1.061086893081665,1.0785387754440308,0.14835205674171448,-0.4802188277244568,-0.020899416878819466,0.5761728286743164,0.6747690439224243,-1.8138149976730347,-1.4427860975265503,-0.9483986496925354,-0.8968210816383362,2.755903720855713,0.6523514986038208,-0.35001713037490845,0.8617385029792786,-0.36338305473327637],[-0.8570059537887573,-0.6235383749008179,-0.9498292207717896,0.14718154072761536,0.2888571321964264,-0.702269434928894,0.28080353140830994,0.5691136121749878,0.4666318893432617,-1.0630748271942139,-2.707672357559204,0.837238609790802,0.9196157455444336,1.027482032775879,-0.8803892731666565,0.6264809966087341,0.45562857389450073,0.2371901422739029,-0.4602018892765045,-0.05041457340121269,-0.3130059838294983,-0.41221821308135986,-1.4134947061538696,0.35715559124946594,0.18787851929664612,1.539821743965149,0.2679833173751831,-0.13005028665065765,1.377989649772644,0.5247381925582886,0.37363767623901367,-0.2787640690803528,-1.3047009706497192,-1.4260714054107666,1.116981863975525,-1.2482516765594482,0.7879447937011719,-0.9664398431777954,-0.3255763649940491,-0.23893646895885468,1.052846908569336,1.6321415901184082,-1.0366805791854858,0.6096276044845581,0.16261303424835205,0.6690818667411804,-1.0013352632522583,-1.4953691959381104,1.5135877132415771,0.2216377556324005,1.1819968223571777,0.011240960098803043,-0.278749942779541,1.0083370208740234,0.296824187040329,0.15158532559871674,-1.9501699209213257,0.7563550472259521,-0.16927361488342285,1.7350646257400513,0.06397327035665512,-0.5606448650360107,-0.7886327505111694,0.7236464023590088,0.3538016080856323,-1.1065244674682617,-0.24234803020954132,0.5507957935333252,0.45451000332832336,0.29247400164604187,-1.445502519607544,0.5497199892997742,-0.8208683729171753,0.07539402693510056,0.19013547897338867,-0.024499433115124702,-0.8284158110618591,-0.48626646399497986,-0.5359668135643005,1.033048391342163,-0.6711041927337646,0.6005932688713074,-0.17372237145900726,0.15384230017662048,0.7340334057807922,-0.6801183819770813,0.6593136191368103,1.0444775819778442,-1.1591215133666992,0.6873730421066284,-0.33593592047691345,-0.3693648874759674,-0.19333024322986603,0.6085476875305176,-0.38094794750213623,-0.223652184009552,1.4580447673797607,-0.4416404962539673,0.9490379691123962,1.5604290962219238],[0.9242284297943115,-1.5828380584716797,1.4160792827606201,1.4178956747055054,1.9193236827850342,1.6801327466964722,0.5494542717933655,-0.23230142891407013,0.5310440063476562,-0.39812740683555603,-1.3846057653427124,-0.4618637263774872,1.8971936702728271,0.21911554038524628,-0.10767519474029541,-0.3158838450908661,-1.3502788543701172,0.07618341594934464,-0.8835305571556091,-0.6809214353561401,0.044784363359212875,-0.4452156722545624,0.13724371790885925,-0.1501113772392273,-0.5111416578292847,1.3714648485183716,2.0933446884155273,-0.6077471971511841,0.866707444190979,2.7574143409729004,1.2989810705184937,-0.9898949861526489,-0.016728881746530533,-0.1835261881351471,0.20127500593662262,0.03751242905855179,-1.3215442895889282,-0.5303559899330139,1.6467784643173218,-0.8170319199562073,0.8132712841033936,-0.4767204821109772,-2.2022268772125244,0.9455429911613464,0.7308245897293091,-0.19429147243499756,0.47546952962875366,-0.3839976489543915,-1.378175139427185,0.026602962985634804,-0.4501003324985504,-1.209851622581482,-0.5508069396018982,-0.6416751742362976,-1.8340837955474854,1.1358990669250488,0.07136663794517517,0.10747209936380386,0.30538228154182434,-1.1547096967697144,1.068594217300415,0.12220215052366257,0.7975271344184875,0.48377692699432373,1.3025449514389038,-0.9662873148918152,1.1393749713897705,0.1955731213092804,-0.05204553157091141,-1.0080108642578125,-0.20001277327537537,0.2683815658092499,-0.3893333077430725,-0.22462496161460876,-1.3171911239624023,2.538130283355713,1.4546699523925781,1.4748317003250122,0.14438681304454803,1.6841603517532349,-2.591423749923706,-0.10057508945465088,1.5355184078216553,1.2011624574661255,1.4939806461334229,-1.4117008447647095,0.8485901355743408,0.20219464600086212,0.3324732780456543,1.3683303594589233,-1.2039055824279785,1.1712766885757446,0.2690301835536957,0.33828631043434143,1.9295399188995361,-0.27439796924591064,1.0766706466674805,0.7655247449874878,0.33382532000541687,1.1903517246246338],[-0.4330917000770569,-0.30714383721351624,-0.7581109404563904,-1.250095248222351,-0.5566778182983398,-1.3035942316055298,-0.7732747793197632,2.0040407180786133,1.7954667806625366,0.5491206049919128,0.7917575240135193,-1.1540977954864502,-2.321615695953369,0.293765127658844,1.0615036487579346,0.41778236627578735,-1.5658749341964722,0.013734548352658749,0.5983564853668213,-0.9010141491889954,-1.0709186792373657,-1.5094177722930908,1.179674744606018,-1.343401551246643,-0.45865127444267273,0.07795330882072449,0.19645754992961884,0.3959781527519226,-0.21346916258335114,0.1689341962337494,1.8527724742889404,1.8183943033218384,0.1716584861278534,-0.9850614666938782,0.8407511115074158,0.4708954691886902,0.9348469972610474,-0.18511447310447693,0.6312621831893921,0.45117032527923584,-1.1467370986938477,1.5088974237442017,0.6649192571640015,0.6833204627037048,-0.08936475217342377,-0.4063520133495331,-1.0989127159118652,-0.5381715893745422,-0.06611069291830063,-0.5356749296188354,1.3619014024734497,0.3377850353717804,1.3336708545684814,-0.34736302495002747,-0.5562151670455933,-0.060591667890548706,0.8757184743881226,-0.17778070271015167,0.4337325394153595,-0.4554929733276367,2.185230016708374,-0.03907749801874161,0.2446834146976471,-2.399984359741211,0.7334422469139099,-2.3595359325408936,-1.1191072463989258,0.1458756923675537,-0.8321267366409302,1.511691927909851,0.6737791299819946,0.5129907131195068,-0.26381775736808777,-0.1269107162952423,-1.4585586786270142,0.8082576990127563,-0.7397304177284241,0.35063543915748596,-0.2557712197303772,0.2150607407093048,1.9319517612457275,-0.08678263425827026,0.36907273530960083,-1.2302478551864624,0.7272279858589172,0.2219923883676529,-0.041940368711948395,0.03944363817572594,0.15879182517528534,-0.5020540952682495,-0.32408586144447327,-0.2125728726387024,-0.7621259093284607,-1.0535041093826294,-0.8114345669746399,-0.797924816608429,0.3892439603805542,-0.9071779847145081,0.37903788685798645,-0.3267892897129059],[0.08311184495687485,0.009348482824862003,-0.7353420257568359,-0.018388409167528152,1.2539207935333252,-1.0431792736053467,1.2986388206481934,-0.7234038710594177,-0.4974123239517212,-1.4834480285644531,0.5746530890464783,-2.025930643081665,0.23022864758968353,0.7319231033325195,-0.4779059886932373,-0.6174976229667664,-0.1045258417725563,1.6263127326965332,0.25802379846572876,0.822359025478363,1.9883558750152588,-0.15228664875030518,-0.8769376277923584,0.8972873687744141,0.042712338268756866,-0.11122219264507294,-0.4786471724510193,-0.19409234821796417,0.7403902411460876,-1.4692580699920654,0.6132330298423767,-1.5974390506744385,-0.2220781296491623,-0.4526194632053375,-0.16411474347114563,-0.1876344531774521,0.7166287302970886,0.07951249182224274,1.434464693069458,-0.14607611298561096,0.6963508725166321,-0.6313977241516113,-0.39129215478897095,-0.012583287432789803,-0.5766214728355408,0.2097361534833908,1.459020972251892,0.627369225025177,0.9332690238952637,1.2188529968261719,0.4240296483039856,0.104029580950737,-0.6259769201278687,0.2559952139854431,0.2946060299873352,-0.16314759850502014,-0.4577873945236206,1.3627982139587402,0.3194398581981659,-1.3294641971588135,-0.964996874332428,-0.3567293882369995,1.0263128280639648,0.3086244761943817,1.5694226026535034,-1.5504460334777832,-1.3947054147720337,0.8149859309196472,0.41235584020614624,-0.3314739167690277,0.07384300231933594,0.11234844475984573,0.5184164047241211,-0.4982181489467621,0.9859297275543213,0.30635976791381836,-0.5628952383995056,1.1738841533660889,0.37631988525390625,0.428631067276001,0.25589093565940857,1.0752053260803223,-2.682429552078247,-0.7350706458091736,-1.315347671508789,0.9906595349311829,0.661325216293335,1.5424503087997437,0.46840783953666687,-1.6447352170944214,1.1365978717803955,0.4361875653266907,0.6095864772796631,-1.5540111064910889,-0.5530335307121277,-0.18177108466625214,-0.14236916601657867,0.09940804541110992,2.273911476135254,0.16127903759479523]],"output_weights":[[-1.6131807565689087,-0.8284855484962463,1.9673690795898438],[-0.5813854932785034,0.8521525263786316,0.6232634782791138],[-0.7733280062675476,0.9497086405754089,1.2754498720169067],[-0.7504265308380127,1.0383702516555786,-1.2507753372192383],[-1.4845144748687744,-1.0262688398361206,0.5041967630386353],[-1.5934674739837646,0.42021429538726807,0.7584697008132935],[-0.8287093639373779,-0.8046861290931702,0.5419253706932068],[-0.361552894115448,-1.352712869644165,-1.1974189281463623],[-0.6040866374969482,0.3131696581840515,-0.7607951164245605],[-1.24367094039917,0.4117692708969116,0.2533521354198456],[-0.1397978812456131,-0.5337098836898804,-0.6673122048377991],[-0.31890541315078735,-0.7064422965049744,0.31683629751205444],[-0.6740782856941223,-0.5054464340209961,0.3112252950668335],[1.543687105178833,-0.3381323516368866,-1.4175772666931152],[0.45419302582740784,-1.361065149307251,-0.4022359549999237],[0.5021263360977173,0.8897642493247986,-2.410630464553833],[-1.0823160409927368,-0.30020174384117126,1.5761257410049438],[0.7785670757293701,-0.7023241519927979,1.156472086906433],[1.1466583013534546,-1.7225948572158813,1.652421236038208],[-0.6016503572463989,-2.0406603813171387,-0.68581622838974],[1.7363250255584717,0.26646319031715393,-0.43941017985343933],[2.705073118209839,-0.9338566064834595,1.0380594730377197],[0.5037400722503662,1.112987995147705,-0.4310952425003052],[-0.8407353162765503,-0.3506125211715698,-0.5631118416786194],[1.5785152912139893,0.5923065543174744,-0.47117552161216736],[-0.6914582848548889,0.4724009037017822,1.2427326440811157],[0.4514451324939728,0.30933451652526855,-0.6188606023788452],[-0.6144259572029114,-0.033725641667842865,0.5828108787536621],[1.0147455930709839,-0.3136979937553406,-0.1999298632144928],[0.42701366543769836,-0.18871435523033142,-0.2791544795036316],[-1.4009027481079102,-1.9521400928497314,-0.5508071780204773],[0.5829194188117981,0.6593295931816101,0.09249915182590485],[0.9037089347839355,-1.7971971035003662,-0.2987813949584961],[0.5700105428695679,-0.29050692915916443,-0.47430193424224854],[-0.41850531101226807,0.7429945468902588,-0.4587196707725525],[-1.6061959266662598,0.37538817524909973,-0.40762433409690857],[-0.4819887578487396,-0.7899369597434998,0.4576750099658966],[0.6599608063697815,-0.09447018802165985,0.9339940547943115],[-0.05746368691325188,-0.6966460347175598,0.7255253195762634],[0.7587523460388184,0.9521178007125854,0.6068793535232544],[0.8960565328598022,-0.6105502247810364,0.8171659708023071],[0.3782076835632324,-0.6968339681625366,-0.4732801914215088],[-0.1626591980457306,0.6891229152679443,0.21885384619235992],[0.14723320305347443,1.4049266576766968,0.6822457909584045],[0.02052374556660652,0.09568604081869125,-0.5734350681304932],[0.5317682027816772,-0.5780699849128723,-0.1733703315258026],[0.4349168539047241,-0.49754881858825684,2.198211431503296],[0.07137247174978256,0.4958297312259674,0.5142017602920532],[1.462647795677185,1.0548244714736938,0.0011436219792813063],[-0.919312596321106,-0.6212540864944458,0.3424730598926544],[-1.7786445617675781,-0.7490094900131226,-1.1116225719451904],[-0.3676965832710266,-0.26789242029190063,0.8160690665245056],[0.568970799446106,0.2155778855085373,-0.18410064280033112],[0.05265231803059578,0.04240041971206665,0.7521139979362488],[0.4505294859409332,-2.4942691326141357,0.03515591844916344],[-0.2146376073360443,1.1078959703445435,-0.28916528820991516],[0.48767781257629395,1.791549563407898,0.5620944499969482],[2.189628839492798,-0.15030577778816223,-0.1516382247209549],[0.5115604996681213,1.4489275217056274,-0.7050045132637024],[-0.4796946048736572,0.4187430143356323,-1.0684349536895752],[-0.9694515466690063,0.4627280533313751,0.36738377809524536],[1.516128420829773,-0.2044532746076584,-0.2696213722229004],[0.912053644657135,0.5586608052253723,0.7964233756065369],[0.7723655700683594,-0.8856282234191895,-0.02071794494986534],[-1.356293797492981,0.24558474123477936,-1.8471444845199585],[-0.7977535724639893,0.09464780241250992,-0.6186267137527466],[0.4230668544769287,1.3731411695480347,-1.3275643587112427],[-0.17153292894363403,-0.8165786862373352,0.002508286852389574],[0.568297803401947,2.1769402027130127,1.2708758115768433],[1.2023930549621582,-0.4701322615146637,-0.17744046449661255],[-0.8622655272483826,0.4807433784008026,1.5865925550460815],[-0.5387653112411499,-0.6154288053512573,-0.2884194552898407],[-0.6571943163871765,-0.7237493991851807,0.7011848092079163],[-0.9260933995246887,-1.08782160282135,-1.2391382455825806],[-1.4415326118469238,2.072740316390991,-0.6339361667633057],[0.6683658957481384,0.12924952805042267,0.42682480812072754],[1.359180212020874,0.8001198768615723,0.5685374736785889],[0.7103941440582275,1.053223729133606,0.4504980146884918],[-0.21173417568206787,-0.629199206829071,-0.3405739367008209],[1.4646985530853271,0.613361656665802,-0.08909406512975693],[-1.8576781749725342,0.9691494107246399,-0.4689965844154358],[-0.9417836666107178,-1.462039589881897,-0.12032000720500946],[0.9648259282112122,-1.413469910621643,-0.5177996158599854],[0.4436761736869812,-0.7893088459968567,1.0338456630706787],[-0.6254679560661316,-0.6774910688400269,-0.8744733929634094],[-0.789351224899292,-0.15642116963863373,-0.3891860544681549],[-0.4150542616844177,0.09277904778718948,-0.3793081045150757],[0.2304089516401291,1.5304055213928223,-1.9710838794708252],[0.12909188866615295,0.44333508610725403,0.3871716558933258],[0.42357897758483887,1.1162160634994507,-0.6017268300056458],[0.6253470778465271,0.547149658203125,1.5856627225875854],[0.9511209726333618,-0.13579583168029785,0.3749184310436249],[-1.2658722400665283,0.5371494889259338,-0.08538953959941864],[1.101088523864746,0.32375264167785645,0.054116301238536835],[-1.1554116010665894,0.26147890090942383,-0.05821617320179939],[-1.1023876667022705,0.07878332585096359,0.79026859998703],[0.806744396686554,0.1864650845527649,0.04493104666471481],[0.35555315017700195,-0.4449092745780945,-0.6278291344642639],[0.7702069282531738,-0.12415304034948349,-0.7646167874336243],[-0.9151000380516052,0.027225201949477196,-1.3924514055252075]]},{"input_weights":[[0.5706912875175476,0.4180770516395569,1.044735312461853,-0.2023862898349762,-0.7509227991104126,0.04483886808156967,0.21603699028491974,0.633548378944397,0.5471620559692383,2.193834066390991,1.635424256324768,0.6428873538970947,0.3161589801311493,-0.6415145993232727,1.2721394300460815,-0.7282399535179138,0.9091468453407288,-0.6529988646507263,-1.2447389364242554,0.03794468939304352,-0.25257834792137146,-0.043841879814863205,1.2976926565170288,-0.24537765979766846,1.2922176122665405,0.07466262578964233,1.1544679403305054,-1.6684767007827759,-0.11328795552253723,-0.508817732334137,-0.20275646448135376,-0.6181126832962036,-0.28116533160209656,1.2703341245651245,0.23621489107608795,-0.6988461017608643,-1.2423112392425537,0.015862585976719856,-0.3815377652645111,-0.27903836965560913,1.40712571144104,1.2254384756088257,0.32048681378364563,-0.14211323857307434,0.9025628566741943,1.1593177318572998,-0.26926830410957336,1.4976441860198975,-0.9815762639045715,0.47206124663352966,-0.541250467300415,-0.41255924105644226,-0.1604153960943222,-0.27017754316329956,1.6450330018997192,0.012056037783622742,1.7589499950408936,0.05058111622929573,-1.7303404808044434,-1.1853941679000854,-1.6106669902801514,0.2422170341014862,0.4123876988887787,2.3384087085723877,-0.3981724977493286,-0.08905123919248581,-0.510079026222229,-0.3313218951225281,0.5882602334022522,0.7412893772125244,-0.2520595192909241,1.0198208093643188,-1.0170828104019165,1.369539737701416,2.8062360286712646,0.689930260181427,-0.02700860984623432,0.035118114203214645,-0.37449538707733154,1.0848581790924072,-0.664541482925415,0.5678095817565918,1.204721212387085,-0.14076419174671173,0.9481470584869385,0.893332839012146,0.0177424568682909,0.644562840461731,-0.5944810509681702,-0.48330971598625183,-0.31206002831459045,-1.0057361125946045,-1.6251896619796753,-0.5345547199249268,-1.4589043855667114,-0.8378376364707947,-0.12405963987112045,0.13927607238292694,1.2241274118423462,1.2058117389678955],[0.7614373564720154,-0.3602052628993988,0.24996447563171387,1.776588797569275,-0.920266330242157,-1.841295838356018,0.6261633634567261,1.9572434425354004,-0.5607379674911499,1.9249637126922607,1.5952454805374146,-0.7455649375915527,0.7439223527908325,-0.11788792908191681,-1.235032558441162,0.8652520179748535,-0.33132269978523254,-1.2972575426101685,1.063053011894226,0.15296918153762817,-0.8206629753112793,-2.242840051651001,0.3311331868171692,1.1580618619918823,0.5053200125694275,-0.26927801966667175,-1.6184825897216797,-0.6745584011077881,0.12195569276809692,-0.45388105511665344,-0.2024509608745575,-1.2376326322555542,-1.1757487058639526,1.8140937089920044,-0.20318740606307983,-1.5852155685424805,-1.1323964595794678,-0.0557781383395195,-0.1809173822402954,-0.6300370693206787,-0.8204912543296814,-2.12660813331604,0.2905177175998688,1.4556260108947754,0.271517813205719,1.3885735273361206,0.47190436720848083,-0.36032184958457947,-0.14853741228580475,-0.5928738117218018,0.18326158821582794,-0.7638723850250244,-1.8432444334030151,0.09347813576459885,-0.11314984411001205,-0.3116005063056946,-0.16596262156963348,0.7239182591438293,0.6954934597015381,-0.06282219290733337,0.7943806052207947,-1.7915287017822266,0.363701730966568,0.5491527318954468,0.01900346390902996,0.43088892102241516,1.4193356037139893,0.03148045390844345,0.6505777835845947,1.031956672668457,0.33976858854293823,-0.6692560911178589,0.5581982731819153,-0.5484644770622253,0.8050164580345154,1.3409857749938965,0.8457655310630798,0.4696533679962158,0.3372451663017273,1.4850401878356934,-1.150639295578003,1.1881510019302368,0.07948260009288788,0.47559213638305664,-0.38124504685401917,0.973717987537384,-1.2522773742675781,0.31734994053840637,-0.011761728674173355,2.5835156440734863,-0.17039726674556732,-1.438361644744873,-0.47453781962394714,-0.7583906054496765,0.8385055065155029,0.061733875423669815,0.9226493835449219,0.5946633815765381,2.629157304763794,1.4720056056976318],[-0.25167974829673767,-0.07393479347229004,-1.0413111448287964,0.2531784772872925,1.3821794986724854,-0.7405275702476501,0.10212677717208862,1.4227019548416138,1.8172338008880615,-1.3013498783111572,0.1804526001214981,-0.7401908040046692,0.38409146666526794,-0.893936812877655,0.381701797246933,0.5267244577407837,0.5538516044616699,-1.2624489068984985,0.49263718724250793,-0.9659128785133362,0.5763355493545532,-1.2275652885437012,-1.2967052459716797,-0.05538138374686241,-0.03003547713160515,-0.6874713897705078,-1.3944379091262817,1.5817316770553589,-1.2397985458374023,0.4528268873691559,1.1543972492218018,-0.6641163229942322,0.06199481710791588,0.35451212525367737,0.8434317111968994,0.8200675845146179,1.3993897438049316,-0.6901853084564209,0.06452084332704544,-0.8247371315956116,0.687379002571106,-2.506681442260742,-1.0885752439498901,-0.13361839950084686,1.4407786130905151,0.19409972429275513,0.7743542790412903,-0.6646367907524109,-0.21863234043121338,-0.35291844606399536,-0.4401603043079376,-0.8412882685661316,-2.268219232559204,-1.7709245681762695,0.15414121747016907,1.1139452457427979,-2.206543445587158,0.6787575483322144,-0.7494117617607117,-0.08389099687337875,0.8478593826293945,-0.18937839567661285,0.9721308350563049,0.9363909363746643,-1.0852465629577637,0.4399135708808899,-0.8079487681388855,0.4511428773403168,0.954304575920105,-0.5310956835746765,0.7762173414230347,1.4131532907485962,2.258673906326294,-1.256272315979004,-1.0437241792678833,-1.9321714639663696,-0.05418479070067406,-0.033055294305086136,0.5647143125534058,-1.0483933687210083,1.5377662181854248,0.05007648468017578,-0.015301033854484558,0.9424100518226624,-0.8371438384056091,-1.597535252571106,-0.6362961530685425,-2.568267822265625,0.2447032928466797,0.10041411966085434,-0.7829061150550842,1.5041677951812744,-0.2883235216140747,0.20016303658485413,-1.851297378540039,0.18198572099208832,-0.1514463871717453,1.104417085647583,-0.18210087716579437,-0.761195957660675],[0.14495530724525452,-0.45589178800582886,0.6894939541816711,-0.009659838862717152,0.5759316682815552,-1.614476203918457,0.7442243099212646,1.2766830921173096,-0.7869948744773865,-1.0031468868255615,-0.6138468980789185,0.007465709000825882,-1.2700629234313965,-1.8855221271514893,0.2732451260089874,1.1194785833358765,-0.01156708411872387,-0.05130233243107796,0.016971813514828682,0.6124195456504822,0.04274469614028931,0.9490172266960144,0.6148931980133057,-1.198644995689392,-0.1418984979391098,1.270632028579712,0.8285161852836609,1.9055941104888916,0.36626529693603516,-0.5775761604309082,0.945550262928009,-1.5491915941238403,-0.14077185094356537,0.6584753394126892,-0.2106250673532486,-0.29372936487197876,0.5472788214683533,0.5150600671768188,-1.2496176958084106,-0.48138511180877686,-0.1573527604341507,-0.7495476603507996,-1.6149193048477173,0.23387309908866882,0.5478509664535522,-0.47870510816574097,-0.2070886343717575,-0.02590281143784523,0.795243501663208,0.2932606637477875,-0.08779331296682358,2.4154417514801025,0.46674272418022156,-0.5160109996795654,0.27817606925964355,1.0622310638427734,1.8268260955810547,-1.76943039894104,-1.3630118370056152,0.3810945451259613,0.15922224521636963,-0.49556764960289,-0.22160471975803375,-1.0878669023513794,0.3545253574848175,0.6616363525390625,0.37527933716773987,-0.4669959247112274,0.7960983514785767,0.10288354009389877,2.029590606689453,0.9449905157089233,0.7558785080909729,-0.8696655631065369,0.08076131343841553,-0.8222447633743286,1.007894515991211,-0.8733039498329163,-1.7640200853347778,0.9452481865882874,-1.2936761379241943,0.3874973952770233,-0.766697883605957,2.3628416061401367,1.2949867248535156,1.7840644121170044,-0.34362950921058655,-0.25034597516059875,-0.17963950335979462,-1.3827766180038452,-0.17930074036121368,-0.11229155957698822,0.34242841601371765,-0.1080927774310112,-1.598582148551941,-0.8335486650466919,-0.8026365637779236,-2.1796040534973145,0.3291579782962799,-1.0282784700393677],[-0.16121894121170044,0.23830674588680267,-1.386423110961914,0.9234669208526611,1.027770757675171,-0.9086284041404724,0.24072007834911346,-0.6714321374893188,0.1932201385498047,-0.18114404380321503,-0.34546205401420593,-0.781456708908081,0.09437990933656693,0.6838061809539795,-0.9688378572463989,-0.936004638671875,-1.1060014963150024,0.46532657742500305,1.2299518585205078,-1.3645764589309692,0.5216079950332642,-1.6923060417175293,1.5475363731384277,0.06395744532346725,0.5358864068984985,-0.029822014272212982,-2.253091812133789,0.6766452193260193,0.46381452679634094,-0.027892347425222397,-0.031021010130643845,0.8962978720664978,-1.5498631000518799,-0.9566681981086731,0.3852977454662323,0.7588784098625183,-0.49813833832740784,-0.022516515105962753,-1.9116861820220947,0.30490177869796753,-1.94554603099823,2.3225159645080566,1.3462029695510864,0.1794949471950531,0.07638520747423172,-0.7003263831138611,-2.260380983352661,0.5949288606643677,-0.07885400950908661,-1.5802134275436401,-0.18146410584449768,-2.025750160217285,-0.7949158549308777,-0.33658507466316223,0.35230934619903564,-0.889416515827179,1.4462188482284546,0.48728835582733154,-0.8426159024238586,-1.1751447916030884,0.6699627637863159,0.6916406154632568,-0.0012650307035073638,-0.43539687991142273,0.7972003221511841,0.13072507083415985,0.12881620228290558,0.8743295073509216,-0.4955769181251526,-1.480575680732727,1.3286656141281128,0.8770270943641663,0.12576401233673096,0.5772220492362976,2.943696975708008,0.2967548668384552,-0.29002845287323,1.1746985912322998,0.644372284412384,1.1993263959884644,0.8864530920982361,-1.3440808057785034,-1.6068905591964722,-0.4368320107460022,-2.365168809890747,1.1561094522476196,0.5175631046295166,-1.3181333541870117,0.162184476852417,-1.7933237552642822,0.7274971604347229,0.2321530431509018,-0.28741180896759033,0.5642357468605042,-0.17109814286231995,-0.32356810569763184,0.07608441263437271,3.0856549739837646,-0.5279064178466797,-1.3857663869857788],[0.28997623920440674,1.103672742843628,-0.24985022842884064,-0.9604405760765076,0.0651249811053276,-1.2107903957366943,-1.419812798500061,-0.21934430301189423,0.12458832561969757,0.1846231073141098,0.6576741337776184,0.1626829206943512,-0.20616480708122253,-0.06852197647094727,0.42081618309020996,0.7076395153999329,0.8616461157798767,-1.40999174118042,1.1786364316940308,1.0675920248031616,-2.58760142326355,1.5273690223693848,0.4826417565345764,1.5574066638946533,2.4922056198120117,0.8017416596412659,-1.282363772392273,1.5924659967422485,0.17670947313308716,0.5175705552101135,0.15399058163166046,-0.31836533546447754,-1.7913808822631836,-0.3694551885128021,0.17976824939250946,-0.04678487405180931,-0.9756326079368591,1.3628122806549072,-0.0897863507270813,-0.4058142304420471,-0.24293728172779083,0.9915664792060852,1.1382685899734497,-1.8565735816955566,0.19642037153244019,-1.06623113155365,1.0123156309127808,0.35312801599502563,1.290074110031128,0.9510083794593811,-0.5025572180747986,-1.121155023574829,-0.4235163629055023,1.6738897562026978,0.7990151643753052,-0.5217317342758179,1.4996012449264526,-0.7852513194084167,-0.7300792336463928,-1.428768277168274,-0.9163244366645813,0.9451104402542114,0.40906473994255066,0.5319154858589172,0.39965736865997314,0.27984586358070374,0.26880890130996704,-0.7277258038520813,0.5496092438697815,-1.5310883522033691,0.24327857792377472,0.02201114222407341,-0.9557397365570068,0.11175114661455154,0.34403976798057556,-0.12755978107452393,1.3356797695159912,0.19197073578834534,-0.23950742185115814,-0.21665345132350922,0.40124163031578064,0.8461189270019531,0.18801341950893402,1.4529106616973877,0.40057051181793213,-2.0685157775878906,-1.0812487602233887,1.081495761871338,-0.2051447182893753,0.6021499037742615,-0.8504747748374939,1.0975801944732666,-0.623657763004303,-0.6746507287025452,-0.9768408536911011,0.5577316880226135,0.16539366543293,-0.1684245467185974,0.8832128643989563,-0.14745356142520905],[-0.6494942307472229,-0.16607318818569183,0.08554564416408539,0.7238418459892273,-1.538749098777771,-0.19710181653499603,-1.3380529880523682,-0.6306211948394775,-0.24901628494262695,-1.057816982269287,0.8362641930580139,0.9551695585250854,-0.5099825859069824,0.3041813373565674,-1.0292304754257202,1.8625496625900269,2.3459625244140625,-1.728614330291748,0.08573908358812332,-1.6478387117385864,0.5185297727584839,-0.9421038627624512,-0.9336012601852417,2.807007074356079,0.46758216619491577,-0.3659418523311615,-0.13641859591007233,0.4012393057346344,0.8475621342658997,1.6780496835708618,0.7713950276374817,0.4184049963951111,0.27208077907562256,1.3569225072860718,0.8761143684387207,-0.1091328039765358,0.8824943900108337,-0.5723076462745667,0.4803689122200012,1.8704004287719727,-0.9376072883605957,1.2402228116989136,0.8299658894538879,0.9596409797668457,0.3400125503540039,-0.5888921022415161,0.3608245551586151,2.2951114177703857,0.09207280725240707,0.7149203419685364,-0.40295466780662537,-0.7276827096939087,-0.4317812919616699,0.5344464182853699,-0.6658396124839783,0.6504132151603699,0.67974454164505,-0.5997377038002014,0.6416913866996765,-0.9696840643882751,-1.0364786386489868,0.847428560256958,1.3121867179870605,0.679995059967041,1.7590197324752808,0.6700538396835327,0.8482183814048767,-0.07488357275724411,2.073781967163086,-1.5631705522537231,-1.219210147857666,1.8067799806594849,-0.7082832455635071,-0.19012057781219482,1.2515745162963867,-0.09337281435728073,0.5625687837600708,0.5540428161621094,-0.48354145884513855,-1.3386088609695435,1.2640330791473389,1.2664027214050293,1.6286005973815918,1.0704340934753418,1.061086893081665,1.0785387754440308,0.14835205674171448,-0.4802188277244568,-0.020899416878819466,0.5761728286743164,0.6747690439224243,-1.8138149976730347,-1.4427860975265503,-0.9483986496925354,-0.8968210816383362,2.755903720855713,0.6523514986038208,-0.35001713037490845,0.8617385029792786,-0.36338305473327637],[-0.8570059537887573,-0.6235383749008179,-0.9498292207717896,0.14718154072761536,0.2888571321964264,-0.702269434928894,0.28080353140830994,0.5691136121749878,0.4666318893432617,-1.0630748271942139,-2.707672357559204,0.837238609790802,0.9196157455444336,1.027482032775879,-0.8803892731666565,0.6264809966087341,0.45562857389450073,0.2371901422739029,-0.4602018892765045,-0.05041457340121269,-0.3130059838294983,-0.41221821308135986,-1.4134947061538696,0.35715559124946594,0.18787851929664612,1.539821743965149,0.2679833173751831,-0.13005028665065765,1.377989649772644,-0.09822532534599304,-0.49769464135169983,-0.2787640690803528,-1.3047009706497192,-1.4260714054107666,1.116981863975525,-1.2482516765594482,0.7879447937011719,-0.9664398431777954,-0.3255763649940491,-0.23893646895885468,1.052846908569336,1.6321415901184082,-1.0366805791854858,0.6096276044845581,0.16261303424835205,0.6690818667411804,-1.0013352632522583,-1.4953691959381104,1.16558837890625,0.2216377556324005,1.1819968223571777,0.011240960098803043,-0.278749942779541,1.0083370208740234,0.296824187040329,0.15158532559871674,-1.9501699209213257,0.7563550472259521,-0.16927361488342285,1.7350646257400513,0.06397327035665512,-0.5606448650360107,-0.7886327505111694,0.7236464023590088,0.3538016080856323,-1.1065244674682617,-0.24234803020954132,0.5507957935333252,0.45451000332832336,0.29247400164604187,-1.445502519607544,0.5497199892997742,-0.8208683729171753,0.07539402693510056,0.19013547897338867,-0.024499433115124702,-0.8284158110618591,-0.48626646399497986,-0.5359668135643005,1.033048391342163,-0.6711041927337646,0.6005932688713074,-0.17372237145900726,0.15384230017662048,0.7340334057807922,-0.6801183819770813,0.6593136191368103,1.0444775819778442,-1.1591215133666992,0.6873730421066284,-0.33593592047691345,-0.3693648874759674,-0.19333024322986603,0.6085476875305176,-0.38094794750213623,-0.223652184009552,1.4580447673797607,-0.4416404962539673,0.9490379691123962,0.750974178314209],[0.9242284297943115,-1.5828380584716797,1.4160792827606201,1.4178956747055054,1.9193236827850342,1.6801327466964722,0.5494542717933655,-0.23230142891407013,0.5310440063476562,-0.39812740683555603,-1.3846057653427124,-0.4618637263774872,1.8971936702728271,0.21911554038524628,-0.10767519474029541,-0.3158838450908661,-1.3502788543701172,0.07618341594934464,-0.8835305571556091,-0.6809214353561401,0.044784363359212875,-0.4452156722545624,0.13724371790885925,-0.1501113772392273,-0.5111416578292847,1.3714648485183716,2.0933446884155273,-0.6077471971511841,0.866707444190979,2.7574143409729004,1.2989810705184937,-0.9898949861526489,-0.016728881746530533,-0.1835261881351471,0.20127500593662262,0.03751242905855179,-1.3215442895889282,-0.5303559899330139,1.6467784643173218,-0.8170319199562073,0.8132712841033936,-0.4767204821109772,-2.2022268772125244,0.9455429911613464,0.7308245897293091,-0.19429147243499756,0.47546952962875366,-0.3839976489543915,-1.378175139427185,0.026602962985634804,-0.4501003324985504,-1.209851622581482,-0.5508069396018982,-0.6416751742362976,-1.8340837955474854,1.1358990669250488,0.07136663794517517,0.10747209936380386,0.30538228154182434,-1.1547096967697144,1.068594217300415,0.12220215052366257,0.7975271344184875,0.48377692699432373,1.3025449514389038,-0.9662873148918152,1.1393749713897705,0.1955731213092804,-0.05204553157091141,-1.0080108642578125,-0.20001277327537537,0.2683815658092499,-0.3893333077430725,-0.22462496161460876,-1.3171911239624023,2.538130283355713,1.4546699523925781,1.4748317003250122,0.14438681304454803,1.6841603517532349,-2.591423749923706,-0.10057508945465088,1.5355184078216553,1.2011624574661255,1.4939806461334229,-1.4117008447647095,0.8485901355743408,0.20219464600086212,-0.25417250394821167,1.3683303594589233,-1.2039055824279785,1.1712766885757446,0.2690301835536957,0.33828631043434143,1.9295399188995361,-0.27439796924591064,1.0766706466674805,0.7655247449874878,0.33382532000541687,1.1903517246246338],[-0.4330917000770569,-0.30714383721351624,-0.7581109404563904,-1.250095248222351,-0.5566778182983398,-1.3035942316055298,-0.7732747793197632,2.0040407180786133,1.7954667806625366,0.5491206049919128,0.7917575240135193,-1.1540977954864502,-2.321615695953369,0.293765127658844,1.0615036487579346,0.41778236627578735,-1.5658749341964722,0.013734548352658749,0.5983564853668213,-0.9010141491889954,-1.0709186792373657,-1.5094177722930908,1.179674744606018,-1.343401551246643,-0.45865127444267273,0.07795330882072449,0.19645754992961884,0.3959781527519226,-0.21346916258335114,0.1689341962337494,1.8527724742889404,1.8183943033218384,0.1716584861278534,-0.9850614666938782,0.8407511115074158,-0.18468092381954193,0.9348469972610474,-0.18511447310447693,0.6312621831893921,0.45117032527923584,-1.1467370986938477,1.5088974237442017,0.6649192571640015,0.6833204627037048,-0.08936475217342377,-0.4063520133495331,-1.0989127159118652,-0.5381715893745422,-0.06611069291830063,-0.5356749296188354,1.3619014024734497,0.3377850353717804,1.3336708545684814,-0.34736302495002747,-0.5562151670455933,-0.060591667890548706,0.8757184743881226,-0.17778070271015167,0.4337325394153595,-0.4554929733276367,2.185230016708374,-0.03907749801874161,0.2446834146976471,-2.399984359741211,0.7334422469139099,-2.3595359325408936,-1.1191072463989258,0.1458756923675537,-0.8321267366409302,1.511691927909851,0.6737791299819946,0.5129907131195068,-0.26381775736808777,-0.1269107162952423,-1.4585586786270142,0.8082576990127563,-0.7397304177284241,0.35063543915748596,-0.2557712197303772,0.2150607407093048,1.9319517612457275,-0.08678263425827026,0.36907273530960083,-1.2302478551864624,0.7272279858589172,0.2219923883676529,-0.041940368711948395,0.03944363817572594,0.15879182517528534,-0.5020540952682495,-0.32408586144447327,-0.2125728726387024,-0.7621259093284607,-1.0535041093826294,-0.8114345669746399,-0.797924816608429,0.3892439603805542,-0.9071779847145081,0.37903788685798645,-0.3267892897129059],[0.08311184495687485,0.009348482824862003,-0.7353420257568359,-0.018388409167528152,1.2539207935333252,-1.26620614528656,1.2986388206481934,-0.7234038710594177,-0.4974123239517212,-1.4834480285644531,0.5746530890464783,-2.025930643081665,0.23022864758968353,0.7319231033325195,-0.4779059886932373,-0.6174976229667664,-0.1045258417725563,1.6263127326965332,0.25802379846572876,0.822359025478363,1.9883558750152588,-0.15228664875030518,-0.8769376277923584,0.8972873687744141,0.042712338268756866,-0.11122219264507294,-0.4786471724510193,-0.19409234821796417,0.7403902411460876,-1.4692580699920654,0.6132330298423767,-1.5974390506744385,-0.2220781296491623,-0.4526194632053375,-0.16411474347114563,-0.1876344531774521,0.7166287302970886,0.07951249182224274,1.434464693069458,-0.14607611298561096,0.6963508725166321,-0.6313977241516113,-0.39129215478897095,-0.012583287432789803,-0.5766214728355408,0.2097361534833908,1.459020972251892,0.627369225025177,0.9332690238952637,1.2188529968261719,0.4240296483039856,0.104029580950737,-0.6259769201278687,0.2559952139854431,0.2946060299873352,-0.16314759850502014,-0.4577873945236206,1.3627982139587402,0.3194398581981659,-1.3294641971588135,-0.964996874332428,-0.3567293882369995,1.0263128280639648,0.3086244761943817,1.5694226026535034,-1.5504460334777832,-1.3947054147720337,0.8149859309196472,0.41235584020614624,-0.3314739167690277,0.07384300231933594,0.11234844475984573,0.5184164047241211,-0.4982181489467621,0.9859297275543213,0.30635976791381836,-0.5628952383995056,1.1738841533660889,0.37631988525390625,0.428631067276001,0.25589093565940857,1.0752053260803223,-2.682429552078247,-0.7350706458091736,-1.315347671508789,0.9906595349311829,0.661325216293335,1.5424503087997437,0.46840783953666687,-1.6447352170944214,1.1365978717803955,0.4361875653266907,0.6095864772796631,-1.5540111064910889,-1.0844072103500366,-0.18177108466625214,-0.14236916601657867,-0.3626037538051605,2.273911476135254,0.16127903759479523]],"output_weights":[[-1.6131807565689087,-0.8284855484962463,1.9673690795898438],[-0.5813854932785034,0.8521525263786316,0.6232634782791138],[-1.286582350730896,0.9497086405754089,1.2754498720169067],[-0.7504265308380127,1.0383702516555786,-1.2507753372192383],[-1.4845144748687744,-1.0262688398361206,0.5041967630386353],[-1.5934674739837646,0.42021429538726807,0.7584697008132935],[-0.8287093639373779,-0.8046861290931702,0.5419253706932068],[-0.361552894115448,-1.352712869644165,-1.1974189281463623],[-0.6040866374969482,0.3131696581840515,-0.7607951164245605],[-1.24367094039917,0.4117692708969116,0.2533521354198456],[-0.1397978812456131,-0.5337098836898804,-0.6673122048377991],[-0.31890541315078735,-0.7064422965049744,0.31683629751205444],[-0.6740782856941223,-0.5054464340209961,0.3112252950668335],[1.543687105178833,-0.3381323516368866,-1.4175772666931152],[0.45419302582740784,-1.361065149307251,-0.4022359549999237],[0.5021263360977173,0.8897642493247986,-2.410630464553833],[-1.0823160409927368,-0.30020174384117126,1.5761257410049438],[0.7785670757293701,-0.7023241519927979,0.5315117239952087],[1.1466583013534546,-1.7225948572158813,1.652421236038208],[-0.6016503572463989,-2.0406603813171387,-0.68581622838974],[1.7363250255584717,0.26646319031715393,-0.43941017985343933],[2.705073118209839,-0.9338566064834595,1.0380594730377197],[0.5037400722503662,1.112987995147705,-0.4310952425003052],[-0.8407353162765503,-0.3506125211715698,-0.5631118416786194],[1.5785152912139893,0.5923065543174744,-0.47117552161216736],[-0.6914582848548889,0.4724009037017822,1.2427326440811157],[0.4514451324939728,0.30933451652526855,-0.6188606023788452],[-1.0151488780975342,-0.033725641667842865,0.5828108787536621],[1.0147455930709839,-0.3136979937553406,-0.1999298632144928],[0.42701366543769836,-0.18871435523033142,-0.2791544795036316],[-1.4009027481079102,-1.9521400928497314,-0.5508071780204773],[0.5829194188117981,0.6593295931816101,0.09249915182590485],[0.9037089347839355,-1.7971971035003662,-0.2987813949584961],[0.5700105428695679,-0.29050692915916443,-0.47430193424224854],[-0.41850531101226807,0.7429945468902588,-0.4587196707725525],[-1.6061959266662598,0.37538817524909973,-0.40762433409690857],[-0.4819887578487396,-0.7899369597434998,0.4576750099658966],[0.6599608063697815,-0.09447018802165985,0.9339940547943115],[-0.05746368691325188,-0.6966460347175598,0.7255253195762634],[0.7587523460388184,0.9521178007125854,0.6068793535232544],[0.8960565328598022,-0.6105502247810364,0.8171659708023071],[0.3782076835632324,-0.6968339681625366,-0.4732801914215088],[-0.1626591980457306,0.6891229152679443,0.21885384619235992],[0.14723320305347443,1.4049266576766968,0.6822457909584045],[0.02052374556660652,0.09568604081869125,-0.5734350681304932],[0.5317682027816772,-0.5780699849128723,-0.1733703315258026],[0.4349168539047241,-0.49754881858825684,2.198211431503296],[0.07137247174978256,0.4958297312259674,0.5142017602920532],[1.462647795677185,1.0548244714736938,0.0011436219792813063],[-0.919312596321106,-0.6212540864944458,0.3424730598926544],[-1.7786445617675781,-0.7490094900131226,-1.1116225719451904],[-0.3676965832710266,-0.26789242029190063,0.8160690665245056],[0.568970799446106,0.2155778855085373,-0.18410064280033112],[0.05265231803059578,0.04240041971206665,0.7521139979362488],[0.4505294859409332,-2.4942691326141357,0.03515591844916344],[-0.2146376073360443,1.1078959703445435,-0.28916528820991516],[0.48767781257629395,1.791549563407898,0.5620944499969482],[2.189628839492798,-0.15030577778816223,-0.1516382247209549],[0.5115604996681213,1.4489275217056274,-0.7050045132637024],[-0.4796946048736572,0.4187430143356323,-1.0684349536895752],[-0.9694515466690063,0.4627280533313751,0.36738377809524536],[1.0665258169174194,-0.2044532746076584,-0.2696213722229004],[0.912053644657135,0.3082942068576813,0.7964233756065369],[0.7723655700683594,-0.8856282234191895,-0.02071794494986534],[-1.356293797492981,0.24558474123477936,-1.8471444845199585],[-0.7977535724639893,0.09464780241250992,-0.6186267137527466],[0.4230668544769287,1.3731411695480347,-1.3275643587112427],[-0.17153292894363403,-0.8165786862373352,0.002508286852389574],[0.568297803401947,2.1769402027130127,1.2708758115768433],[1.2023930549621582,-0.4701322615146637,-0.17744046449661255],[-0.8622655272483826,0.4807433784008026,0.9814803004264832],[-0.5387653112411499,-0.6154288053512573,-0.2884194552898407],[-0.6571943163871765,-0.7237493991851807,0.7011848092079163],[-0.9260933995246887,-1.08782160282135,-1.2391382455825806],[-1.4415326118469238,2.072740316390991,-0.6339361667633057],[0.6683658957481384,0.12924952805042267,-0.17187029123306274],[1.359180212020874,0.8001198768615723,0.5685374736785889],[0.7103941440582275,1.053223729133606,0.4504980146884918],[-0.21173417568206787,-1.1474347114562988,-0.3405739367008209],[1.4646985530853271,0.613361656665802,-0.08909406512975693],[-1.8576781749725342,0.9691494107246399,-0.4689965844154358],[-0.9417836666107178,-1.462039589881897,-0.12032000720500946],[0.7253353595733643,-1.413469910621643,-0.5177996158599854],[0.4436761736869812,-0.7893088459968567,1.0338456630706787],[-0.6254679560661316,-0.6774910688400269,-0.8744733929634094],[-0.789351224899292,-0.15642116963863373,-0.3891860544681549],[-0.4150542616844177,0.09277904778718948,-0.3793081045150757],[0.2304089516401291,1.5304055213928223,-1.9710838794708252],[0.12909188866615295,0.44333508610725403,0.3871716558933258],[0.42357897758483887,1.1162160634994507,-0.6017268300056458],[0.6253470778465271,0.547149658203125,1.5856627225875854],[0.9511209726333618,-0.13579583168029785,0.3749184310436249],[-1.2658722400665283,0.5371494889259338,-0.08538953959941864],[1.101088523864746,0.32375264167785645,0.054116301238536835],[-1.1554116010665894,0.26147890090942383,-0.05821617320179939],[-1.1023876667022705,0.07878332585096359,0.79026859998703],[0.806744396686554,0.1864650845527649,0.04493104666471481],[0.35555315017700195,-0.4449092745780945,-0.6278291344642639],[0.7702069282531738,-0.12415304034948349,-0.7646167874336243],[-0.9151000380516052,0.027225201949477196,-1.3924514055252075]]},{"input_weights":[[0.5706912875175476,0.053939156234264374,1.044735312461853,-0.2023862898349762,-0.7509227991104126,0.04483886808156967,0.21603699028491974,0.633548378944397,0.5471620559692383,2.193834066390991,1.635424256324768,0.6428873538970947,0.3161589801311493,-0.6415145993232727,1.2721394300460815,-0.7282399535179138,0.9091468453407288,-0.6529988646507263,-1.2447389364242554,-0.1894020289182663,-0.25257834792137146,-0.043841879814863205,1.2976926565170288,-0.24537765979766846,1.2922176122665405,0.07466262578964233,1.1544679403305054,-1.040294885635376,-0.11328795552253723,-0.508817732334137,-0.5439895391464233,-0.6181126832962036,-0.28116533160209656,1.2703341245651245,0.23621489107608795,-0.6988461017608643,-1.2423112392425537,0.015862585976719856,-0.3815377652645111,-0.27903836965560913,1.40712571144104,1.2254384756088257,0.32048681378364563,-0.14211323857307434,0.9025628566741943,1.1593177318572998,-0.26926830410957336,1.4976441860198975,-0.9815762639045715,0.47206124663352966,-0.541250467300415,-0.41255924105644226,-0.1604153960943222,-0.27017754316329956,1.6450330018997192,0.012056037783622742,1.7589499950408936,0.05058111622929573,-1.7303404808044434,-1.1853941679000854,-1.6106669902801514,0.2422170341014862,0.4123876988887787,2.3384087085723877,-0.3981724977493286,-0.08905123919248581,-0.510079026222229,-0.3313218951225281,0.5882602334022522,0.7412893772125244,-0.2520595192909241,1.0198208093643188,-1.0170828104019165,1.369539737701416,2.56685733795166,0.689930260181427,-0.02700860984623432,0.035118114203214645,-0.37449538707733154,1.0848581790924072,-0.664541482925415,0.5678095817565918,1.204721212387085,-0.14076419174671173,0.9481470584869385,0.893332839012146,0.0177424568682909,0.644562840461731,-0.5944810509681702,-0.48330971598625183,-0.31206002831459045,-1.0057361125946045,-1.6251896619796753,-0.5345547199249268,-1.4589043855667114,-0.8378376364707947,-0.12405963987112045,0.13927607238292694,1.2241274118423462,1.2058117389678955],[0.7614373564720154,-0.3602052628993988,0.24996447563171387,1.776588797569275,-0.920266330242157,-1.841295838356018,0.6261633634567261,1.9572434425354004,-0.5607379674911499,1.9249637126922607,1.5952454805374146,-0.7455649375915527,0.7439223527908325,-0.11788792908191681,-1.235032558441162,0.8652520179748535,-0.33132269978523254,-1.2972575426101685,1.063053011894226,0.15296918153762817,-0.8206629753112793,-2.242840051651001,0.3311331868171692,1.1580618619918823,0.5053200125694275,-0.26927801966667175,-1.6184825897216797,-0.6745584011077881,-0.27045562863349915,-0.45388105511665344,-0.2024509608745575,-1.2376326322555542,-1.1757487058639526,1.8140937089920044,-0.20318740606307983,-1.5852155685424805,-1.1323964595794678,-0.0557781383395195,-0.1809173822402954,-0.6300370693206787,-0.8204912543296814,-2.5673420429229736,0.2905177175998688,1.4556260108947754,0.271517813205719,1.3885735273361206,0.47190436720848083,-0.696843683719635,-0.14853741228580475,-0.5928738117218018,0.18326158821582794,-0.7638723850250244,-1.8432444334030151,0.09347813576459885,-0.11314984411001205,-0.3116005063056946,-0.16596262156963348,0.7239182591438293,0.6954934597015381,-0.06282219290733337,0.7943806052207947,-1.7915287017822266,0.363701730966568,0.5491527318954468,0.01900346390902996,0.43088892102241516,1.4193356037139893,0.03148045390844345,0.6505777835845947,1.031956672668457,0.33976858854293823,-0.6692560911178589,0.5581982731819153,-0.5484644770622253,0.8050164580345154,1.8290479183197021,0.8457655310630798,0.4696533679962158,0.3372451663017273,1.4850401878356934,-1.150639295578003,1.1881510019302368,0.07948260009288788,0.47559213638305664,-0.38124504685401917,0.973717987537384,-1.2522773742675781,0.31734994053840637,-0.011761728674173355,2.5835156440734863,-0.17039726674556732,-1.438361644744873,-0.47453781962394714,-0.7583906054496765,0.8385055065155029,0.061733875423669815,0.9226493835449219,0.5946633815765381,2.629157304763794,1.4720056056976318],[-0.25167974829673767,-0.07393479347229004,-1.0413111448287964,0.2531784772872925,1.3821794986724854,-0.7405275702476501,0.10212677717208862,1.4227019548416138,1.8172338008880615,-1.3013498783111572,0.1804526001214981,-0.7401908040046692,0.38409146666526794,-0.893936812877655,0.381701797246933,0.5267244577407837,0.5538516044616699,-1.2624489068984985,0.49263718724250793,-0.9659128785133362,1.034424901008606,-1.2275652885437012,-1.2967052459716797,-0.05538138374686241,-0.03003547713160515,-0.6874713897705078,-1.3944379091262817,0.8139743804931641,-1.2397985458374023,0.4528268873691559,1.1543972492218018,-0.6641163229942322,0.06199481710791588,0.35451212525367737,0.8434317111968994,0.8200675845146179,1.9070677757263184,-0.6901853084564209,-0.5440248847007751,-0.8247371315956116,0.687379002571106,-2.506681442260742,-1.0885752439498901,-0.13361839950084686,1.4407786130905151,0.19409972429275513,0.7743542790412903,-0.6646367907524109,-0.21863234043121338,-0.35291844606399536,-0.4401603043079376,-0.8412882685661316,-2.268219232559204,-1.7709245681762695,0.15414121747016907,1.1139452457427979,-2.206543445587158,0.6787575483322144,-0.7494117617607117,-0.08389099687337875,0.8478593826293945,-0.18937839567661285,0.9721308350563049,0.9363909363746643,-1.0852465629577637,-0.06957238912582397,-0.8079487681388855,0.4511428773403168,0.954304575920105,-0.5310956835746765,0.7762173414230347,1.4131532907485962,2.258673906326294,-1.256272315979004,-1.0437241792678833,-1.9321714639663696,-0.05418479070067406,-0.033055294305086136,0.5647143125534058,-1.0483933687210083,1.5377662181854248,0.05007648468017578,-0.015301033854484558,0.9424100518226624,-0.8371438384056091,-1.597535252571106,-0.6362961530685425,-2.568267822265625,0.2447032928466797,0.10041411966085434,-0.7829061150550842,1.5041677951812744,-0.2883235216140747,0.20016303658485413,-1.851297378540039,0.18198572099208832,-0.1514463871717453,1.104417085647583,-0.18210087716579437,-0.761195957660675],[0.14495530724525452,-0.45589178800582886,0.6894939541816711,-0.009659838862717152,0.5759316682815552,-1.614476203918457,0.7442243099212646,1.2766830921173096,-0.7869948744773865,-1.0031468868255615,-0.6138468980789185,0.007465709000825882,-1.2700629234313965,-1.8855221271514893,0.2732451260089874,1.1194785833358765,-0.01156708411872387,-0.05130233243107796,0.016971813514828682,0.20886294543743134,0.04274469614028931,0.9490172266960144,0.6148931980133057,-1.198644995689392,-0.1418984979391098,1.270632028579712,0.8285161852836609,1.1044697761535645,0.36626529693603516,-0.5775761604309082,0.945550262928009,-1.5491915941238403,-0.14077185094356537,0.6584753394126892,-0.2106250673532486,-0.29372936487197876,1.180895209312439,0.5150600671768188,-1.2496176958084106,-0.48138511180877686,-0.1573527604341507,-0.7495476603507996,-1.6149193048477173,0.23387309908866882,0.5478509664535522,-0.47870510816574097,-0.2070886343717575,-0.02590281143784523,0.1825181394815445,0.2932606637477875,-0.08779331296682358,2.4154417514801025,0.46674272418022156,-0.5160109996795654,0.27817606925964355,1.0622310638427734,1.8268260955810547,-1.76943039894104,-1.3630118370056152,0.3810945451259613,0.15922224521636963,-0.49556764960289,-0.22160471975803375,-1.0878669023513794,0.3545253574848175,0.6616363525390625,0.37527933716773987,-0.4669959247112274,0.7960983514785767,0.10288354009389877,2.029590606689453,0.9449905157089233,0.7558785080909729,-0.8696655631065369,0.08076131343841553,-0.8222447633743286,1.007894515991211,-0.8733039498329163,-1.7640200853347778,0.9452481865882874,-1.2936761379241943,0.3874973952770233,-0.766697883605957,2.3628416061401367,1.2949867248535156,1.7840644121170044,-0.34362950921058655,-0.25034597516059875,-0.17963950335979462,-1.3827766180038452,-0.17930074036121368,-0.11229155957698822,0.34242841601371765,-0.1080927774310112,-1.598582148551941,-0.8335486650466919,-0.8026365637779236,-2.1796040534973145,0.06465151906013489,-1.0282784700393677],[-0.16121894121170044,0.23830674588680267,-1.386423110961914,0.9234669208526611,0.5683059096336365,-0.9086284041404724,0.24072007834911346,-0.6714321374893188,0.1932201385498047,-0.18114404380321503,-0.34546205401420593,-0.781456708908081,0.09437990933656693,0.6838061809539795,-0.9688378572463989,-0.936004638671875,-1.1060014963150024,0.46532657742500305,1.2299518585205078,-1.3645764589309692,0.5216079950332642,-1.6923060417175293,0.8211775422096252,0.06395744532346725,0.5358864068984985,-0.029822014272212982,-2.253091812133789,0.6766452193260193,0.46381452679634094,-0.027892347425222397,-0.031021010130643845,0.8962978720664978,-1.5498631000518799,-0.9566681981086731,0.3852977454662323,0.7588784098625183,-0.49813833832740784,-0.022516515105962753,-1.9116861820220947,0.30490177869796753,-1.94554603099823,2.3225159645080566,1.3462029695510864,0.1794949471950531,0.07638520747423172,-0.7003263831138611,-2.260380983352661,0.5949288606643677,-0.07885400950908661,-1.5802134275436401,-0.18146410584449768,-2.025750160217285,-0.7949158549308777,-1.1290823221206665,1.1514250040054321,0.4089471101760864,0.8069027066230774,0.5517098903656006,-0.6400008797645569,0.10026692599058151,-0.07687164098024368,-0.21927028894424438,-0.5179575085639954,0.9665623903274536,0.596975564956665,-0.9908744692802429,-1.2850781679153442,0.8743295073509216,-0.4955769181251526,-1.480575680732727,1.3286656141281128,0.8770270943641663,0.12576401233673096,1.1735053062438965,2.943696975708008,0.2967548668384552,-0.29002845287323,1.1746985912322998,0.644372284412384,1.1993263959884644,1.2446904182434082,-1.3440808057785034,-1.6068905591964722,-0.4368320107460022,-2.365168809890747,1.1561094522476196,0.5175631046295166,-1.3181333541870117,0.162184476852417,-1.7933237552642822,0.7274971604347229,0.2321530431509018,-0.28741180896759033,0.5642357468605042,-0.17109814286231995,-0.32356810569763184,0.07608441263437271,3.0856549739837646,-0.5279064178466797,-1.3857663869857788],[0.28997623920440674,1.103672742843628,-0.24985022842884064,-0.9604405760765076,0.0651249811053276,-1.2107903957366943,-1.419812798500061,-0.21934430301189423,0.12458832561969757,0.1846231073141098,0.6576741337776184,0.1626829206943512,-0.20616480708122253,-0.06852197647094727,0.42081618309020996,0.7076395153999329,0.8616461157798767,-1.40999174118042,1.1786364316940308,1.0675920248031616,-2.258323907852173,1.5273690223693848,0.4826417565345764,0.9987960457801819,2.4922056198120117,0.8017416596412659,-1.282363772392273,1.5924659967422485,0.17670947313308716,0.5175705552101135,0.15399058163166046,-0.8326308131217957,-1.7913808822631836,-0.3694551885128021,0.17976824939250946,-0.04678487405180931,-0.9756326079368591,1.3628122806549072,-0.0897863507270813,-0.4058142304420471,-0.24293728172779083,0.9915664792060852,0.8631823658943176,-1.8565735816955566,0.19642037153244019,-1.06623113155365,1.0123156309127808,0.35312801599502563,1.290074110031128,0.9510083794593811,-0.5025572180747986,-1.121155023574829,-0.4235163629055023,1.6738897562026978,0.12435969710350037,-0.5217317342758179,1.4996012449264526,-0.7852513194084167,-0.7300792336463928,-1.428768277168274,-0.9163244366645813,0.9451104402542114,0.40906473994255066,0.5319154858589172,0.39965736865997314,0.27984586358070374,0.26880890130996704,-0.7277258038520813,0.5496092438697815,-1.5310883522033691,0.24327857792377472,0.02201114222407341,-0.9557397365570068,0.765347421169281,0.34403976798057556,-0.12755978107452393,1.3356797695159912,0.19197073578834534,-0.23950742185115814,-0.21665345132350922,0.40124163031578064,0.8461189270019531,0.18801341950893402,1.4529106616973877,0.40057051181793213,-2.0685157775878906,-1.0812487602233887,1.081495761871338,-0.2051447182893753,0.6021499037742615,-0.8504747748374939,1.0975801944732666,-0.623657763004303,-0.6746507287025452,-0.9768408536911011,0.5577316880226135,0.16539366543293,-0.1684245467185974,0.8832128643989563,-0.14745356142520905],[-0.6494942307472229,-0.16607318818569183,0.08554564416408539,0.7238418459892273,-1.538749098777771,-0.19710181653499603,-1.3380529880523682,-0.6306211948394775,-0.24901628494262695,-1.057816982269287,0.8362641930580139,0.9551695585250854,-0.5099825859069824,0.3041813373565674,-1.0292304754257202,1.342665433883667,2.3459625244140625,-1.728614330291748,0.08573908358812332,-1.6478387117385864,0.5185297727584839,-0.9421038627624512,-0.9336012601852417,2.807007074356079,0.46758216619491577,-0.3659418523311615,-0.13641859591007233,0.4012393057346344,0.8475621342658997,1.6780496835708618,0.7713950276374817,0.4184049963951111,0.27208077907562256,1.3569225072860718,0.8761143684387207,-0.1091328039765358,0.5712578296661377,-0.5723076462745667,0.4803689122200012,1.8704004287719727,-0.9376072883605957,1.2402228116989136,0.8299658894538879,0.9596409797668457,0.3400125503540039,-0.5888921022415161,0.3608245551586151,2.2951114177703857,0.09207280725240707,0.7149203419685364,-0.40295466780662537,-0.7276827096939087,-0.4317812919616699,0.5344464182853699,-0.6658396124839783,0.6504132151603699,0.67974454164505,-0.5997377038002014,0.6416913866996765,-0.9696840643882751,-1.0364786386489868,1.2754360437393188,1.3121867179870605,0.679995059967041,1.7590197324752808,0.6700538396835327,0.8482183814048767,-0.07488357275724411,1.310664415359497,-1.5631705522537231,-1.219210147857666,1.8067799806594849,-0.7082832455635071,-0.19012057781219482,1.2515745162963867,-0.09337281435728073,0.5625687837600708,0.5540428161621094,-0.48354145884513855,-1.3386088609695435,1.2640330791473389,1.2664027214050293,1.6286005973815918,1.0704340934753418,1.061086893081665,1.0785387754440308,0.14835205674171448,-0.4802188277244568,-0.020899416878819466,0.5761728286743164,0.6747690439224243,-1.8138149976730347,-1.4427860975265503,-0.9483986496925354,-0.8968210816383362,2.755903720855713,0.6523514986038208,-0.35001713037490845,0.8617385029792786,-0.36338305473327637],[-0.8570059537887573,-0.6235383749008179,-0.9498292207717896,0.691523551940918,0.2888571321964264,-0.702269434928894,0.28080353140830994,0.5691136121749878,0.4666318893432617,-1.0630748271942139,-2.707672357559204,0.4205991327762604,0.9196157455444336,1.027482032775879,-0.8803892731666565,0.6264809966087341,0.45562857389450073,0.2371901422739029,-0.4602018892765045,-0.05041457340121269,-0.3130059838294983,-0.41221821308135986,-1.4134947061538696,0.35715559124946594,-0.3048100471496582,1.539821743965149,0.2679833173751831,-0.13005028665065765,1.377989649772644,-0.09822532534599304,-0.49769464135169983,-0.2787640690803528,-1.3047009706497192,-1.4260714054107666,1.116981863975525,-0.742241382598877,0.7879447937011719,-0.9664398431777954,-0.3255763649940491,-0.23893646895885468,1.052846908569336,1.6321415901184082,-1.0366805791854858,0.6096276044845581,0.16261303424835205,0.6690818667411804,-1.0013352632522583,-1.4953691959381104,1.16558837890625,0.2216377556324005,1.1819968223571777,0.011240960098803043,-0.278749942779541,1.0083370208740234,0.296824187040329,0.15158532559871674,-1.9501699209213257,0.7563550472259521,-0.16927361488342285,1.7350646257400513,0.06397327035665512,-0.5606448650360107,-1.3863186836242676,0.7236464023590088,0.3538016080856323,-1.1065244674682617,-0.24234803020954132,0.5507957935333252,0.45451000332832336,0.29247400164604187,-1.445502519607544,0.5497199892997742,-0.8208683729171753,0.07539402693510056,0.19013547897338867,-0.024499433115124702,-0.8284158110618591,-0.48626646399497986,-0.5359668135643005,1.033048391342163,-0.6711041927337646,0.6005932688713074,-0.17372237145900726,0.15384230017662048,0.7340334057807922,-0.6801183819770813,0.6593136191368103,1.0444775819778442,-1.1591215133666992,0.6873730421066284,-0.33593592047691345,-0.3693648874759674,-0.19333024322986603,0.6085476875305176,-0.38094794750213623,-0.223652184009552,0.8082782030105591,-0.4416404962539673,0.9490379691123962,0.750974178314209],[0.9242284297943115,-1.5828380584716797,1.4160792827606201,1.4178956747055054,1.9193236827850342,1.6801327466964722,0.5494542717933655,-0.23230142891407013,0.5310440063476562,-0.39812740683555603,-1.3846057653427124,-0.4618637263774872,1.8971936702728271,0.21911554038524628,-0.10767519474029541,-0.3158838450908661,-1.3502788543701172,0.07618341594934464,-0.8835305571556091,-0.6809214353561401,0.044784363359212875,-0.4452156722545624,0.13724371790885925,-0.1501113772392273,-0.5111416578292847,1.3714648485183716,2.0933446884155273,-0.6077471971511841,0.866707444190979,3.259732484817505,1.2989810705184937,-0.9898949861526489,-0.016728881746530533,-0.1835261881351471,0.20127500593662262,0.4695338308811188,-1.3215442895889282,-0.5303559899330139,1.6467784643173218,-0.8170319199562073,0.8132712841033936,-0.4767204821109772,-2.2022268772125244,0.9455429911613464,0.7308245897293091,-0.19429147243499756,0.47546952962875366,-0.3839976489543915,-1.378175139427185,0.026602962985634804,-0.4501003324985504,-1.209851622581482,-0.5508069396018982,-0.19055064022541046,-1.8340837955474854,1.1358990669250488,0.07136663794517517,0.10747209936380386,0.30538228154182434,-0.48363009095191956,1.068594217300415,0.12220215052366257,0.7975271344184875,0.48377692699432373,1.3025449514389038,-0.9662873148918152,1.729321002960205,0.1955731213092804,-0.05204553157091141,-1.0080108642578125,-0.20001277327537537,0.2683815658092499,-0.3893333077430725,-0.22462496161460876,-1.3171911239624023,2.538130283355713,1.4546699523925781,1.4748317003250122,0.14438681304454803,1.6841603517532349,-2.591423749923706,0.4900088310241699,1.5355184078216553,1.2011624574661255,1.4939806461334229,-1.4117008447647095,0.8485901355743408,0.20219464600086212,-0.25417250394821167,1.3683303594589233,-1.2039055824279785,1.1712766885757446,-0.31428319215774536,0.33828631043434143,1.9295399188995361,-0.27439796924591064,1.0766706466674805,0.7655247449874878,0.33382532000541687,1.1903517246246338],[-0.4330917000770569,-0.30714383721351624,-0.7581109404563904,-1.250095248222351,-0.23630988597869873,-1.3035942316055298,-0.7732747793197632,2.0040407180786133,1.7954667806625366,0.5491206049919128,0.7917575240135193,-1.1540977954864502,-2.321615695953369,0.293765127658844,1.0615036487579346,0.41778236627578735,-1.5658749341964722,0.013734548352658749,0.5983564853668213,-0.9010141491889954,-1.0709186792373657,-1.5094177722930908,1.179674744606018,-1.343401551246643,-0.45865127444267273,0.07795330882072449,0.19645754992961884,0.3959781527519226,-0.21346916258335114,0.1689341962337494,1.3560435771942139,1.8183943033218384,0.1716584861278534,-0.9850614666938782,0.8407511115074158,-0.18468092381954193,0.9348469972610474,-0.18511447310447693,0.6312621831893921,0.45117032527923584,-1.1467370986938477,1.5088974237442017,0.6649192571640015,0.6833204627037048,-0.08936475217342377,-0.4063520133495331,-1.0989127159118652,-0.5381715893745422,-0.06611069291830063,-0.5356749296188354,1.3619014024734497,0.3377850353717804,1.3336708545684814,-0.34736302495002747,-0.5562151670455933,-0.060591667890548706,0.8757184743881226,-0.17778070271015167,0.4337325394153595,-0.4554929733276367,1.5418133735656738,0.4811219871044159,0.2446834146976471,-2.399984359741211,0.7334422469139099,-2.3595359325408936,-1.1191072463989258,0.1458756923675537,-0.8321267366409302,1.511691927909851,0.6737791299819946,0.5129907131195068,-0.26381775736808777,-0.1269107162952423,-1.4585586786270142,0.8082576990127563,-0.7397304177284241,0.35063543915748596,-0.2557712197303772,0.2150607407093048,1.9319517612457275,-0.08678263425827026,0.36907273530960083,-1.2302478551864624,0.7272279858589172,0.2219923883676529,-0.041940368711948395,0.03944363817572594,0.15879182517528534,-0.5020540952682495,-0.32408586144447327,-0.2125728726387024,-0.7621259093284607,-1.0535041093826294,-1.3335590362548828,-0.797924816608429,0.3892439603805542,-0.9071779847145081,0.37903788685798645,-0.3267892897129059],[0.08311184495687485,0.009348482824862003,-0.7353420257568359,-0.018388409167528152,1.2539207935333252,-1.26620614528656,1.2986388206481934,-0.7234038710594177,-0.4974123239517212,-1.4834480285644531,0.5746530890464783,-2.025930643081665,0.7842003703117371,0.7319231033325195,-0.4779059886932373,-0.6174976229667664,-0.1045258417725563,1.6263127326965332,0.25802379846572876,0.822359025478363,1.9883558750152588,-0.15228664875030518,-0.8769376277923584,0.8972873687744141,0.042712338268756866,-0.11122219264507294,-0.4786471724510193,-0.19409234821796417,0.7403902411460876,-1.4692580699920654,0.6132330298423767,-1.5974390506744385,-0.2220781296491623,-0.4526194632053375,-0.16411474347114563,-0.1876344531774521,0.7166287302970886,0.07951249182224274,1.434464693069458,-0.14607611298561096,0.6963508725166321,-0.6313977241516113,-0.39129215478897095,-0.012583287432789803,-0.5766214728355408,0.2097361534833908,1.459020972251892,0.627369225025177,0.9332690238952637,1.2188529968261719,0.4240296483039856,0.104029580950737,-0.6259769201278687,0.2559952139854431,0.2946060299873352,-0.16314759850502014,-0.4577873945236206,1.3627982139587402,-0.3601228892803192,-1.3294641971588135,-0.964996874332428,-0.3567293882369995,1.7234373092651367,0.3086244761943817,1.5694226026535034,-1.5504460334777832,-1.3947054147720337,0.319583922624588,0.41235584020614624,-0.3314739167690277,0.07384300231933594,0.11234844475984573,0.5184164047241211,-0.4982181489467621,0.9859297275543213,0.30635976791381836,-0.5628952383995056,1.1738841533660889,0.37631988525390625,0.428631067276001,0.25589093565940857,1.0752053260803223,-2.682429552078247,-0.7350706458091736,-1.315347671508789,0.9906595349311829,0.661325216293335,1.5424503087997437,0.46840783953666687,-1.6447352170944214,1.1365978717803955,0.4361875653266907,0.6095864772796631,-1.5540111064910889,-1.0844072103500366,-0.18177108466625214,-0.14236916601657867,-0.3626037538051605,2.273911476135254,0.16127903759479523]],"output_weights":[[-1.6131807565689087,-0.2806205451488495,1.9673690795898438],[-0.5813854932785034,0.8521525263786316,0.6232634782791138],[-1.286582350730896,0.9497086405754089,1.2754498720169067],[-0.7504265308380127,1.0383702516555786,-1.2507753372192383],[-1.4845144748687744,-1.0262688398361206,0.5041967630386353],[-1.5934674739837646,0.42021429538726807,0.7584697008132935],[-0.8287093639373779,-0.8046861290931702,0.5419253706932068],[-0.361552894115448,-1.352712869644165,-1.1974189281463623],[-0.6040866374969482,-0.3038794696331024,-0.7607951164245605],[-1.24367094039917,1.6062710285186768,0.2533521354198456],[0.21418212354183197,-0.5337098836898804,-0.6673122048377991],[-0.31890541315078735,-0.7064422965049744,0.31683629751205444],[-0.6740782856941223,-0.5054464340209961,0.3112252950668335],[1.543687105178833,-0.3381323516368866,-1.4175772666931152],[0.45419302582740784,-1.361065149307251,-0.4022359549999237],[0.5021263360977173,0.8897642493247986,-2.410630464553833],[-1.0823160409927368,-0.30020174384117126,1.5761257410049438],[0.7785670757293701,-0.7023241519927979,0.5315117239952087],[1.1466583013534546,-1.7225948572158813,1.652421236038208],[-0.6016503572463989,-2.0406603813171387,-0.68581622838974],[1.7363250255584717,0.26646319031715393,-0.43941017985343933],[2.705073118209839,-0.9338566064834595,0.6690508723258972],[0.9152323007583618,1.112987995147705,-0.4310952425003052],[-1.5840318202972412,-0.0038930971641093493,-0.5631118416786194],[1.5785152912139893,0.5923065543174744,-0.47117552161216736],[-1.0505421161651611,0.4724009037017822,1.2427326440811157],[0.4514451324939728,0.30933451652526855,-0.6188606023788452],[-1.0151488780975342,-0.033725641667842865,0.5828108787536621],[1.0147455930709839,-0.3136979937553406,-0.1999298632144928],[0.07925676554441452,-0.18871435523033142,-0.2791544795036316],[-1.4009027481079102,-1.9521400928497314,-0.5508071780204773],[0.5829194188117981,0.6593295931816101,0.09249915182590485],[0.9037089347839355,-1.7971971035003662,-0.9186350107192993],[0.5700105428695679,-0.29050692915916443,-0.47430193424224854],[-0.41850531101226807,0.7429945468902588,-0.4587196707725525],[-1.6061959266662598,0.37538817524909973,-0.40762433409690857],[-0.4819887578487396,-0.7899369597434998,0.4576750099658966],[0.6599608063697815,-0.09447018802165985,0.9339940547943115],[-0.05746368691325188,-0.6966460347175598,0.7255253195762634],[0.7587523460388184,0.9521178007125854,0.6068793535232544],[0.5768993496894836,-0.6105502247810364,0.8171659708023071],[0.3782076835632324,-0.6968339681625366,-0.4732801914215088],[-0.1626591980457306,0.6891229152679443,0.21885384619235992],[0.14723320305347443,0.837144672870636,0.6822457909584045],[0.02052374556660652,0.09568604081869125,-0.5734350681304932],[0.5317682027816772,-0.5780699849128723,-0.1733703315258026],[0.4349168539047241,-0.49754881858825684,2.198211431503296],[0.07137247174978256,0.8787409067153931,0.5142017602920532],[1.462647795677185,0.560838520526886,0.0011436219792813063],[-0.919312596321106,-0.6212540864944458,0.3424730598926544],[-1.7786445617675781,-0.7490094900131226,-1.1116225719451904],[-0.3676965832710266,-0.26789242029190063,0.8160690665245056],[0.568970799446106,-0.17873027920722961,-0.18410064280033112],[0.05265231803059578,0.04240041971206665,0.7521139979362488],[0.4505294859409332,-2.4942691326141357,0.03515591844916344],[-0.2146376073360443,1.1078959703445435,-0.28916528820991516],[0.48767781257629395,1.791549563407898,0.5620944499969482],[1.841599941253662,-0.15030577778816223,-0.1516382247209549],[0.5115604996681213,0.6561501026153564,-0.7050045132637024],[-0.4796946048736572,0.4187430143356323,-1.0684349536895752],[-0.9694515466690063,0.4627280533313751,0.36738377809524536],[1.0665258169174194,-0.2044532746076584,-0.2696213722229004],[0.912053644657135,0.3082942068576813,0.7964233756065369],[0.7723655700683594,-0.8856282234191895,-0.02071794494986534],[-1.356293797492981,-0.399600088596344,-1.8471444845199585],[-0.7977535724639893,0.09464780241250992,-0.6186267137527466],[0.4230668544769287,1.3731411695480347,-1.3275643587112427],[-0.17153292894363403,-0.8165786862373352,0.002508286852389574],[0.15067671239376068,2.1769402027130127,1.2708758115768433],[1.2023930549621582,-0.4701322615146637,-0.17744046449661255],[-0.8622655272483826,0.4807433784008026,0.9814803004264832],[-0.5387653112411499,-0.6154288053512573,-0.2884194552898407],[-0.6571943163871765,-0.7237493991851807,0.7011848092079163],[-0.9260933995246887,-1.08782160282135,-1.2391382455825806],[-1.4415326118469238,2.072740316390991,-0.6339361667633057],[0.6683658957481384,0.12924952805042267,-0.17187029123306274],[1.359180212020874,0.8001198768615723,0.5685374736785889],[1.282543420791626,1.053223729133606,0.4504980146884918],[-0.21173417568206787,-1.1474347114562988,-0.3405739367008209],[1.4646985530853271,0.613361656665802,-0.08909406512975693],[-1.8576781749725342,0.9691494107246399,-0.4689965844154358],[-0.9417836666107178,-1.462039589881897,-0.12032000720500946],[0.7253353595733643,-1.413469910621643,-0.5177996158599854],[0.4436761736869812,-0.7893088459968567,1.0338456630706787],[-0.6254679560661316,-0.6774910688400269,-0.8744733929634094],[-0.789351224899292,-0.15642116963863373,-0.3891860544681549],[-0.4150542616844177,0.09277904778718948,-0.3793081045150757],[0.2304089516401291,1.5304055213928223,-1.9710838794708252],[0.12909188866615295,0.44333508610725403,0.3871716558933258],[0.42357897758483887,1.1162160634994507,-0.6017268300056458],[0.6253470778465271,0.547149658203125,1.5856627225875854],[0.9511209726333618,-0.13579583168029785,0.3749184310436249],[-1.2658722400665283,0.5371494889259338,-0.08538953959941864],[1.101088523864746,0.32375264167785645,0.054116301238536835],[-1.1554116010665894,0.26147890090942383,-0.05821617320179939],[-1.1023876667022705,0.07878332585096359,0.79026859998703],[0.806744396686554,0.1864650845527649,0.04493104666471481],[0.35555315017700195,-0.4449092745780945,-0.6278291344642639],[0.7702069282531738,-0.12415304034948349,-0.7646167874336243],[-0.9151000380516052,0.027225201949477196,-1.3924514055252075]]},{"input_weights":[[0.5706912875175476,0.4180770516395569,1.044735312461853,-0.2023862898349762,-0.7509227991104126,0.04483886808156967,0.21603699028491974,0.633548378944397,0.5471620559692383,2.193834066390991,1.635424256324768,0.6428873538970947,0.3161589801311493,-0.6415145993232727,1.2721394300460815,-0.7282399535179138,0.9091468453407288,-0.6529988646507263,-1.2447389364242554,-0.1894020289182663,-0.25257834792137146,-0.043841879814863205,1.2976926565170288,-0.24537765979766846,1.2922176122665405,0.07466262578964233,1.1544679403305054,-1.6684767007827759,-0.11328795552253723,-0.508817732334137,-0.20275646448135376,-0.6181126832962036,-0.28116533160209656,1.2703341245651245,0.23621489107608795,-0.6988461017608643,-1.2423112392425537,0.6395400762557983,-0.3815377652645111,-0.27903836965560913,1.40712571144104,1.2254384756088257,0.32048681378364563,-0.14211323857307434,0.9025628566741943,1.1593177318572998,-0.26926830410957336,1.4976441860198975,-0.9815762639045715,0.47206124663352966,-0.541250467300415,-0.41255924105644226,-0.1604153960943222,-0.27017754316329956,1.6450330018997192,0.012056037783622742,1.7589499950408936,0.05058111622929573,-1.7303404808044434,-1.1853941679000854,-1.6106669902801514,0.2422170341014862,0.4123876988887787,2.3384087085723877,-0.3981724977493286,-0.08905123919248581,-0.510079026222229,-0.3313218951225281,0.997458815574646,0.7412893772125244,-0.2520595192909241,1.0198208093643188,-1.0170828104019165,1.369539737701416,2.56685733795166,0.689930260181427,-0.02700860984623432,0.035118114203214645,-0.37449538707733154,1.0848581790924072,-0.664541482925415,0.5678095817565918,1.204721212387085,-0.14076419174671173,0.9481470584869385,0.893332839012146,0.0177424568682909,0.644562840461731,-0.5944810509681702,-0.48330971598625183,-0.31206002831459045,-1.5253545045852661,-1.6251896619796753,-0.5345547199249268,-1.4589043855667114,-0.8378376364707947,-0.12405963987112045,0.13927607238292694,1.2241274118423462,1.2058117389678955],[0.7614373564720154,-0.3602052628993988,0.24996447563171387,1.776588797569275,-0.920266330242157,-1.841295838356018,0.6261633634567261,1.9572434425354004,-0.5607379674911499,1.9249637126922607,1.5952454805374146,-0.7455649375915527,0.7439223527908325,-0.11788792908191681,-1.235032558441162,0.8652520179748535,-0.33132269978523254,-1.2972575426101685,1.063053011894226,0.15296918153762817,-0.8206629753112793,-2.242840051651001,0.3311331868171692,1.1580618619918823,0.5053200125694275,-0.26927801966667175,-1.6184825897216797,-0.6745584011077881,-0.27045562863349915,-0.45388105511665344,-0.2024509608745575,-1.2376326322555542,-1.1757487058639526,1.8140937089920044,-0.20318740606307983,-1.5852155685424805,-1.1323964595794678,-0.0557781383395195,-0.1809173822402954,-0.6300370693206787,-0.8204912543296814,-2.12660813331604,0.2905177175998688,1.4556260108947754,0.271517813205719,1.3885735273361206,0.47190436720848083,-0.36032184958457947,-0.14853741228580475,-0.5928738117218018,0.18326158821582794,-0.7638723850250244,-1.8432444334030151,0.09347813576459885,-0.11314984411001205,-0.3116005063056946,-0.16596262156963348,0.7239182591438293,0.6954934597015381,-0.06282219290733337,0.7943806052207947,-1.7915287017822266,0.363701730966568,0.5491527318954468,0.01900346390902996,0.43088892102241516,1.4193356037139893,0.03148045390844345,0.6505777835845947,1.031956672668457,0.33976858854293823,-0.6692560911178589,0.5581982731819153,-0.5484644770622253,0.8050164580345154,1.3409857749938965,0.8457655310630798,0.4696533679962158,0.3372451663017273,1.4850401878356934,-1.150639295578003,1.6813433170318604,0.07948260009288788,0.47559213638305664,-0.38124504685401917,0.973717987537384,-1.2522773742675781,0.31734994053840637,-0.011761728674173355,2.5835156440734863,0.7076895236968994,-1.438361644744873,-0.47453781962394714,-0.7583906054496765,0.8385055065155029,0.061733875423669815,0.9226493835449219,0.5946633815765381,2.629157304763794,1.4720056056976318],[-0.25167974829673767,-0.07393479347229004,-1.0413111448287964,0.2531784772872925,1.3821794986724854,-0.7405275702476501,0.10212677717208862,1.4227019548416138,1.8172338008880615,-1.3013498783111572,0.1804526001214981,-0.7401908040046692,0.38409146666526794,-0.893936812877655,0.381701797246933,0.5267244577407837,0.5538516044616699,-1.2624489068984985,0.49263718724250793,-0.9659128785133362,0.5763355493545532,-1.2275652885437012,-1.2967052459716797,-0.05538138374686241,-0.03003547713160515,-0.6874713897705078,-1.3944379091262817,1.5817316770553589,-0.9843478202819824,0.4528268873691559,1.1543972492218018,-0.6641163229942322,0.06199481710791588,0.35451212525367737,0.8434317111968994,0.8200675845146179,1.3993897438049316,-0.6901853084564209,-0.5440248847007751,-0.8247371315956116,0.687379002571106,-2.506681442260742,-1.0885752439498901,-0.13361839950084686,1.4407786130905151,0.19409972429275513,0.7743542790412903,-0.6646367907524109,-0.21863234043121338,-0.35291844606399536,-0.4401603043079376,-0.8412882685661316,-2.268219232559204,-1.7709245681762695,0.15414121747016907,1.1139452457427979,-2.206543445587158,0.6787575483322144,-0.7494117617607117,-0.08389099687337875,0.8478593826293945,-0.18937839567661285,0.9721308350563049,0.9363909363746643,-1.0852465629577637,-0.06957238912582397,-0.8079487681388855,0.4511428773403168,0.954304575920105,-0.5310956835746765,0.7762173414230347,1.4131532907485962,2.258673906326294,-1.256272315979004,-1.0437241792678833,-1.9321714639663696,-0.05418479070067406,-0.033055294305086136,0.5647143125534058,-1.0483933687210083,1.5377662181854248,0.05007648468017578,-0.015301033854484558,0.9424100518226624,-0.8371438384056091,-1.597535252571106,-0.6362961530685425,-2.568267822265625,0.2447032928466797,0.10041411966085434,-0.7829061150550842,1.5041677951812744,-0.2883235216140747,0.20016303658485413,-1.851297378540039,0.18198572099208832,-0.1514463871717453,1.104417085647583,-0.18210087716579437,-0.761195957660675],[0.14495530724525452,-0.45589178800582886,0.6894939541816711,-0.009659838862717152,0.5759316682815552,-1.614476203918457,0.7442243099212646,1.2766830921173096,-0.7869948744773865,-1.0031468868255615,-0.21602503955364227,0.007465709000825882,-1.2700629234313965,-1.8855221271514893,0.2732451260089874,1.1194785833358765,-0.01156708411872387,-0.05130233243107796,0.016971813514828682,0.6124195456504822,0.04274469614028931,0.9490172266960144,0.6148931980133057,-0.661662220954895,-0.1418984979391098,1.270632028579712,0.8285161852836609,1.9055941104888916,0.36626529693603516,-0.5775761604309082,0.945550262928009,-1.5491915941238403,-0.14077185094356537,0.6584753394126892,-0.2106250673532486,-0.29372936487197876,0.5472788214683533,0.5150600671768188,-1.2496176958084106,-0.48138511180877686,-0.1573527604341507,-0.7495476603507996,-1.6149193048477173,0.23387309908866882,0.5478509664535522,-0.47870510816574097,-0.2070886343717575,-0.02590281143784523,0.795243501663208,0.2932606637477875,-0.08779331296682358,2.4154417514801025,0.46674272418022156,-0.5160109996795654,0.27817606925964355,1.0622310638427734,2.3079636096954346,-1.76943039894104,-1.3630118370056152,0.3810945451259613,0.15922224521636963,-0.49556764960289,-0.22160471975803375,-1.0878669023513794,0.3545253574848175,0.6616363525390625,0.37527933716773987,-0.4669959247112274,0.7960983514785767,0.10288354009389877,2.029590606689453,0.9449905157089233,0.7558785080909729,-0.8696655631065369,0.08076131343841553,-0.8222447633743286,1.007894515991211,-0.8733039498329163,-1.7640200853347778,0.9452481865882874,-1.2936761379241943,0.3874973952770233,-0.766697883605957,2.3628416061401367,1.2949867248535156,1.7840644121170044,0.2681201994419098,-0.25034597516059875,-0.17963950335979462,-1.3827766180038452,-0.17930074036121368,-0.11229155957698822,0.34242841601371765,-0.1080927774310112,-1.598582148551941,-0.8335486650466919,-0.8026365637779236,-2.1796040534973145,0.06465151906013489,-1.0282784700393677],[-0.16121894121170044,0.23830674588680267,-1.386423110961914,0.9234669208526611,1.027770757675171,-0.9086284041404724,0.24072007834911346,-0.6714321374893188,0.1932201385498047,-0.18114404380321503,-0.34546205401420593,-0.781456708908081,0.09437990933656693,0.6838061809539795,-0.9688378572463989,-0.936004638671875,-1.1060014963150024,0.46532657742500305,1.2299518585205078,-1.3645764589309692,0.5216079950332642,-1.6923060417175293,1.5475363731384277,0.06395744532346725,0.5358864068984985,-0.029822014272212982,-2.253091812133789,0.6766452193260193,0.46381452679634094,-0.027892347425222397,-0.031021010130643845,0.8962978720664978,-1.5498631000518799,-0.9566681981086731,0.3852977454662323,0.7588784098625183,-0.49813833832740784,-0.022516515105962753,-1.9116861820220947,0.30490177869796753,-1.94554603099823,2.3225159645080566,1.3462029695510864,0.1794949471950531,0.07638520747423172,-0.7003263831138611,-2.260380983352661,0.5949288606643677,-0.07885400950908661,-1.5802134275436401,-0.18146410584449768,-2.025750160217285,-0.7949158549308777,-0.33658507466316223,0.35230934619903564,-0.889416515827179,1.4462188482284546,0.48728835582733154,-0.8426159024238586,-1.1751447916030884,0.6699627637863159,0.6916406154632568,-0.0012650307035073638,-0.43539687991142273,0.7972003221511841,0.13072507083415985,0.12881620228290558,0.8743295073509216,-0.4955769181251526,-1.480575680732727,1.3286656141281128,0.8770270943641663,0.12576401233673096,0.5772220492362976,2.943696975708008,0.2967548668384552,-0.29002845287323,1.1746985912322998,0.644372284412384,1.1993263959884644,0.8864530920982361,-1.3440808057785034,-1.6068905591964722,-0.4368320107460022,-2.365168809890747,1.1561094522476196,0.5175631046295166,-1.3181333541870117,0.162184476852417,-1.3283953666687012,0.7274971604347229,0.2321530431509018,-0.28741180896759033,0.5642357468605042,-0.17109814286231995,-0.32356810569763184,0.07608441263437271,3.0856549739837646,-0.5279064178466797,-1.3857663869857788],[0.28997623920440674,1.103672742843628,-0.24985022842884064,-0.9604405760765076,0.0651249811053276,-1.2107903957366943,-1.419812798500061,-0.21934430301189423,0.12458832561969757,0.1846231073141098,0.6576741337776184,0.1626829206943512,-0.20616480708122253,-0.06852197647094727,0.42081618309020996,0.7076395153999329,0.8616461157798767,-1.40999174118042,1.1786364316940308,1.0675920248031616,-2.58760142326355,1.5273690223693848,0.4826417565345764,1.5574066638946533,2.4922056198120117,0.8017416596412659,-1.282363772392273,1.5924659967422485,0.17670947313308716,0.5175705552101135,0.15399058163166046,-0.8326308131217957,-1.7913808822631836,-0.3694551885128021,0.17976824939250946,-0.04678487405180931,-0.9756326079368591,1.3628122806549072,-0.0897863507270813,-0.4058142304420471,-0.24293728172779083,0.9915664792060852,0.6300484538078308,-1.8565735816955566,0.19642037153244019,-1.06623113155365,1.0123156309127808,0.35312801599502563,1.290074110031128,0.9510083794593811,-0.5025572180747986,-1.121155023574829,-0.4235163629055023,1.6738897562026978,0.7990151643753052,-0.5217317342758179,1.4996012449264526,-0.7852513194084167,-0.7300792336463928,-1.428768277168274,-0.9163244366645813,0.9451104402542114,0.40906473994255066,0.5319154858589172,0.39965736865997314,0.27984586358070374,0.26880890130996704,-0.7277258038520813,0.5496092438697815,-1.5310883522033691,0.24327857792377472,0.02201114222407341,-0.9557397365570068,0.11175114661455154,0.34403976798057556,-0.12755978107452393,1.3356797695159912,0.19197073578834534,-0.23950742185115814,-0.21665345132350922,0.40124163031578064,0.8461189270019531,0.18801341950893402,1.4529106616973877,0.40057051181793213,-2.0685157775878906,-1.0812487602233887,1.081495761871338,-0.2051447182893753,0.6021499037742615,-0.8504747748374939,1.0975801944732666,-0.623657763004303,-0.6746507287025452,-0.9768408536911011,0.5577316880226135,0.16539366543293,-0.1684245467185974,0.8832128643989563,-0.14745356142520905],[-0.6494942307472229,-0.16607318818569183,0.08554564416408539,0.7238418459892273,-1.538749098777771,-0.19710181653499603,-1.3380529880523682,-0.6306211948394775,-0.24901628494262695,-1.057816982269287,0.8362641930580139,0.9551695585250854,-0.5099825859069824,0.3041813373565674,-1.0292304754257202,1.342665433883667,2.3459625244140625,-1.728614330291748,0.08573908358812332,-1.6478387117385864,0.5185297727584839,-0.9421038627624512,-0.9336012601852417,2.807007074356079,0.46758216619491577,-0.3659418523311615,-0.13641859591007233,0.4012393057346344,0.8475621342658997,1.6780496835708618,0.7713950276374817,0.4184049963951111,0.27208077907562256,1.3569225072860718,0.8761143684387207,-0.1091328039765358,0.8824943900108337,-0.5723076462745667,0.4803689122200012,1.8704004287719727,-0.9376072883605957,1.2402228116989136,0.8299658894538879,0.9596409797668457,0.3400125503540039,-0.5888921022415161,0.3608245551586151,2.2951114177703857,0.09207280725240707,0.7149203419685364,-0.40295466780662537,-0.7276827096939087,-0.4317812919616699,0.5344464182853699,-0.6658396124839783,0.6504132151603699,0.67974454164505,-0.5997377038002014,0.6416913866996765,-0.9696840643882751,-1.0364786386489868,0.847428560256958,1.3121867179870605,0.679995059967041,1.7590197324752808,0.6700538396835327,0.8482183814048767,-0.07488357275724411,2.073781967163086,-1.5631705522537231,-1.219210147857666,1.8067799806594849,-0.7082832455635071,-0.19012057781219482,1.2515745162963867,-0.09337281435728073,0.5625687837600708,0.5540428161621094,-0.48354145884513855,-1.3386088609695435,1.2640330791473389,1.2664027214050293,1.6286005973815918,1.0704340934753418,1.061086893081665,1.0785387754440308,0.14835205674171448,-0.4802188277244568,-0.020899416878819466,0.5761728286743164,0.6747690439224243,-1.8138149976730347,-1.4427860975265503,-0.9483986496925354,-0.8968210816383362,2.755903720855713,0.6523514986038208,-0.35001713037490845,0.8617385029792786,-0.36338305473327637],[-0.8570059537887573,-0.6235383749008179,-0.9498292207717896,0.14718154072761536,0.2888571321964264,-0.702269434928894,0.28080353140830994,0.5691136121749878,0.4666318893432617,-1.0630748271942139,-2.707672357559204,0.837238609790802,0.9196157455444336,1.027482032775879,-0.8803892731666565,0.6264809966087341,0.45562857389450073,0.2371901422739029,-0.4602018892765045,-0.05041457340121269,-0.3130059838294983,-0.41221821308135986,-1.4134947061538696,0.35715559124946594,-0.3048100471496582,1.539821743965149,0.2679833173751831,-0.13005028665065765,1.377989649772644,-0.09822532534599304,-0.49769464135169983,-0.2787640690803528,-1.3047009706497192,-1.4260714054107666,1.116981863975525,-1.2482516765594482,0.7879447937011719,-0.9664398431777954,-0.3255763649940491,-0.23893646895885468,1.052846908569336,1.6321415901184082,-1.0366805791854858,0.6096276044845581,0.16261303424835205,0.6690818667411804,-1.0013352632522583,-1.4953691959381104,1.16558837890625,0.2216377556324005,1.1819968223571777,0.011240960098803043,-0.278749942779541,1.0083370208740234,0.296824187040329,0.15158532559871674,-1.9501699209213257,0.7563550472259521,-0.16927361488342285,1.7350646257400513,0.06397327035665512,-0.5606448650360107,-0.7886327505111694,0.7236464023590088,0.3538016080856323,-1.1065244674682617,-0.24234803020954132,0.5507957935333252,0.45451000332832336,0.29247400164604187,-1.445502519607544,0.5497199892997742,-0.8208683729171753,0.07539402693510056,0.19013547897338867,-0.024499433115124702,-0.8284158110618591,-0.48626646399497986,-0.5359668135643005,1.033048391342163,-0.6711041927337646,0.6005932688713074,-0.17372237145900726,0.15384230017662048,0.7340334057807922,-0.6801183819770813,0.6593136191368103,1.0444775819778442,-1.1591215133666992,0.6873730421066284,-0.33593592047691345,-0.3693648874759674,-0.19333024322986603,0.6085476875305176,-0.38094794750213623,-0.223652184009552,1.4580447673797607,-0.4416404962539673,0.9490379691123962,0.750974178314209],[0.9242284297943115,-1.5828380584716797,1.4160792827606201,1.4178956747055054,1.9193236827850342,1.6801327466964722,0.5494542717933655,-0.23230142891407013,0.5310440063476562,-0.39812740683555603,-1.3846057653427124,-0.4618637263774872,1.8971936702728271,0.21911554038524628,-0.10767519474029541,-0.3158838450908661,-1.3502788543701172,0.07618341594934464,-0.8835305571556091,-0.6809214353561401,0.044784363359212875,-0.4452156722545624,0.13724371790885925,-0.1501113772392273,-0.5111416578292847,1.3714648485183716,2.0933446884155273,-0.6077471971511841,0.866707444190979,2.7574143409729004,1.2989810705184937,-0.9898949861526489,-0.016728881746530533,-0.1835261881351471,0.20127500593662262,0.03751242905855179,-1.3215442895889282,-0.5303559899330139,1.6467784643173218,-0.8170319199562073,0.8132712841033936,0.242950439453125,-2.2022268772125244,0.9455429911613464,0.7308245897293091,-0.19429147243499756,0.47546952962875366,-0.3839976489543915,-1.378175139427185,0.026602962985634804,-0.4501003324985504,-1.209851622581482,