[{"input_weights":[[0.5907321572303772,0.2405308037996292,0.14012059569358826,0.18936389684677124,1.1537615060806274,-0.09043913334608078,-0.1194038838148117,0.26460036635398865,-0.9730252027511597,-0.3780216574668884,0.09824743866920471,0.5789222717285156,-0.46994730830192566,-0.28971028327941895,0.16450251638889313,0.19367682933807373,0.36406558752059937,1.6053467988967896,0.0211739894002676,-0.8729051351547241,-0.9770657420158386,-0.8312714099884033,0.9891247749328613,0.8461616039276123,-0.5408861041069031,0.6722502708435059,0.47953110933303833,-0.42830538749694824,-1.367958903312683,0.5640776753425598,1.587609052658081,-0.9398752450942993,-0.5992241501808167,-0.8901200890541077,0.5462456345558167,1.2788374423980713,0.26690253615379333,-1.1587109565734863,1.2381598949432373,-1.3674501180648804,-0.2446887046098709,0.7769288420677185,-0.3341594636440277,-1.9133822917938232,1.6922519207000732,0.7322190999984741,0.6100430488586426,-2.261486053466797,-1.4480020999908447,0.22412839531898499,0.025164363905787468,0.24229416251182556,0.01708938553929329,0.4571661949157715,-0.5205253958702087,-0.06034129485487938,0.05770384520292282,-0.35668113827705383,-1.1431889533996582,-1.0186219215393066,-0.6577251553535461,0.8320526480674744,-0.028562190011143684,0.8481299877166748,1.7122704982757568,0.9481457471847534,-0.5729741454124451,0.6264424920082092,0.9560920596122742,1.3589755296707153,0.8069032430648804,0.5674023032188416,-0.485726535320282,-0.4333220422267914,0.8448989391326904,0.9724195003509521,-1.3252769708633423,1.6748583316802979,-0.5840307474136353,-0.3760721683502197,-0.3205338418483734,1.250857949256897,-1.7613931894302368,-0.6136707067489624,0.5738455653190613,0.5694109797477722,-0.2940109968185425,1.3390038013458252,2.102405309677124,0.6511541604995728,1.7026070356369019,1.4725078344345093,-1.36992609500885,1.2119479179382324,-1.6152739524841309,-0.7963483929634094,0.49686431884765625,-1.3714655637741089,0.03781631961464882,0.665095329284668],[0.0733916386961937,0.4363704025745392,0.9725098013877869,1.6534475088119507,1.7110283374786377,-0.8298839926719666,-0.1891564577817917,-0.32258185744285583,-0.3020473122596741,1.2326791286468506,-1.1196578741073608,1.2682740688323975,1.348930835723877,0.1338004469871521,0.7824767827987671,-1.1429656744003296,-1.3175232410430908,-0.39353108406066895,0.1875944584608078,-0.6065680384635925,1.128401517868042,-0.17842347919940948,-0.26320672035217285,-2.108001708984375,1.674464225769043,-0.9548397660255432,1.8365812301635742,-0.9457324743270874,0.5707727074623108,-0.7369904518127441,-0.10230090469121933,0.5585358738899231,0.881091833114624,-1.1884493827819824,-1.505671739578247,-0.7711294889450073,-0.29474425315856934,-0.5476051568984985,-2.2804174423217773,-1.207800269126892,1.3476252555847168,-0.6801658868789673,1.052888035774231,0.6658774018287659,-0.06148694083094597,0.13682794570922852,1.7852402925491333,-1.4541213512420654,0.36950868368148804,1.1117005348205566,0.5318143367767334,1.5503560304641724,0.8380870223045349,-0.3606855869293213,-0.07851703464984894,1.7181107997894287,1.028470754623413,-0.7414413094520569,1.5026817321777344,-0.5532439351081848,0.3521292805671692,-0.6536447405815125,-1.8211108446121216,0.4263468086719513,0.31101152300834656,-2.4693098068237305,-0.0622372105717659,-1.1899933815002441,0.9899023175239563,-0.09928137063980103,1.4885832071304321,-0.5146303772926331,1.1346385478973389,1.6772927045822144,0.25243157148361206,2.7304089069366455,-0.31922972202301025,-0.03827822580933571,1.7587405443191528,1.7218592166900635,1.2489924430847168,0.9397209286689758,-0.3608725070953369,-0.6168621778488159,0.7154738306999207,-1.4628962278366089,0.8406410217285156,0.5878636240959167,-0.28273555636405945,0.5254620313644409,-0.5721487998962402,-1.7991845607757568,0.5565561652183533,-0.7321246266365051,-0.4154907464981079,0.9228718876838684,-0.5714868307113647,-1.405136227607727,1.1016969680786133,-2.5986359119415283],[-0.6455551385879517,-0.756817638874054,-2.06339168548584,1.7257331609725952,0.11158610880374908,0.6491354703903198,-0.8908330202102661,1.0214272737503052,1.0052988529205322,-0.6827273964881897,1.880482792854309,-1.7724854946136475,-0.27085068821907043,2.7953667640686035,0.18573659658432007,0.25257232785224915,0.776486873626709,0.1823505461215973,2.284665584564209,2.0326008796691895,-0.3320077061653137,-0.5631551742553711,0.5592367053031921,-0.231723815202713,-1.1541563272476196,-0.6306242346763611,-1.100386381149292,-1.4829990863800049,-1.2124375104904175,0.5492939949035645,-0.17016495764255524,0.4515593647956848,0.5739303231239319,0.9124346971511841,0.2818230986595154,-0.0668906569480896,0.9111986756324768,0.05957118794322014,-0.20022699236869812,0.3460954427719116,1.469926118850708,-1.3167922496795654,0.08302581310272217,1.550384283065796,0.115110844373703,0.1498090624809265,1.5869512557983398,-0.6057798266410828,-0.10600470751523972,-0.3082347810268402,-0.4857946038246155,-0.7481839656829834,0.5132924318313599,0.39347317814826965,0.9595637321472168,-1.021060585975647,1.4532482624053955,0.5048663020133972,-1.2634071111679077,0.9848053455352783,0.6655809879302979,0.3289506137371063,-0.18987847864627838,-1.1884918212890625,1.014465093612671,-0.6386759877204895,0.8635640144348145,1.2622638940811157,-1.5325236320495605,0.9311677813529968,0.16119566559791565,0.6736235618591309,0.0180189348757267,0.5843083262443542,0.6369465589523315,0.03116007335484028,-1.831148624420166,0.9351931214332581,0.37565553188323975,0.17674483358860016,-0.8611083030700684,-0.850614607334137,-1.1468490362167358,-0.594677746295929,-1.0905174016952515,0.8264737725257874,-1.0071172714233398,1.8750028610229492,-0.7292309999465942,0.7173328399658203,0.7033362984657288,0.4982701241970062,0.042244091629981995,-0.2910807132720947,0.6300103664398193,-0.2775130271911621,0.49384987354278564,-0.019488412886857986,-0.10706350952386856,1.3296993970870972],[-0.6436294317245483,-0.5310371518135071,-0.8814080953598022,0.2730296552181244,-0.32331690192222595,1.1211607456207275,0.7686528563499451,0.1746641993522644,0.5790029168128967,2.0002124309539795,0.38681602478027344,0.7516286969184875,0.33222365379333496,0.5573817491531372,1.8680312633514404,0.8191601037979126,1.278594732284546,0.36375853419303894,-0.6443712115287781,0.2963680326938629,0.40332427620887756,1.6777583360671997,-0.5065152049064636,-2.166522264480591,0.4615475833415985,0.39907053112983704,0.48048752546310425,0.861068606376648,0.7019714117050171,0.11882254481315613,-1.1041029691696167,0.2318294495344162,-0.24513773620128632,1.2168015241622925,1.0526630878448486,-0.009508260525763035,-1.0655381679534912,0.7937894463539124,-0.295084148645401,1.0450360774993896,-0.7231038808822632,1.4487062692642212,0.2822667360305786,-0.27111971378326416,-0.7146837711334229,0.34969234466552734,0.39116546511650085,0.9549528360366821,-1.5311444997787476,1.617188811302185,1.7431398630142212,0.06628880649805069,-0.25371554493904114,0.603355884552002,0.5706590414047241,0.17781329154968262,-0.810961902141571,1.3678466081619263,1.1339861154556274,1.331411361694336,1.289070725440979,-1.949011206626892,-1.2352828979492188,0.0419045053422451,1.4865440130233765,1.432784080505371,0.9593533873558044,-1.587886929512024,-0.43140995502471924,0.2762194573879242,0.5829776525497437,1.152909278869629,-2.021501064300537,-0.5865591168403625,1.0689566135406494,-0.39238667488098145,0.08905673772096634,0.3001217842102051,-1.3844051361083984,0.1327058970928192,1.492920160293579,0.15578830242156982,0.17879225313663483,-0.3027995824813843,0.07529645413160324,1.42005455493927,0.50567227602005,-1.5865648984909058,0.8620381355285645,1.4982187747955322,0.9444657564163208,0.10277261584997177,1.3195624351501465,0.5159008502960205,1.7615762948989868,-0.25426775217056274,-0.7046972513198853,-0.6047974824905396,-0.1279354840517044,1.6272153854370117],[0.5179893970489502,0.38565006852149963,-1.355772614479065,1.727110743522644,2.1509759426116943,1.5192017555236816,1.037833333015442,-0.8924115896224976,1.707095742225647,-0.023579835891723633,-1.3778938055038452,-1.414860725402832,-0.14631129801273346,1.2677347660064697,1.0478944778442383,-0.361190527677536,-0.9330704808235168,0.5572256445884705,0.0018469489878043532,-0.22541803121566772,0.8611251711845398,-0.23631496727466583,-0.7042897343635559,-1.5437092781066895,-1.0103317499160767,-0.4715963304042816,-0.5005701780319214,0.12358766794204712,-0.09108522534370422,-0.14620400965213776,0.2811528444290161,-0.4587615728378296,1.3170580863952637,0.7830087542533875,0.30025002360343933,0.5930179357528687,0.12641219794750214,0.9792183041572571,0.08849621564149857,0.9632316827774048,-1.4399285316467285,-0.08333393931388855,0.904064953327179,0.011883492581546307,0.09940142929553986,0.30121076107025146,-0.7142474055290222,1.468867540359497,1.2589658498764038,-0.5203027129173279,0.02046256884932518,1.1730886697769165,-1.3253475427627563,-1.0488430261611938,-2.424708366394043,1.598554015159607,1.7101054191589355,-0.4910868704319,-0.5324880480766296,0.7054046988487244,-1.0391185283660889,0.06055675446987152,1.5778963565826416,1.1649317741394043,0.36878982186317444,0.6138820052146912,-1.96784508228302,0.6372643709182739,0.5908281207084656,-1.0403969287872314,0.48196959495544434,-0.18461062014102936,1.4507123231887817,0.09388305991888046,0.3065272569656372,0.003866679035127163,-0.39264336228370667,-0.4135325253009796,0.3016487956047058,0.9990639686584473,0.1421770602464676,-0.6043857932090759,1.6082077026367188,-0.09023846685886383,-0.23882624506950378,-1.1429742574691772,0.08933146297931671,-0.10823845863342285,-0.8580315113067627,-0.21202252805233002,0.2755805253982544,1.139189600944519,-1.9321608543395996,2.0161430835723877,-0.907444953918457,1.5267765522003174,0.04763764888048172,-0.12067914754152298,-1.312477946281433,0.36339879035949707],[-1.3204008340835571,1.10275137424469,0.30111315846443176,-1.5884233713150024,1.1413512229919434,1.8091343641281128,-0.06159893423318863,1.0820777416229248,0.4758511483669281,-0.36853641271591187,-0.01687898114323616,1.256113052368164,-1.0764744281768799,0.08467115461826324,-0.03442733734846115,-1.4973057508468628,0.9364840984344482,-1.0557019710540771,0.8013232350349426,0.29571688175201416,0.502686083316803,1.7150003910064697,1.1278600692749023,0.35717856884002686,-1.310050368309021,0.8690688610076904,-1.9766515493392944,0.23633058369159698,0.2966373860836029,1.1031439304351807,1.1015697717666626,0.1321779042482376,-0.056539420038461685,-0.3336851894855499,-0.6959109902381897,1.3282358646392822,0.055115848779678345,-0.0206441693007946,1.2991056442260742,0.6772430539131165,-0.5649286508560181,-2.2790017127990723,0.5990634560585022,2.0642635822296143,-0.6726146340370178,-0.1412145346403122,-0.3993731737136841,-0.2422446459531784,-0.37868598103523254,-0.8440636992454529,0.42457959055900574,-1.0014508962631226,1.1212007999420166,0.8555954098701477,-0.7575241327285767,-0.1787865161895752,1.4842642545700073,0.6564215421676636,-0.7896509170532227,-0.4311155080795288,-1.0879876613616943,-1.0082581043243408,0.6843678951263428,-0.20089632272720337,1.4138209819793701,0.37732359766960144,-0.4888749122619629,-0.5460564494132996,-1.2449848651885986,-0.03289913013577461,0.5271328687667847,-0.40061211585998535,0.21674220263957977,-0.9419671893119812,-0.47038859128952026,0.44667601585388184,-0.7987506985664368,1.831290602684021,1.524457573890686,-2.3071229457855225,2.0252439975738525,0.7557779550552368,-0.4778347611427307,1.6247916221618652,0.3326896131038666,-0.3867391347885132,0.2548314332962036,-0.3793463408946991,0.9593631029129028,-1.5709941387176514,-0.919538676738739,-0.44853442907333374,1.8030983209609985,0.5013132691383362,-0.8856342434883118,0.5918341279029846,1.8528681993484497,-0.24121548235416412,0.5392861366271973,0.07084500789642334],[-1.3000832796096802,-0.6159005165100098,-1.1792759895324707,-0.02935463935136795,-0.4247160255908966,1.335340142250061,0.2383728325366974,-0.8420308232307434,-0.9038018584251404,-0.772330641746521,1.2388814687728882,0.6780821084976196,1.2420672178268433,0.9806899428367615,1.2798713445663452,-0.6133795380592346,-1.5736522674560547,0.07306616008281708,-0.38902410864830017,0.3098675012588501,0.5703956484794617,-0.02516041323542595,-0.7306572198867798,-0.09677926450967789,0.7264229655265808,-0.45083388686180115,0.4416835308074951,1.046541452407837,0.2789371609687805,-0.7453004717826843,1.087509036064148,-2.834911823272705,-0.21174927055835724,-1.408073902130127,-1.4315134286880493,1.2772997617721558,1.5006282329559326,-0.2134607881307602,1.1353081464767456,1.0785713195800781,1.047804832458496,0.3147408366203308,-0.7349791526794434,0.9460476040840149,-0.7473584413528442,-0.04921872168779373,0.47514498233795166,-1.767243504524231,0.5224910378456116,0.530021607875824,-0.35568365454673767,1.7301783561706543,-0.37341776490211487,-1.4967161417007446,-1.5198827981948853,-0.21693579852581024,0.22244597971439362,-1.144890546798706,0.18598385155200958,0.299623042345047,0.21245600283145905,0.9504714012145996,-0.28841739892959595,-0.3360334634780884,-0.3229545056819916,-1.1233083009719849,-0.6017381548881531,-0.13086263835430145,1.0345762968063354,0.3754570186138153,1.5854218006134033,-1.2372032403945923,0.6463697552680969,-0.7143473625183105,0.7227065563201904,-0.03180670365691185,1.662116289138794,-0.9006143808364868,0.9070098400115967,-0.26888155937194824,0.6437411904335022,-0.0900094136595726,1.2665650844573975,0.08219935745000839,0.6693658828735352,1.3054229021072388,1.0302433967590332,0.8835787773132324,-2.384974241256714,-0.7724516987800598,0.44963380694389343,-0.4000954329967499,1.7430144548416138,1.3820734024047852,-0.45100948214530945,-0.922714114189148,-0.05949686840176582,0.5246416926383972,1.5236800909042358,1.0808688402175903],[-0.9378397464752197,0.8986499905586243,-1.372085452079773,-0.24724116921424866,1.3357772827148438,0.20356915891170502,-0.8977066874504089,-0.8127068281173706,-0.9456806778907776,2.1513240337371826,-1.523637056350708,0.7420579791069031,-0.15992973744869232,0.8620219230651855,0.9633778929710388,-2.439160108566284,1.637493371963501,-0.19003398716449738,-1.8258693218231201,1.5433716773986816,0.08839210867881775,-3.34395694732666,0.7092196345329285,-1.2914270162582397,-2.1915383338928223,-1.2830060720443726,1.10629141330719,-1.300687551498413,1.5185136795043945,0.6545117497444153,0.14184722304344177,1.2227885723114014,0.3092974126338959,3.175368309020996,-0.8264902234077454,1.245877742767334,-0.09036414325237274,-0.8896357417106628,-0.02214236930012703,0.29621103405952454,0.9517900943756104,1.445159912109375,1.4782973527908325,-0.09230821579694748,-1.5798228979110718,-0.006152478512376547,-0.2377973198890686,1.9384353160858154,-1.5407121181488037,-0.21402552723884583,-0.8155317902565002,-2.9628946781158447,-1.1687660217285156,-1.8338757753372192,-0.32481613755226135,-0.7301148772239685,0.15536029636859894,1.7125898599624634,-1.5184190273284912,-1.2787224054336548,-1.2740039825439453,2.049119234085083,-1.2095648050308228,0.9126576781272888,1.1737687587738037,0.28870338201522827,-0.470133513212204,-1.5927505493164062,1.3319449424743652,0.20547036826610565,1.1490849256515503,-2.2572641372680664,0.22783251106739044,-0.6441636681556702,-0.09869634360074997,-0.9615570306777954,1.1981782913208008,-0.784747838973999,-0.8060666918754578,0.6412515640258789,-0.38744571805000305,1.4966856241226196,-1.4889434576034546,-0.35887405276298523,-0.5651692748069763,1.240065574645996,-0.20779995620250702,-0.9826479554176331,-1.544873595237732,0.11251939833164215,-0.18359895050525665,0.5639403462409973,-1.0445526838302612,0.7498273849487305,-1.5033481121063232,-0.42823779582977295,0.14588864147663116,0.7938221096992493,0.6087085008621216,-0.7113235592842102],[0.2569965720176697,1.8382999897003174,0.2957313060760498,1.1999613046646118,-0.6086373329162598,-0.005095787812024355,-1.1112842559814453,-1.1870417594909668,-0.45390585064888,-0.2265951782464981,-0.6265742778778076,0.23529523611068726,1.0553871393203735,0.21398982405662537,-1.2896738052368164,1.9263436794281006,-0.6785545349121094,-0.7975865006446838,-0.9604889750480652,-0.0032468095887452364,-0.29062017798423767,-1.2418978214263916,1.7553352117538452,-1.032410740852356,-1.6006696224212646,0.9535909295082092,1.4771082401275635,0.70835942029953,-0.10302624106407166,-0.19587764143943787,-0.011209666728973389,0.35605260729789734,-0.20809489488601685,1.673590064048767,2.326124429702759,0.08536960184574127,-0.20159372687339783,0.005307894665747881,0.6476658582687378,0.10266128182411194,0.03098291903734207,0.17081007361412048,0.06954899430274963,-0.33719301223754883,-0.5475373864173889,0.048441316932439804,0.18475379049777985,-1.0282942056655884,-0.6839410066604614,0.38455116748809814,0.9387866258621216,0.25739216804504395,-0.6108502745628357,-0.7103967666625977,1.7618300914764404,1.2583967447280884,-1.2938963174819946,-0.890032947063446,1.2497286796569824,-2.055506467819214,-0.4795324504375458,-0.2959621548652649,-1.7573235034942627,-0.805872917175293,0.7790523767471313,0.15974265336990356,0.5085018873214722,0.16591480374336243,0.32701534032821655,1.4537911415100098,-0.037755612283945084,0.4287504255771637,-1.1418063640594482,1.1019361019134521,0.8254750370979309,0.11469695717096329,-1.235795497894287,2.6299550533294678,-3.1041207313537598,0.2928176820278168,-0.11609785258769989,-0.7099496722221375,0.4630894660949707,0.7611732482910156,-1.0858349800109863,1.2650132179260254,-0.677774965763092,0.7996115684509277,0.1414272040128708,-0.47707661986351013,-1.4941977262496948,-2.0917325019836426,1.7542611360549927,0.44727611541748047,0.02595003880560398,-1.4147577285766602,-0.3307439088821411,1.3070738315582275,-1.56439208984375,0.45062440633773804],[2.124444007873535,-0.4972860515117645,-0.1328648328781128,-0.24741242825984955,-0.5853667855262756,-1.9349455833435059,1.005793571472168,-1.2078434228897095,-0.2763160169124603,-1.2191836833953857,1.6144983768463135,0.1032179445028305,-0.5152921080589294,0.7605829238891602,0.012096577323973179,0.785735547542572,-0.7243441343307495,-1.180081844329834,0.3857959806919098,0.26889926195144653,-0.4540296196937561,-1.5982774496078491,0.85487300157547,-0.8609170913696289,0.10790441185235977,0.18976980447769165,1.1133254766464233,-0.6107248663902283,-1.5245379209518433,0.6192115545272827,0.05474639683961868,2.3497958183288574,1.1896663904190063,-1.0712461471557617,0.1678706854581833,0.6843207478523254,-1.2459992170333862,-0.6320228576660156,0.22527635097503662,-0.5110658407211304,0.3146229684352875,-0.31539908051490784,-0.3256548047065735,-1.008635401725769,-0.6595219969749451,0.2351599931716919,0.09689948707818985,1.2167823314666748,0.6148501038551331,0.5982891321182251,-2.211193561553955,-0.6478307843208313,-0.8046078085899353,0.8042252063751221,1.1959378719329834,1.1598122119903564,0.06864289194345474,0.8892991542816162,0.8331827521324158,0.5827147960662842,-0.9317392110824585,0.8962697982788086,0.4934671223163605,0.024321336299180984,-0.6013847589492798,-0.44006627798080444,0.5670396089553833,-1.1332234144210815,0.9209172129631042,2.1533215045928955,0.1519235223531723,-0.5675973296165466,-0.5333878993988037,-1.2634353637695312,1.2050038576126099,-1.2035070657730103,1.4656707048416138,-0.3567762076854706,1.2762702703475952,-1.2710461616516113,-1.1165920495986938,-0.9108434915542603,1.4212429523468018,2.400118589401245,1.3236045837402344,0.2557471692562103,-1.3843355178833008,-0.7943049669265747,-0.8294910788536072,-0.12920884788036346,-1.8752115964889526,0.22097574174404144,0.42926082015037537,0.7527207732200623,0.39790427684783936,1.1371092796325684,-0.6026622653007507,0.8513197898864746,0.5761730670928955,0.8885921835899353],[-0.8882877230644226,0.19146941602230072,0.3587745428085327,0.5746564865112305,0.6179766654968262,0.07954051345586777,-0.72004634141922,0.49216392636299133,1.1002944707870483,-0.45999667048454285,0.5587868690490723,-1.1958755254745483,-2.303327798843384,1.0933345556259155,-1.4472460746765137,1.0352983474731445,-0.42705023288726807,0.2297271192073822,-1.1933339834213257,0.21776089072227478,-1.2632160186767578,-0.29002371430397034,-0.5204765796661377,-0.677224338054657,1.1382832527160645,2.2724812030792236,-0.8932016491889954,0.14900097250938416,-0.4370790123939514,-0.7414548993110657,-0.044614218175411224,1.093445062637329,0.01182195357978344,0.541620135307312,0.6606850624084473,-0.8262655735015869,0.3800850212574005,1.3922137022018433,0.4246059060096741,1.472974419593811,-1.3479535579681396,0.31107309460639954,0.13990670442581177,-0.4821673333644867,-0.9008656740188599,-0.636107861995697,1.6829545497894287,0.7993610501289368,0.3088829815387726,2.0080924034118652,-1.3651660680770874,-0.8078447580337524,-0.36789730191230774,-0.4451647400856018,2.4261302947998047,0.7343010306358337,-0.9972385168075562,0.6119154095649719,-0.8001381754875183,-0.40539678931236267,1.6626200675964355,-0.3552311956882477,-0.5611181259155273,-0.37444573640823364,-1.0532541275024414,1.7236413955688477,0.4235096871852875,0.8447906970977783,1.3816426992416382,-0.42421600222587585,-0.6027889251708984,1.6100709438323975,-0.28045982122421265,-0.746174156665802,-0.8021255135536194,-0.031185653060674667,0.23340140283107758,-1.4269423484802246,1.3490618467330933,-1.0604716539382935,-0.22952458262443542,0.7974852323532104,-1.528319239616394,0.09470085054636002,1.434600591659546,0.9996373653411865,-1.3156273365020752,0.6757148504257202,-1.991683006286621,1.239986538887024,-0.18217699229717255,-1.9326109886169434,-0.3772953152656555,-0.5581371188163757,0.3781895041465759,-1.2009133100509644,-1.566184163093567,-0.10755426436662674,0.04577803239226341,2.6965062618255615]],"output_weights":[[-0.09436766803264618,0.44092679023742676,2.21195912361145],[0.1007750928401947,0.07322093844413757,1.2147455215454102],[0.3569760322570801,0.5421432852745056,-0.6692783832550049],[-0.4117067754268646,-0.2251843363046646,1.3277795314788818],[-0.17886988818645477,2.0272257328033447,0.8905222415924072],[0.6287410855293274,0.49785491824150085,0.15879489481449127],[-1.179588794708252,-1.3973814249038696,-1.9697850942611694],[1.3371243476867676,-0.5253693461418152,-0.0634210854768753],[-0.05004547908902168,0.25996720790863037,0.5220719575881958],[-0.14709864556789398,-0.8056832551956177,-0.9055134057998657],[-0.6891430020332336,0.11106858402490616,0.06345169991254807],[2.190181255340576,-0.23772430419921875,0.36418718099594116],[-1.0810366868972778,-0.4481215476989746,-0.9943663477897644],[-0.293486624956131,0.5845518708229065,1.0025604963302612],[0.031310100108385086,0.39338335394859314,-0.138693168759346],[0.5097504258155823,0.8081193566322327,1.2206698656082153],[-1.0063725709915161,-1.1207793951034546,1.555005431175232],[-0.7717710137367249,-0.29926756024360657,-0.8034558892250061],[-0.09950237721204758,-0.13826456665992737,-1.003962755203247],[-0.12404347211122513,-0.4697880446910858,-1.3184236288070679],[1.4630120992660522,0.014547312632203102,0.8517909646034241],[-0.7277359366416931,0.01824263669550419,-0.5488414764404297],[1.0586005449295044,1.5957311391830444,0.4616793394088745],[-0.6276941895484924,-0.8243852853775024,0.5035994052886963],[-2.16467547416687,0.4550197720527649,0.9688363075256348],[-1.0408636331558228,-2.292612075805664,1.797228217124939],[-0.5453000664710999,-2.1605472564697266,0.20350883901119232],[0.8866893649101257,-0.5751540660858154,0.10874184221029282],[0.1708492934703827,0.5576880574226379,0.9399845600128174],[-0.3617801368236542,-0.3548508286476135,0.43171972036361694],[-0.7489649057388306,-0.8385657668113708,-1.3391050100326538],[-0.6399117708206177,0.4925552308559418,-0.4560692310333252],[-1.2693126201629639,-0.6946412324905396,0.11945509910583496],[0.12550842761993408,-0.1932777762413025,0.9383878111839294],[0.2586236298084259,1.0750385522842407,-0.15624572336673737],[-1.2662253379821777,0.3775921165943146,1.9158360958099365],[0.5202822685241699,-2.081178665161133,0.32073718309402466],[-0.09580263495445251,-1.0634225606918335,1.5741337537765503],[0.5883417129516602,-0.825913667678833,-0.8987802267074585],[1.0762834548950195,-1.5727092027664185,-1.1715407371520996],[0.7289612293243408,0.14971224963665009,0.6757078766822815],[1.314910650253296,0.824216365814209,-0.26945555210113525],[-0.5344987511634827,0.19178737699985504,1.4623042345046997],[0.009592304937541485,1.8422577381134033,-1.3270171880722046],[-0.6451993584632874,0.558116614818573,-3.111116647720337],[0.23658491671085358,0.11956766992807388,0.1608704775571823],[1.0662286281585693,0.7350857853889465,1.0861823558807373],[-1.3963674306869507,0.05842258781194687,-2.146867036819458],[-0.49583277106285095,1.0340361595153809,-0.9704197645187378],[-2.3289623260498047,0.09222639352083206,0.3035455048084259],[0.07065103948116302,0.5734562873840332,-1.3490874767303467],[0.6245760321617126,-1.1903295516967773,0.1319090723991394],[1.124762773513794,-0.6626091599464417,0.2609628438949585],[-0.0575617253780365,0.5081446766853333,-0.5658380389213562],[-0.7422308325767517,1.1603935956954956,0.7441009879112244],[-0.6401920318603516,-0.07942226529121399,0.955062747001648],[1.637734055519104,-0.73884117603302,-0.5060451030731201],[2.346182346343994,0.3903070390224457,-0.10530134290456772],[-0.9590746164321899,0.024314401671290398,-0.21621236205101013],[0.721703052520752,-0.24543307721614838,-1.5147613286972046],[0.41807425022125244,0.0856308788061142,-1.514419674873352],[-0.4512843191623688,3.395801067352295,0.24574561417102814],[0.20905767381191254,-0.3670419156551361,-0.5300694704055786],[1.89724862575531,-0.727996289730072,0.1922890990972519],[-0.6697459816932678,0.9162201881408691,-0.6680890917778015],[1.4017274379730225,-1.829978585243225,-1.0819827318191528],[0.13315390050411224,-0.4006706476211548,0.9307835102081299],[0.6236894130706787,-0.5419992804527283,-0.6669371128082275],[0.042857199907302856,0.6087533831596375,-0.31678345799446106],[2.2552490234375,-2.5589654445648193,-0.3096904754638672],[0.7127459049224854,0.26267603039741516,0.17572975158691406],[-0.46172890067100525,-1.4457613229751587,-0.07703208923339844],[-0.785911500453949,-1.1313005685806274,1.7703222036361694],[-2.341503620147705,-0.19063827395439148,-0.670904815196991],[-0.7062342166900635,-0.7455864548683167,-0.660041332244873],[1.085220456123352,0.09894290566444397,-0.09656178951263428],[-0.3819212317466736,1.064221739768982,0.017193960025906563],[-0.765261709690094,0.4200184941291809,-1.5277811288833618],[-2.1871726512908936,1.0867286920547485,-0.644623875617981],[0.9510182738304138,0.1574365794658661,-0.8810015916824341],[1.6247899532318115,-0.9140069484710693,0.3369048237800598],[-0.27659252285957336,2.7192275524139404,0.15564362704753876],[-0.24573516845703125,0.6843295693397522,-0.945561945438385],[0.24867239594459534,-2.256349563598633,-1.7165590524673462],[0.4361055791378021,0.22425517439842224,0.4128148555755615],[-0.10564622282981873,1.5340889692306519,-0.1304173469543457],[-0.8446096181869507,1.6031228303909302,-1.4826852083206177],[-0.06780008971691132,-0.9060564041137695,0.8176814317703247],[0.018989641219377518,1.944681167602539,-0.7496261596679688],[0.015144242905080318,0.7693470120429993,-1.2699849605560303],[1.2180169820785522,-1.2381260395050049,0.21566340327262878],[1.4833359718322754,0.15432420372962952,-1.4445768594741821],[-0.565049409866333,0.7604689598083496,0.34250763058662415],[1.7796341180801392,0.5109851956367493,-1.3694281578063965],[-1.6982263326644897,1.8662264347076416,-0.44134101271629333],[-0.38916125893592834,-1.0371557474136353,-2.216521739959717],[0.6949460506439209,-0.9624497890472412,0.3473184108734131],[0.4569716453552246,-0.40177732706069946,-0.9152520895004272],[-1.0493665933609009,1.7042723894119263,-0.7554045915603638],[-0.7574489712715149,1.2119337320327759,0.7037262916564941]]},{"input_weights":[[0.5907321572303772,0.03444797545671463,0.14012059569358826,0.8008277416229248,1.1537615060806274,-0.09043913334608078,-0.1194038838148117,0.26460036635398865,-0.9730252027511597,-0.3780216574668884,0.09824743866920471,0.5789222717285156,-0.46994730830192566,-0.28971028327941895,0.16450251638889313,0.19367682933807373,0.36406558752059937,1.6053467988967896,0.0211739894002676,-0.8729051351547241,-0.9770657420158386,-0.8312714099884033,0.41267871856689453,0.5911338925361633,-0.5611242055892944,-0.6183722615242004,0.8720982074737549,0.11211849004030228,2.1674702167510986,3.054849863052368,-1.2082090377807617,0.775318443775177,-0.1644558608531952,0.3671887516975403,0.9864915609359741,0.6522989869117737,0.0659690722823143,0.4128895699977875,0.17895647883415222,-0.9958493709564209,-0.9769657850265503,-0.46175244450569153,-1.5138498544692993,0.7706387042999268,-0.3186010420322418,-0.46274062991142273,-0.6156818866729736,-0.8419459462165833,1.0378004312515259,-0.6040019392967224,-0.15023882687091827,0.5139186978340149,-2.6200613975524902,0.22743694484233856,-1.7098872661590576,0.9768370389938354,-1.9153752326965332,1.2952083349227905,-0.8678575754165649,-0.10358081758022308,-0.3859900236129761,-0.014929918572306633,-0.5378190279006958,-0.4182823598384857,-0.5493355989456177,1.3636125326156616,-0.2034951150417328,-0.26698037981987,0.6496431231498718,-1.0308539867401123,-0.6223686933517456,-0.9433506727218628,-0.20358532667160034,0.4670199453830719,-1.9556210041046143,1.647709608078003,0.9469010233879089,-0.17624863982200623,-0.3981861472129822,1.5060158967971802,0.19611702859401703,1.4066286087036133,-1.269572377204895,0.7509662508964539,0.2709493637084961,1.0410407781600952,-0.04693973436951637,0.4459591507911682,0.2051175832748413,-0.3493651747703552,1.6635262966156006,-0.8161112666130066,0.6678239703178406,2.0928986072540283,-0.8405468463897705,-0.19849678874015808,1.2285875082015991,0.26079174876213074,1.1586884260177612,1.2700164318084717],[0.0733916386961937,0.4363704025745392,0.9725098013877869,1.6534475088119507,1.7110283374786377,-0.8298839926719666,-0.8972041606903076,-0.32258185744285583,-0.3020473122596741,0.7192970514297485,-1.1196578741073608,0.6692389845848083,0.8882202506065369,0.1338004469871521,0.7824767827987671,-1.1429656744003296,-1.3175232410430908,-1.0878301858901978,0.1875944584608078,-0.6065680384635925,1.128401517868042,-0.17842347919940948,0.06869857758283615,1.9035239219665527,-1.5298593044281006,1.0968596935272217,-0.9229228496551514,1.1579952239990234,-0.6856246590614319,0.4687991440296173,0.5022316575050354,0.8533680438995361,1.8578284978866577,-1.3820940256118774,-0.7197298407554626,0.6650211811065674,0.41742831468582153,-1.9503310918807983,0.10014986991882324,0.1636992245912552,-1.0006669759750366,-0.39652279019355774,-0.8121247291564941,-0.18953119218349457,1.3452644348144531,0.049920856952667236,-0.5118744373321533,1.8684608936309814,0.5831584334373474,-1.2509641647338867,0.7743116021156311,-0.02500668726861477,-0.9117526412010193,2.1793718338012695,-0.9016199111938477,0.3373451232910156,0.3819791078567505,0.24294422566890717,0.07419165223836899,1.338149070739746,2.1946096420288086,0.5460693836212158,-2.6939568519592285,-2.0429904460906982,-1.333308458328247,0.11770179867744446,-1.2283942699432373,1.7900269031524658,0.7009784579277039,-0.36041581630706787,1.3189878463745117,1.5436532497406006,1.1916245222091675,-0.9109731316566467,-0.6687419414520264,1.0398777723312378,-0.49032971262931824,-0.37133944034576416,0.4164453148841858,0.16566939651966095,-1.7750904560089111,0.3609360158443451,-0.05245377495884895,1.756872296333313,-1.5000190734863281,-1.852439045906067,0.5177643895149231,0.978519856929779,-1.4413152933120728,1.6527056694030762,-0.42419952154159546,0.014416988007724285,0.05172985419631004,-0.6695186495780945,-0.4850919544696808,1.0375574827194214,0.7539249658584595,-0.10697305202484131,-0.7637374401092529,1.2263680696487427],[0.1948680579662323,-0.6313998103141785,0.6593438386917114,0.4042675495147705,0.4730171859264374,0.0810265764594078,1.3213984966278076,-0.02601776272058487,0.37445980310440063,0.12912094593048096,-0.7263078689575195,1.1505738496780396,-3.063415288925171,0.1695767641067505,0.2631073594093323,1.1118732690811157,0.630621612071991,-0.30596378445625305,-0.4652875065803528,-1.3322324752807617,-0.724493682384491,2.2746083736419678,-1.7826614379882812,0.38829660415649414,1.1151268482208252,0.5209522843360901,-0.06256674230098724,1.4163181781768799,1.5499976873397827,-1.2394704818725586,1.0008220672607422,0.5924638509750366,1.0919097661972046,0.737598180770874,1.2375693321228027,-0.7497903108596802,1.0833934545516968,1.9864639043807983,-0.3473968505859375,-1.0533092021942139,-1.7421202659606934,-0.6122524738311768,1.57329261302948,-0.4816208481788635,-1.660779595375061,0.1498090624809265,1.2448135614395142,-0.6057798266410828,-0.10600470751523972,-0.4276292026042938,-0.4857946038246155,-0.7481839656829834,0.8572550415992737,0.39347317814826965,0.9595637321472168,-1.021060585975647,1.4532482624053955,0.5048663020133972,-1.2634071111679077,0.4097333252429962,0.6655809879302979,-0.3143848478794098,-0.18987847864627838,-1.1884918212890625,1.014465093612671,-0.6386759877204895,0.8635640144348145,0.6274266839027405,-1.5325236320495605,0.9311677813529968,-0.24807485938072205,0.6736235618591309,0.0180189348757267,0.5843083262443542,0.6369465589523315,0.03116007335484028,-1.831148624420166,0.9351931214332581,0.9452159404754639,0.17674483358860016,-0.8611083030700684,-0.850614607334137,-1.480909824371338,-1.4971925020217896,0.40574219822883606,-0.8180162310600281,-1.5381754636764526,-0.34716683626174927,0.5708627700805664,0.32499104738235474,-0.8357304930686951,-1.5075953006744385,-0.8340989351272583,-0.18628151714801788,-2.392454147338867,0.8258419036865234,-0.6332756280899048,-0.15669672191143036,1.085341215133667,-0.24084340035915375],[0.05181814357638359,0.09628771245479584,-0.5331301093101501,-0.0568915419280529,1.1050317287445068,0.6047468781471252,-0.5669358372688293,0.010067949071526527,0.7570366263389587,0.8243975043296814,1.2244793176651,-1.5617398023605347,2.2451140880584717,0.9235653281211853,1.784143328666687,-0.3492977023124695,0.9461678266525269,-1.1702855825424194,0.0104424599558115,-0.5835333466529846,-0.47739747166633606,-0.42587947845458984,-0.7704043388366699,-0.39413559436798096,-0.5504974722862244,-0.6810301542282104,1.1319845914840698,0.1550421565771103,1.4623652696609497,0.7093304395675659,-1.116043210029602,0.9069012999534607,-0.7406579256057739,-0.03975074365735054,0.41054028272628784,0.8438948392868042,1.087032437324524,-1.218962550163269,-0.2494136542081833,-0.4136137068271637,1.4162380695343018,1.1835882663726807,-0.4416348338127136,0.13745152950286865,-1.8956021070480347,-0.10527779161930084,-0.044958677142858505,-0.26564812660217285,-0.7173143625259399,0.08707840740680695,-3.03261137008667,1.1124874353408813,0.628847062587738,-0.007537330966442823,0.0017619688296690583,0.4458421766757965,-0.5556761026382446,-0.8852472305297852,0.6600853204727173,-0.3445998728275299,-0.13890241086483002,0.7637143731117249,-0.9687570929527283,0.34815773367881775,1.1883814334869385,0.23720872402191162,1.4336813688278198,0.9919055700302124,-0.038752906024456024,2.7731363773345947,-1.0579630136489868,-0.30605918169021606,1.2484569549560547,-0.25571155548095703,-2.123642683029175,-1.2821882963180542,-1.5982847213745117,-0.49480482935905457,-0.3163190484046936,-0.5110195279121399,0.22282466292381287,-0.3526684045791626,0.8673335909843445,-2.2203750610351562,1.2557669878005981,-1.0429166555404663,-0.11420530080795288,0.4280758202075958,0.1711653620004654,1.891802430152893,-0.6499691009521484,-1.3902525901794434,0.1040269136428833,-1.9697483777999878,0.03537305071949959,0.9079623818397522,-1.0869442224502563,-1.8693022727966309,1.2773703336715698,-0.9275290369987488],[-0.512248694896698,-0.28916195034980774,2.49688982963562,3.0776002407073975,0.0011946927988901734,0.889816403388977,2.06070613861084,-0.1939443051815033,0.46129438281059265,-0.3986435830593109,0.05922401323914528,0.17479875683784485,1.3133134841918945,0.05081529542803764,0.4409998953342438,0.29284703731536865,0.18724653124809265,1.5369784832000732,-0.8234907388687134,-0.9493873119354248,1.003390908241272,2.9717016220092773,-0.6265742778778076,-1.7438589334487915,2.209826707839966,1.0076202154159546,-0.1579696089029312,-1.4309327602386475,1.289030909538269,-0.3711318373680115,0.17006394267082214,-1.2848925590515137,0.4445895254611969,-1.308764934539795,-0.2942693829536438,-0.4423508048057556,-0.735455334186554,-1.2578264474868774,0.11452700197696686,0.850707471370697,0.2851690649986267,-0.8180270791053772,0.7493239045143127,-1.3515905141830444,-0.5203554034233093,1.017077922821045,1.0073961019515991,0.8537280559539795,-1.601481556892395,-0.6026009321212769,0.3716042637825012,1.6026384830474854,-1.8655903339385986,-1.0488430261611938,-2.424708366394043,1.0258259773254395,-0.7573267817497253,0.30820104479789734,-0.6306151151657104,-1.5879765748977661,-0.5355634093284607,0.1686701774597168,1.81429922580719,1.4176287651062012,0.9924502372741699,0.39949896931648254,-0.8518718481063843,0.10811462253332138,0.2901195287704468,0.7955939173698425,-0.33757421374320984,2.0406618118286133,-0.6075258851051331,0.019826196134090424,0.5033312439918518,2.783299684524536,-0.8530526161193848,0.7027236223220825,-0.769087553024292,0.8393466472625732,-0.5922995805740356,0.25960788130760193,0.8359479308128357,1.6825252771377563,-1.6461231708526611,0.9318301677703857,0.1841067671775818,0.02046360820531845,1.2775541543960571,-0.25603753328323364,1.165218710899353,0.5133801102638245,0.4893631637096405,-0.22784017026424408,0.3390478491783142,0.9767446517944336,1.530102014541626,-1.4811437129974365,-0.29762375354766846,0.8132498264312744],[1.1899813413619995,-0.12389329075813293,0.8055744767189026,0.2796249985694885,1.723584532737732,-2.3672759532928467,-0.2674410045146942,1.0209535360336304,-0.005320179276168346,1.566746473312378,-0.749661922454834,2.3817179203033447,0.25341615080833435,0.24950696527957916,0.6957744359970093,1.062878966331482,0.4244368374347687,-0.8585368394851685,-0.38667070865631104,-0.605655312538147,-0.12259504199028015,1.1676065921783447,0.34593644738197327,-0.11210732907056808,0.8524149656295776,-1.3832838535308838,0.36215028166770935,-0.9822492599487305,0.41562724113464355,-1.5453823804855347,-0.6516852378845215,0.22556957602500916,1.766141653060913,1.3763741254806519,1.171894907951355,1.1595805883407593,0.1088225394487381,-2.190425157546997,-0.5087441802024841,-1.3219516277313232,0.04464631527662277,0.020543601363897324,-0.22228437662124634,-0.7617446184158325,0.8915623426437378,-1.4815551042556763,0.8602800369262695,-0.17829947173595428,1.209961175918579,-0.6925322413444519,-1.0545486211776733,-0.018636852502822876,0.3895973563194275,0.03242795169353485,-0.7245151400566101,1.259595274925232,0.8627224564552307,0.892787754535675,-1.3797696828842163,-1.4041515588760376,0.557412326335907,0.7788721919059753,0.25405681133270264,0.07562343031167984,0.2714775800704956,2.341603994369507,1.0748058557510376,0.18912366032600403,2.6709513664245605,-0.04973844438791275,0.19155116379261017,-0.26697221398353577,-0.3264104425907135,-1.2697018384933472,-2.74112606048584,1.6498061418533325,0.4596831798553467,0.22528298199176788,0.12177341431379318,-0.47829511761665344,1.8149998188018799,-1.0648077726364136,-0.5072123408317566,-0.28338903188705444,1.8531200885772705,-0.5004256367683411,-1.5638107061386108,-0.2495976686477661,-0.4508567452430725,1.10270357131958,-2.454327344894409,0.6449235081672668,0.8825938105583191,-1.072033166885376,0.35479632019996643,-1.3352032899856567,1.1244291067123413,-2.0740058422088623,-0.2646247148513794,1.42268705368042],[1.7042169570922852,-0.36404985189437866,-0.3298819363117218,0.3991096317768097,-0.7764788866043091,1.5034033060073853,0.6736966967582703,0.6358156204223633,0.36527106165885925,0.5311070084571838,0.33333685994148254,0.28524643182754517,-0.2282363325357437,0.07594294100999832,2.3169867992401123,-0.3357544243335724,-0.9574862718582153,-1.644445538520813,1.1588057279586792,-0.6169173717498779,0.03860677406191826,0.7720409035682678,0.03663046658039093,2.1011390686035156,0.7441849708557129,-0.050771065056324005,-0.30789995193481445,1.0675827264785767,-0.8409184813499451,-0.8028178811073303,0.7651758193969727,-0.2914023995399475,0.8493910431861877,0.028790907934308052,-1.248643398284912,-0.2909879684448242,-0.39158421754837036,0.1679358035326004,0.8992251753807068,-0.7230941653251648,0.394458144903183,1.5976572036743164,0.10394034534692764,0.42799288034439087,-1.3468934297561646,0.3342702090740204,0.2279188632965088,0.04776393622159958,0.6278939843177795,0.1068950891494751,-2.076694965362549,1.0596364736557007,-0.1818520724773407,-0.7167999744415283,-0.22183337807655334,2.1469006538391113,-0.8544126749038696,1.9416041374206543,-0.1628148853778839,1.591597318649292,-1.2183828353881836,-1.053758144378662,1.12710440158844,-0.8935011625289917,-1.0133858919143677,1.6143403053283691,2.238429069519043,1.002184510231018,-0.660047709941864,0.051982488483190536,-0.06277338415384293,1.5645394325256348,-0.5891025066375732,-0.4042242169380188,2.217759847640991,1.2334346771240234,-0.1548626869916916,-0.4333491027355194,0.6643179059028625,1.0164521932601929,0.5679268836975098,0.7680611610412598,-1.6202874183654785,-0.5830049514770508,0.5294568538665771,0.13777785003185272,-0.7858462929725647,0.23430085182189941,0.7025623917579651,-0.0753958597779274,2.065858840942383,-2.1789841651916504,-0.43235698342323303,0.45004820823669434,0.5301042795181274,1.672309398651123,-1.2883565425872803,1.3131762742996216,-0.6888679265975952,0.7166905999183655],[0.4853306710720062,0.9404618144035339,1.923962116241455,1.0576838254928589,-0.26233649253845215,0.42937740683555603,0.8199162483215332,1.0021928548812866,-1.540687918663025,0.4845907390117645,1.114965558052063,0.4409470856189728,1.0034351348876953,0.11957266181707382,1.5813199281692505,1.5074732303619385,-0.1746770292520523,1.2471495866775513,1.361542820930481,1.572028636932373,-0.09487530589103699,-1.2610498666763306,-0.4593569040298462,0.7262396216392517,0.4273964464664459,0.12522436678409576,-0.5046024322509766,-1.0317142009735107,0.515399158000946,-0.44807660579681396,-0.3169455826282501,0.409071147441864,1.8977326154708862,0.8018243908882141,0.22713759541511536,-1.5734235048294067,-2.599587917327881,0.5985927581787109,0.7600942850112915,-0.3527143895626068,-0.3154067397117615,1.107965111732483,0.8701043725013733,1.2106502056121826,-0.43664342164993286,0.6831600069999695,0.7352778315544128,0.18344949185848236,-0.35503479838371277,-0.2847311794757843,-0.13917309045791626,-0.26365742087364197,-0.16605360805988312,-1.2037297487258911,0.07736080884933472,0.7299613952636719,-0.09802129119634628,-0.15173998475074768,0.4775388240814209,-0.011552402749657631,-0.19995947182178497,0.16248781979084015,-1.1565015316009521,1.1823639869689941,2.022099256515503,1.4556248188018799,-1.4384729862213135,2.1549816131591797,-1.7192219495773315,-0.20219697058200836,-0.9089049100875854,0.23648494482040405,0.665124773979187,0.24371418356895447,0.31760895252227783,-0.3072643280029297,-1.0200709104537964,-0.24365201592445374,-1.1871867179870605,-0.0006647825357504189,-0.7102599143981934,-0.04758667200803757,0.7331403493881226,-0.6669033169746399,-2.3951194286346436,-0.6657076478004456,-0.2687458097934723,-0.9968655109405518,-0.9898290038108826,0.2805835008621216,0.35695120692253113,1.530945897102356,0.271540105342865,1.8128446340560913,-0.4258820414543152,-0.6585673689842224,-0.666692316532135,0.29834529757499695,2.137418031692505,-0.810759425163269],[0.18137772381305695,-0.27861258387565613,1.3045669794082642,-0.5405160784721375,0.12987416982650757,0.9830858111381531,0.37527504563331604,1.233486294746399,0.7575958371162415,0.1950169801712036,-0.39649057388305664,0.8070853352546692,-1.1430271863937378,1.4598318338394165,0.7761834263801575,1.4625557661056519,-0.26968222856521606,-1.0698879957199097,-0.344203382730484,-0.34376123547554016,-0.6274685859680176,-0.6316519975662231,-0.8434222340583801,-1.7311655282974243,0.6915838122367859,1.1226472854614258,-2.0609970092773438,0.45705169439315796,0.49179914593696594,0.783147394657135,-0.1814863681793213,0.043392445892095566,0.5870605111122131,-0.4086154103279114,-1.1671539545059204,-0.13123272359371185,1.074367642402649,-0.5611162185668945,-0.6319605112075806,-1.0617609024047852,-0.9576595425605774,1.0711848735809326,0.3938498795032501,-0.14528900384902954,0.07369121164083481,0.8272571563720703,-2.802095651626587,-0.12307309359312057,-0.027445457875728607,1.389139175415039,0.5182936191558838,0.5297862887382507,-0.10886271297931671,0.21960489451885223,-1.0698999166488647,0.09560293704271317,-1.1773302555084229,-0.2932077944278717,1.6557421684265137,1.184853434562683,-0.044160015881061554,-0.01629290170967579,0.2947269082069397,-0.2243957370519638,-0.7465910315513611,-1.347640872001648,-0.12868757545948029,-0.5995689034461975,0.7480342388153076,-1.3756122589111328,-0.8406194448471069,-1.771883249282837,-1.0879106521606445,-0.1711636185646057,0.21463491022586823,-0.7651687860488892,-1.1612640619277954,1.9800132513046265,0.11406639218330383,0.38430267572402954,-1.036227822303772,-1.2779748439788818,-0.11109326779842377,-0.19423368573188782,1.0265158414840698,-0.20617642998695374,1.5822900533676147,0.3587599992752075,1.4212192296981812,0.0453646220266819,0.5965667963027954,-0.08865560591220856,2.4117977619171143,0.5156795978546143,0.979715883731842,-0.9563707709312439,0.43034064769744873,-0.00958277191966772,-0.7790939807891846,0.7118064761161804],[-0.5607739090919495,0.11369748413562775,-1.3380852937698364,-0.22366739809513092,-2.500549554824829,0.4631226360797882,-1.154304027557373,-0.3983197808265686,0.9723862409591675,-1.4799062013626099,-0.7604808211326599,-1.753388524055481,-0.3698157072067261,0.25668132305145264,-0.21827825903892517,-0.5247653126716614,-0.9593726396560669,-1.5183829069137573,-0.6692944169044495,-0.7069879174232483,0.8892397880554199,1.1969175338745117,0.6359072923660278,1.3652704954147339,0.06314335018396378,0.25768426060676575,-0.5083221197128296,-0.7352954745292664,-0.3367345631122589,0.5814576745033264,-1.718705415725708,0.3523849844932556,-1.6601836681365967,2.5593347549438477,0.4831516742706299,0.24527913331985474,-0.10210813581943512,2.0717430114746094,0.8071714639663696,0.3166390061378479,0.924429178237915,-0.36402586102485657,-0.5927503108978271,-0.38927894830703735,-0.7105304002761841,-0.7033568620681763,1.2618300914764404,-1.6596064567565918,2.4489431381225586,1.4485242366790771,1.0447087287902832,-0.008928229101002216,1.2169679403305054,-0.41854554414749146,-1.4060271978378296,2.279743194580078,-0.8052665591239929,-1.5652376413345337,1.0018655061721802,-0.8930663466453552,0.8024940490722656,0.7554412484169006,-0.42074456810951233,0.46601471304893494,-0.6433767080307007,1.461266279220581,0.5971741080284119,1.220787525177002,-0.8922317624092102,-1.8236889839172363,-1.1776798963546753,-2.160494327545166,-0.3917211592197418,0.6698616743087769,0.05376460403203964,1.4965746402740479,0.1904996931552887,0.033464059233665466,-1.084828495979309,0.013102881610393524,3.094078540802002,-1.344114899635315,-1.83542799949646,-1.6082394123077393,1.3532989025115967,0.2971017360687256,1.7813996076583862,0.500461220741272,-0.6767547130584717,0.18432867527008057,-0.4913792014122009,0.2254052311182022,-2.1558828353881836,-0.22189994156360626,1.7171179056167603,2.6782920360565186,0.15296809375286102,1.1677476167678833,1.3687512874603271,-0.3374178111553192],[0.6412340998649597,-1.7344602346420288,-0.635978639125824,-0.5415471196174622,-0.35921168327331543,0.3141155540943146,0.16069692373275757,1.7724268436431885,0.845863938331604,0.03912623971700668,-0.7211854457855225,-0.1527094542980194,-1.1167999505996704,-1.0293329954147339,-0.5568302273750305,-0.2691043019294739,2.4888274669647217,0.26218685507774353,0.5712331533432007,-0.9775002002716064,-1.2947368621826172,0.7959850430488586,-0.7934718728065491,1.9675382375717163,0.7725588083267212,-0.58758145570755,-1.953241229057312,-0.7225829362869263,0.5861575603485107,0.49219271540641785,0.6912006139755249,0.31806719303131104,-0.11249269545078278,0.8035343885421753,0.48761552572250366,1.0694799423217773,-1.0060163736343384,1.3544901609420776,-1.093193531036377,0.3223337233066559,1.39430570602417,-0.07586254179477692,1.3346226215362549,-1.332195520401001,-0.7592974901199341,0.5602649450302124,0.1686912328004837,-0.004863726440817118,0.5799813270568848,0.4660188555717468,2.031318187713623,-0.3083469271659851,1.1780312061309814,-1.8620338439941406,-0.0961618646979332,-0.6097720861434937,-0.4219169616699219,0.24102802574634552,0.0737418681383133,0.7564535140991211,0.09251514077186584,2.3814618587493896,0.8518518209457397,0.3715245723724365,-0.5702928304672241,-0.6910625696182251,-0.1454002857208252,-0.2377500981092453,1.813104510307312,1.0818257331848145,-0.6268672347068787,1.27765691280365,0.11840731650590897,1.3395073413848877,-1.1481884717941284,1.4668647050857544,0.46246835589408875,-0.9377301931381226,-0.11571889370679855,-1.353943109512329,0.9066151976585388,0.965746283531189,0.8829364776611328,-1.0539629459381104,0.9076979160308838,0.29664814472198486,1.1657577753067017,-1.0363761186599731,0.825268030166626,1.3426716327667236,-1.1751463413238525,-0.6106640696525574,-0.5566286444664001,-2.136601448059082,1.0336685180664062,1.1441298723220825,0.9546179175376892,-0.4373461604118347,1.1450570821762085,-0.20676875114440918]],"output_weights":[[-0.09436766803264618,0.05991644784808159,0.41650858521461487],[0.1007750928401947,0.9809213876724243,-0.6446183323860168],[0.3569760322570801,-1.3187074661254883,0.4091431200504303],[-0.4117067754268646,-1.1664578914642334,1.208078384399414],[-0.17886988818645477,0.8008760213851929,0.8329376578330994],[0.6287410855293274,0.7934622764587402,-0.203947976231575],[-1.179588794708252,-1.5463720560073853,-0.7771390080451965],[1.3371243476867676,-0.23187416791915894,1.1937834024429321],[-0.05004547908902168,-2.0430939197540283,1.2586164474487305],[-0.14709864556789398,0.32647424936294556,-0.9893277883529663],[-0.6891430020332336,-0.7688137292861938,2.684197187423706],[1.235275149345398,0.3491750955581665,0.46318525075912476],[-1.0810366868972778,-1.0450482368469238,2.5933380126953125],[-0.293486624956131,-0.6234434247016907,-1.0412554740905762],[0.031310100108385086,0.5709038972854614,1.3246862888336182],[0.5097504258155823,0.5869424343109131,-0.009781398810446262],[-0.592706561088562,0.37151843309402466,0.8760916590690613],[-0.7717710137367249,-0.8791407346725464,1.2982661724090576],[-0.09950237721204758,-1.3771172761917114,1.4377124309539795],[-0.12404347211122513,0.3609677851200104,-1.3783146142959595],[1.4630120992660522,2.0799660682678223,-0.5625633001327515],[-0.7277359366416931,1.1892032623291016,-0.9789236187934875],[1.0586005449295044,-1.1365684270858765,1.301456093788147],[-0.6276941895484924,-1.597100019454956,-0.532318651676178],[-2.16467547416687,1.5765596628189087,1.6351759433746338],[-1.0408636331558228,1.7452198266983032,0.012925280258059502],[-0.5453000664710999,2.1170592308044434,-1.4659091234207153],[0.8866893649101257,-1.2666751146316528,-0.5219841003417969],[-0.09453123062849045,-0.5620667338371277,-1.9334276914596558],[-0.3617801368236542,-0.1492561250925064,-0.24502074718475342],[-0.7489649057388306,0.5362321734428406,0.3749980926513672],[-0.6399117708206177,1.8785042762756348,1.3162503242492676],[-1.2693126201629639,0.8300194144248962,0.16368873417377472],[-0.3258855938911438,-0.9149966239929199,-0.14066529273986816],[-0.45056354999542236,0.1600385457277298,-0.7187671065330505],[0.2776210904121399,0.7932141423225403,-0.2887704372406006],[0.5202822685241699,1.7819874286651611,0.23196645081043243],[-0.09580263495445251,-1.060430645942688,-0.4755948483943939],[0.5883417129516602,-1.7514703273773193,1.814376950263977],[1.0762834548950195,-0.4944041073322296,-0.9520183205604553],[0.7289612293243408,0.5286377668380737,-0.4446057379245758],[1.314910650253296,0.02716468833386898,1.4701377153396606],[-0.5344987511634827,-0.9411649107933044,-0.7497097253799438],[0.009592304937541485,0.44658026099205017,-0.543928861618042],[-0.6451993584632874,0.31853869557380676,0.9259228706359863],[0.23658491671085358,1.6924675703048706,2.1488876342773438],[1.0662286281585693,1.4921585321426392,-0.16855645179748535],[-1.3963674306869507,1.2198176383972168,0.10110877454280853],[-0.49583277106285095,0.7993138432502747,0.487493634223938],[-2.3289623260498047,-0.25899845361709595,0.10257124155759811],[0.07065103948116302,0.11084917187690735,0.020303456112742424],[0.6245760321617126,0.35127997398376465,-0.8262454271316528],[1.124762773513794,-1.1145724058151245,0.6604684591293335],[-0.0575617253780365,-1.7888437509536743,1.5638347864151],[-0.7422308325767517,2.2909040451049805,-0.009738185442984104],[-0.6401920318603516,-0.4171184301376343,-0.7915039658546448],[1.637734055519104,-0.15394382178783417,-0.9271765947341919],[1.9800293445587158,0.22233927249908447,0.6706026196479797],[-0.9276086091995239,0.4917408227920532,-0.5121909976005554],[0.03683222085237503,-1.923250675201416,-0.1951567679643631],[1.7122219800949097,2.113508701324463,-1.0776454210281372],[0.1424354910850525,0.8194392919540405,0.03415180742740631],[0.40331631898880005,-0.6482622623443604,2.041987895965576],[0.2688518166542053,-0.7640560269355774,-1.8125998973846436],[1.1469173431396484,-0.6560671329498291,-0.43726110458374023],[-0.3091203570365906,2.087388277053833,-1.6724950075149536],[0.3952600061893463,1.071364164352417,-0.47524282336235046],[0.3098370134830475,0.14166413247585297,-1.61493980884552],[0.25824224948883057,1.0706760883331299,-0.4349204897880554],[-0.12360528856515884,-1.1877304315567017,2.0264713764190674],[-0.7535350918769836,-2.2154157161712646,0.4720568358898163],[-1.2026803493499756,1.194512128829956,0.4031630754470825],[1.865479826927185,1.1858088970184326,1.7087987661361694],[1.442055583000183,-1.752245306968689,0.6939370036125183],[0.4133492112159729,0.17814448475837708,0.08398342877626419],[-0.7970094084739685,1.053387999534607,1.3961211442947388],[-0.7702863216400146,-0.5235996246337891,0.032984066754579544],[1.0953336954116821,1.4510166645050049,1.4710201025009155],[-1.2320760488510132,0.7084635496139526,0.7755368947982788],[-0.7657793760299683,-0.1828138530254364,1.4878588914871216],[0.02082003280520439,1.135740876197815,-0.2827862799167633],[0.9198614358901978,-0.6736643314361572,0.3127480745315552],[2.9909660816192627,-0.07656652480363846,-0.8121764659881592],[-0.044818948954343796,-1.2286614179611206,1.8103820085525513],[0.5104821920394897,0.24305269122123718,0.0056758965365588665],[-0.7651704549789429,-0.9842917323112488,0.42592179775238037],[-0.4432815909385681,-0.7797234058380127,-1.714348554611206],[2.1994926929473877,-0.9331554770469666,0.7569674849510193],[-0.23847739398479462,-1.624365210533142,-1.3364951610565186],[1.5902243852615356,0.6215983033180237,-3.130760669708252],[-0.7371174097061157,0.6819151043891907,0.36116427183151245],[-0.19738459587097168,-0.8038223385810852,0.7439830899238586],[-0.2558654546737671,0.25277599692344666,-1.6991798877716064],[0.004825342446565628,-0.5157719850540161,0.11483079940080643],[-0.0013870563125237823,-1.0516432523727417,-1.1563162803649902],[-0.8185856342315674,1.9146629571914673,0.20679932832717896],[-0.05086775869131088,0.552092969417572,1.7407374382019043],[0.7014475464820862,-0.12781400978565216,0.12776637077331543],[0.8262844085693359,-2.1844735145568848,-1.6484014987945557],[0.19101031124591827,1.3425709009170532,-0.5738804340362549]]},{"input_weights":[[0.5907321572303772,0.03444797545671463,0.14012059569358826,0.8008277416229248,1.1537615060806274,-0.09043913334608078,-0.1194038838148117,0.26460036635398865,-0.9730252027511597,-0.3780216574668884,0.09824743866920471,0.5789222717285156,-0.46994730830192566,-0.28971028327941895,0.16450251638889313,0.19367682933807373,0.36406558752059937,1.6053467988967896,0.0211739894002676,-0.8729051351547241,-0.9770657420158386,-0.8312714099884033,0.41267871856689453,0.5911338925361633,-0.5611242055892944,-0.6183722615242004,0.8720982074737549,0.11211849004030228,2.1674702167510986,3.054849863052368,-1.2082090377807617,0.775318443775177,-0.1644558608531952,0.3671887516975403,0.9864915609359741,0.6522989869117737,0.0659690722823143,0.4128895699977875,0.17895647883415222,-0.9958493709564209,-0.9769657850265503,-0.46175244450569153,-1.5138498544692993,0.7706387042999268,-0.3186010420322418,-0.46274062991142273,-0.6156818866729736,-0.8419459462165833,1.0378004312515259,-0.6040019392967224,-0.15023882687091827,0.5139186978340149,-2.6200613975524902,0.22743694484233856,-1.7098872661590576,0.9768370389938354,-1.9153752326965332,1.2952083349227905,-0.8678575754165649,-0.10358081758022308,-0.3859900236129761,-0.014929918572306633,-0.5378190279006958,-0.4182823598384857,-0.5493355989456177,0.9831618070602417,-0.2034951150417328,-0.26698037981987,0.6496431231498718,-1.0308539867401123,-0.6223686933517456,-0.9433506727218628,-0.20358532667160034,0.4670199453830719,-1.9556210041046143,1.647709608078003,0.9469010233879089,-0.17624863982200623,-0.3981861472129822,1.5060158967971802,0.19611702859401703,1.4066286087036133,-1.269572377204895,0.7509662508964539,0.2709493637084961,1.0410407781600952,-0.04693973436951637,0.4459591507911682,0.2051175832748413,-0.3493651747703552,1.6635262966156006,-0.8161112666130066,0.6678239703178406,2.0928986072540283,-0.8405468463897705,-0.19849678874015808,1.2285875082015991,0.26079174876213074,1.1586884260177612,1.2700164318084717],[0.0733916386961937,0.4363704025745392,0.9725098013877869,1.6534475088119507,1.7110283374786377,-0.8298839926719666,-0.8972041606903076,-0.32258185744285583,-0.3020473122596741,0.7192970514297485,-1.1196578741073608,0.6692389845848083,0.8882202506065369,0.1338004469871521,0.7824767827987671,-1.1429656744003296,-1.3175232410430908,-1.0878301858901978,0.1875944584608078,-0.6065680384635925,1.128401517868042,-0.17842347919940948,0.06869857758283615,1.9035239219665527,-1.5298593044281006,1.0968596935272217,-0.9229228496551514,1.1579952239990234,-0.6856246590614319,0.4687991440296173,0.5022316575050354,0.8533680438995361,1.8578284978866577,-1.3820940256118774,-0.7197298407554626,0.6650211811065674,0.41742831468582153,-1.9503310918807983,0.10014986991882324,0.1636992245912552,-1.0006669759750366,-0.39652279019355774,-0.8121247291564941,-0.18953119218349457,1.3452644348144531,0.049920856952667236,-0.5118744373321533,1.8684608936309814,0.5831584334373474,-1.2509641647338867,0.7743116021156311,-0.02500668726861477,-0.9117526412010193,2.1793718338012695,-0.9016199111938477,0.3373451232910156,0.3819791078567505,0.24294422566890717,0.07419165223836899,1.338149070739746,2.1946096420288086,0.5460693836212158,-2.6939568519592285,-2.0429904460906982,-1.333308458328247,0.11770179867744446,-1.2283942699432373,1.7900269031524658,0.7009784579277039,-0.36041581630706787,1.3189878463745117,1.5436532497406006,1.1916245222091675,-0.9109731316566467,-0.6687419414520264,1.0398777723312378,-0.49032971262931824,-0.37133944034576416,0.4164453148841858,0.16566939651966095,-1.7750904560089111,0.3609360158443451,-0.05245377495884895,1.756872296333313,-1.5000190734863281,-1.852439045906067,0.5177643895149231,0.978519856929779,-1.4413152933120728,1.6527056694030762,-0.42419952154159546,0.014416988007724285,0.05172985419631004,-0.6695186495780945,-0.4850919544696808,1.0375574827194214,0.7539249658584595,-0.10697305202484131,-0.7637374401092529,1.2263680696487427],[0.1948680579662323,-0.6313998103141785,0.6593438386917114,0.4042675495147705,0.4730171859264374,0.0810265764594078,1.3213984966278076,-0.02601776272058487,0.37445980310440063,0.12912094593048096,-0.7263078689575195,1.1505738496780396,-3.063415288925171,0.1695767641067505,0.2631073594093323,1.1118732690811157,0.630621612071991,-0.30596378445625305,-0.4652875065803528,-1.3322324752807617,-0.724493682384491,2.2746083736419678,-1.7826614379882812,0.38829660415649414,1.1151268482208252,0.5209522843360901,-0.06256674230098724,1.4163181781768799,1.5499976873397827,-1.2394704818725586,1.0008220672607422,0.5924638509750366,0.8111676573753357,0.737598180770874,1.2375693321228027,-0.7497903108596802,1.0833934545516968,1.9864639043807983,-0.3473968505859375,-1.0533092021942139,-1.7421202659606934,-0.6122524738311768,1.57329261302948,-0.4816208481788635,-1.660779595375061,0.1498090624809265,1.2448135614395142,-0.6057798266410828,-0.10600470751523972,-0.4276292026042938,-0.4857946038246155,-0.7481839656829834,0.5132924318313599,0.39347317814826965,0.9595637321472168,-1.021060585975647,1.4532482624053955,0.5048663020133972,-1.2634071111679077,0.4097333252429962,0.6655809879302979,-0.3143848478794098,-0.18987847864627838,-1.1884918212890625,1.014465093612671,-0.6386759877204895,0.8635640144348145,0.6274266839027405,-1.5325236320495605,0.9311677813529968,-0.24807485938072205,0.6736235618591309,0.0180189348757267,0.5843083262443542,0.6369465589523315,0.03116007335484028,-1.831148624420166,0.9351931214332581,0.9452159404754639,0.17674483358860016,-0.8611083030700684,-0.850614607334137,-1.480909824371338,-1.4971925020217896,0.40574219822883606,-0.8180162310600281,-1.5381754636764526,-0.34716683626174927,0.5708627700805664,0.32499104738235474,-0.8357304930686951,-1.5075953006744385,-0.8340989351272583,-0.18628151714801788,-2.392454147338867,0.8258419036865234,-0.6332756280899048,-0.15669672191143036,1.085341215133667,-0.24084340035915375],[0.05181814357638359,0.09628771245479584,-0.5331301093101501,-0.0568915419280529,1.1050317287445068,0.6047468781471252,-0.5669358372688293,0.010067949071526527,0.7570366263389587,0.8243975043296814,1.2244793176651,-1.5617398023605347,2.2451140880584717,0.9235653281211853,1.784143328666687,-0.3492977023124695,0.9461678266525269,-1.1702855825424194,0.0104424599558115,-0.5835333466529846,-0.47739747166633606,-0.42587947845458984,-0.7704043388366699,-0.39413559436798096,-0.5504974722862244,-0.6810301542282104,1.1319845914840698,0.1550421565771103,1.4623652696609497,0.7093304395675659,-1.116043210029602,0.9069012999534607,-0.7406579256057739,-0.03975074365735054,0.41054028272628784,0.8438948392868042,1.087032437324524,-1.218962550163269,-0.2494136542081833,-0.4136137068271637,1.4162380695343018,1.1835882663726807,-0.4416348338127136,0.13745152950286865,-1.8956021070480347,-0.10527779161930084,-0.044958677142858505,-0.26564812660217285,-0.7173143625259399,0.08707840740680695,-3.03261137008667,1.1124874353408813,0.628847062587738,-0.007537330966442823,0.0017619688296690583,0.4458421766757965,-0.5556761026382446,-0.8852472305297852,0.6600853204727173,-0.3445998728275299,-0.13890241086483002,0.7637143731117249,-0.9687570929527283,0.34815773367881775,1.1883814334869385,0.23720872402191162,1.4336813688278198,0.9919055700302124,-0.038752906024456024,2.7731363773345947,-1.0579630136489868,-0.30605918169021606,1.2484569549560547,-0.25571155548095703,-2.123642683029175,-1.2821882963180542,-1.5982847213745117,-0.49480482935905457,-0.3163190484046936,-0.5110195279121399,0.22282466292381287,-0.3526684045791626,0.8673335909843445,-2.2203750610351562,1.2557669878005981,-1.0429166555404663,-0.11420530080795288,0.4280758202075958,0.1711653620004654,1.891802430152893,-0.6499691009521484,-1.3902525901794434,0.1040269136428833,-1.9697483777999878,0.03537305071949959,0.9079623818397522,-1.0869442224502563,-1.8693022727966309,1.2773703336715698,-0.9275290369987488],[-0.512248694896698,-0.28916195034980774,2.49688982963562,3.0776002407073975,0.0011946927988901734,0.889816403388977,2.06070613861084,-0.1939443051815033,0.46129438281059265,-0.3986435830593109,0.05922401323914528,0.17479875683784485,1.3133134841918945,0.05081529542803764,0.4409998953342438,0.29284703731536865,0.18724653124809265,1.5369784832000732,-0.8234907388687134,-0.9493873119354248,0.4777398407459259,2.9717016220092773,-0.6265742778778076,-1.7438589334487915,2.209826707839966,1.0076202154159546,-0.1579696089029312,-1.4309327602386475,1.289030909538269,-0.3711318373680115,0.17006394267082214,-1.2848925590515137,0.4445895254611969,-1.308764934539795,-0.2942693829536438,-0.4423508048057556,-0.735455334186554,-1.2578264474868774,0.11452700197696686,0.850707471370697,0.2851690649986267,-0.8180270791053772,0.7493239045143127,-1.3515905141830444,-0.5203554034233093,1.017077922821045,1.0073961019515991,0.8537280559539795,-1.601481556892395,-0.6026009321212769,0.3716042637825012,1.6026384830474854,-1.8655903339385986,-1.0488430261611938,-2.424708366394043,1.0258259773254395,-0.7573267817497253,0.30820104479789734,-0.6306151151657104,-1.5879765748977661,-0.5355634093284607,0.1686701774597168,1.81429922580719,1.4176287651062012,0.9924502372741699,0.39949896931648254,-0.8518718481063843,0.10811462253332138,0.2901195287704468,0.7955939173698425,-0.33757421374320984,1.6516354084014893,-0.6075258851051331,0.019826196134090424,0.5033312439918518,2.783299684524536,-0.8530526161193848,0.7027236223220825,-0.769087553024292,0.8393466472625732,-0.5922995805740356,0.25960788130760193,0.8359479308128357,1.6825252771377563,-1.6461231708526611,0.9318301677703857,0.1841067671775818,0.02046360820531845,1.2775541543960571,-0.25603753328323364,1.165218710899353,0.5133801102638245,0.4893631637096405,-0.22784017026424408,0.3390478491783142,0.9767446517944336,1.530102014541626,-1.4811437129974365,-0.29762375354766846,0.8132498264312744],[1.1899813413619995,-0.12389329075813293,0.8055744767189026,0.2796249985694885,1.723584532737732,-2.3672759532928467,-0.2674410045146942,1.0209535360336304,-0.005320179276168346,1.566746473312378,-0.749661922454834,2.3817179203033447,0.25341615080833435,0.24950696527957916,0.6957744359970093,1.062878966331482,0.4244368374347687,-0.8585368394851685,-0.38667070865631104,-0.605655312538147,-0.12259504199028015,1.1676065921783447,0.34593644738197327,-0.11210732907056808,0.8524149656295776,-1.3832838535308838,0.36215028166770935,-0.9822492599487305,0.41562724113464355,-1.5453823804855347,-0.6516852378845215,0.22556957602500916,1.766141653060913,1.3763741254806519,1.171894907951355,1.1595805883407593,0.1088225394487381,-2.190425157546997,-0.5087441802024841,-1.3219516277313232,0.04464631527662277,0.020543601363897324,-0.22228437662124634,-1.152645468711853,0.8915623426437378,-1.4815551042556763,0.8602800369262695,-0.17829947173595428,1.209961175918579,-0.6925322413444519,-1.0545486211776733,-0.018636852502822876,0.3895973563194275,0.03242795169353485,-0.7245151400566101,1.259595274925232,0.8627224564552307,0.892787754535675,-1.3797696828842163,-1.4041515588760376,0.557412326335907,0.7788721919059753,0.25405681133270264,0.07562343031167984,0.2714775800704956,2.341603994369507,1.0748058557510376,0.18912366032600403,2.6709513664245605,-0.04973844438791275,0.19155116379261017,-0.26697221398353577,-0.3264104425907135,-1.2697018384933472,-2.74112606048584,1.0092765092849731,0.4596831798553467,0.22528298199176788,0.12177341431379318,-0.47829511761665344,1.8149998188018799,-1.0648077726364136,-0.5072123408317566,-0.28338903188705444,1.8531200885772705,-0.5004256367683411,-1.5638107061386108,-0.2495976686477661,-0.4508567452430725,1.10270357131958,-2.454327344894409,0.6449235081672668,0.8825938105583191,-1.072033166885376,0.35479632019996643,-1.3352032899856567,1.1244291067123413,-2.0740058422088623,-0.2646247148513794,1.42268705368042],[1.7042169570922852,-0.36404985189437866,-0.3298819363117218,0.3991096317768097,-0.7764788866043091,1.5034033060073853,0.6736966967582703,0.6358156204223633,0.36527106165885925,0.5311070084571838,0.33333685994148254,0.28524643182754517,-0.2282363325357437,0.07594294100999832,2.3169867992401123,-0.3357544243335724,-0.9574862718582153,-1.644445538520813,1.1588057279586792,-0.6169173717498779,0.03860677406191826,0.7720409035682678,0.03663046658039093,2.1011390686035156,0.7441849708557129,-0.050771065056324005,-0.30789995193481445,1.0675827264785767,-0.8409184813499451,-0.8028178811073303,0.7651758193969727,-0.2914023995399475,0.8493910431861877,0.028790907934308052,-1.248643398284912,-0.2909879684448242,-0.39158421754837036,0.1679358035326004,0.8992251753807068,-0.7230941653251648,0.394458144903183,1.5976572036743164,0.10394034534692764,0.42799288034439087,-1.3468934297561646,0.3342702090740204,0.2279188632965088,0.04776393622159958,0.6278939843177795,0.1068950891494751,-2.076694965362549,1.0596364736557007,-0.1818520724773407,-0.7167999744415283,-0.22183337807655334,2.1469006538391113,-0.8544126749038696,1.9416041374206543,-0.1628148853778839,1.591597318649292,-1.2183828353881836,-1.053758144378662,0.5072396397590637,-0.8935011625289917,-1.0133858919143677,1.6143403053283691,2.238429069519043,1.002184510231018,-0.660047709941864,0.051982488483190536,-0.06277338415384293,1.5645394325256348,-0.5891025066375732,-0.4042242169380188,2.217759847640991,1.2334346771240234,-0.1548626869916916,-0.4333491027355194,0.6643179059028625,1.0164521932601929,0.5679268836975098,0.7680611610412598,-1.6202874183654785,-0.5830049514770508,0.5294568538665771,0.13777785003185272,-0.7858462929725647,0.23430085182189941,0.7025623917579651,-0.0753958597779274,2.065858840942383,-2.1789841651916504,-0.43235698342323303,0.45004820823669434,0.5301042795181274,1.672309398651123,-1.2883565425872803,1.3131762742996216,-0.6888679265975952,0.7166905999183655],[0.4853306710720062,0.9404618144035339,1.923962116241455,1.0576838254928589,-0.26233649253845215,0.42937740683555603,0.8199162483215332,1.0021928548812866,-1.540687918663025,0.4845907390117645,1.114965558052063,0.4409470856189728,1.0034351348876953,0.11957266181707382,1.5813199281692505,1.5074732303619385,-0.1746770292520523,1.2471495866775513,1.361542820930481,1.572028636932373,-0.09487530589103699,-1.2610498666763306,-0.4593569040298462,0.7262396216392517,0.4273964464664459,0.12522436678409576,-0.5046024322509766,-1.0317142009735107,0.515399158000946,-0.44807660579681396,-0.3169455826282501,0.409071147441864,1.8977326154708862,0.8018243908882141,0.22713759541511536,-1.5734235048294067,-2.599587917327881,0.5985927581787109,0.7600942850112915,-0.3527143895626068,-0.3154067397117615,1.107965111732483,0.8701043725013733,1.2106502056121826,-0.43664342164993286,0.6831600069999695,0.7352778315544128,0.18344949185848236,-0.35503479838371277,-0.2847311794757843,-0.13917309045791626,-0.6557024121284485,-0.16605360805988312,-1.2037297487258911,0.07736080884933472,0.7299613952636719,-0.09802129119634628,-0.15173998475074768,0.4775388240814209,-0.011552402749657631,-0.19995947182178497,0.16248781979084015,-1.1565015316009521,1.1823639869689941,2.022099256515503,1.4556248188018799,-1.4384729862213135,2.1549816131591797,-1.7192219495773315,-0.20219697058200836,-0.9089049100875854,0.23648494482040405,0.665124773979187,0.24371418356895447,0.31760895252227783,-0.3072643280029297,-1.0200709104537964,-0.24365201592445374,-1.1871867179870605,-0.0006647825357504189,-0.7102599143981934,-0.04758667200803757,0.7331403493881226,-0.6669033169746399,-2.3951194286346436,-0.6657076478004456,-0.2687458097934723,-0.9968655109405518,-0.9898290038108826,0.2805835008621216,0.35695120692253113,1.530945897102356,0.271540105342865,1.2676619291305542,-0.4258820414543152,-0.6585673689842224,-0.666692316532135,0.29834529757499695,2.137418031692505,-0.810759425163269],[0.18137772381305695,-0.27861258387565613,1.3045669794082642,-0.5405160784721375,0.12987416982650757,0.9830858111381531,0.37527504563331604,1.233486294746399,0.7575958371162415,0.1950169801712036,-0.39649057388305664,0.8070853352546692,-1.1430271863937378,1.4598318338394165,0.7761834263801575,1.4625557661056519,-0.26968222856521606,-1.0698879957199097,-0.344203382730484,-0.34376123547554016,-0.6274685859680176,-0.6316519975662231,-0.8434222340583801,-1.7311655282974243,0.6915838122367859,1.1226472854614258,-2.0609970092773438,0.45705169439315796,0.49179914593696594,0.783147394657135,-0.1814863681793213,0.043392445892095566,0.5870605111122131,-0.4086154103279114,-1.1671539545059204,-0.13123272359371185,1.074367642402649,-0.5611162185668945,-0.6319605112075806,-1.0617609024047852,-0.9576595425605774,1.0711848735809326,0.3938498795032501,-0.14528900384902954,0.07369121164083481,0.8272571563720703,-2.802095651626587,-0.12307309359312057,-0.027445457875728607,1.389139175415039,0.5182936191558838,0.5297862887382507,-0.10886271297931671,0.21960489451885223,-1.0698999166488647,0.09560293704271317,-1.1773302555084229,-0.2932077944278717,1.6557421684265137,1.184853434562683,-0.044160015881061554,-0.01629290170967579,0.2947269082069397,-0.2243957370519638,-0.7465910315513611,-1.347640872001648,-0.12868757545948029,-0.5995689034461975,0.7480342388153076,-1.3756122589111328,-0.8406194448471069,-1.771883249282837,-1.0879106521606445,-0.1711636185646057,0.21463491022586823,-0.7651687860488892,-1.1612640619277954,1.9800132513046265,0.11406639218330383,0.38430267572402954,-1.036227822303772,-1.2779748439788818,-0.11109326779842377,-0.19423368573188782,1.0265158414840698,-0.20617642998695374,1.5822900533676147,0.3587599992752075,1.4212192296981812,0.0453646220266819,0.5965667963027954,-0.08865560591220856,2.4117977619171143,0.5156795978546143,0.979715883731842,-0.9563707709312439,0.43034064769744873,-0.00958277191966772,-0.7790939807891846,0.7118064761161804],[-0.5607739090919495,0.11369748413562775,-1.3380852937698364,-0.22366739809513092,-2.500549554824829,0.4631226360797882,-1.154304027557373,-0.3983197808265686,0.9723862409591675,-1.4799062013626099,-0.7604808211326599,-1.753388524055481,-0.3698157072067261,0.25668132305145264,-0.21827825903892517,-0.5247653126716614,-0.9593726396560669,-1.5183829069137573,-0.6692944169044495,-0.7069879174232483,0.8892397880554199,1.1969175338745117,0.6359072923660278,1.3652704954147339,0.06314335018396378,0.25768426060676575,-0.5083221197128296,-0.7352954745292664,-0.3367345631122589,0.5814576745033264,-1.718705415725708,0.3523849844932556,-1.6601836681365967,2.5593347549438477,0.4831516742706299,0.24527913331985474,-0.10210813581943512,2.0717430114746094,0.8071714639663696,0.3166390061378479,0.924429178237915,-0.36402586102485657,-0.5927503108978271,-0.38927894830703735,-0.7105304002761841,-0.7033568620681763,1.2618300914764404,-1.6596064567565918,2.4489431381225586,1.4485242366790771,1.0447087287902832,-0.008928229101002216,1.2169679403305054,-0.41854554414749146,-1.4060271978378296,2.279743194580078,-0.8052665591239929,-1.5652376413345337,1.0018655061721802,-0.8930663466453552,0.8024940490722656,0.7554412484169006,-0.42074456810951233,0.46601471304893494,-0.6433767080307007,1.461266279220581,0.5971741080284119,1.220787525177002,-0.8922317624092102,-1.8236889839172363,-1.1776798963546753,-2.160494327545166,-0.3917211592197418,0.6698616743087769,0.05376460403203964,1.4965746402740479,0.1904996931552887,0.033464059233665466,-1.084828495979309,0.013102881610393524,3.094078540802002,-1.344114899635315,-1.83542799949646,-1.6082394123077393,1.3532989025115967,0.2971017360687256,1.7813996076583862,0.500461220741272,-0.6767547130584717,0.18432867527008057,-0.4913792014122009,0.2254052311182022,-2.1558828353881836,-0.22189994156360626,1.7171179056167603,2.6782920360565186,0.15296809375286102,1.1677476167678833,1.3687512874603271,-0.3374178111553192],[0.6412340998649597,-1.7344602346420288,-0.635978639125824,-0.5415471196174622,-0.35921168327331543,0.3141155540943146,0.16069692373275757,1.7724268436431885,0.845863938331604,0.03912623971700668,-0.7211854457855225,-0.1527094542980194,-1.1167999505996704,-1.0293329954147339,-0.5568302273750305,-0.2691043019294739,2.4888274669647217,0.26218685507774353,0.5712331533432007,-0.9775002002716064,-1.2947368621826172,0.7959850430488586,-0.7934718728065491,1.9675382375717163,0.7725588083267212,-0.58758145570755,-1.953241229057312,-0.7225829362869263,0.5861575603485107,0.49219271540641785,0.6912006139755249,0.31806719303131104,-0.11249269545078278,0.8035343885421753,0.48761552572250366,1.0694799423217773,-1.0060163736343384,1.3544901609420776,-1.093193531036377,0.3223337233066559,1.39430570602417,-0.07586254179477692,1.3346226215362549,-1.332195520401001,-0.7592974901199341,0.5602649450302124,0.1686912328004837,-0.004863726440817118,0.5799813270568848,0.4660188555717468,2.031318187713623,-0.3083469271659851,1.1780312061309814,-1.8620338439941406,-0.0961618646979332,-0.6097720861434937,-0.4219169616699219,0.24102802574634552,0.0737418681383133,0.7564535140991211,0.09251514077186584,2.3814618587493896,0.8518518209457397,0.3715245723724365,-0.5702928304672241,-0.6910625696182251,-0.1454002857208252,-0.2377500981092453,1.813104510307312,1.0818257331848145,-0.6268672347068787,1.27765691280365,0.11840731650590897,1.3395073413848877,-1.1481884717941284,1.4668647050857544,0.46246835589408875,-0.9377301931381226,-0.11571889370679855,-1.353943109512329,0.9066151976585388,0.965746283531189,0.8829364776611328,-1.0539629459381104,0.9076979160308838,0.29664814472198486,1.1657577753067017,-1.0363761186599731,0.825268030166626,1.3426716327667236,-1.1751463413238525,-0.6106640696525574,-0.5566286444664001,-2.136601448059082,1.0336685180664062,1.1441298723220825,0.9546179175376892,-0.4373461604118347,1.1450570821762085,-0.20676875114440918]],"output_weights":[[-0.09436766803264618,0.05991644784808159,0.41650858521461487],[0.1007750928401947,0.9809213876724243,-0.6446183323860168],[0.3569760322570801,-1.3187074661254883,0.4091431200504303],[-0.4117067754268646,-1.1664578914642334,1.208078384399414],[-0.17886988818645477,0.8008760213851929,0.8329376578330994],[0.6287410855293274,0.7934622764587402,-0.203947976231575],[-1.179588794708252,-1.5463720560073853,-0.7771390080451965],[1.3371243476867676,-0.23187416791915894,1.1937834024429321],[-0.05004547908902168,-2.0430939197540283,1.2586164474487305],[-0.14709864556789398,0.32647424936294556,-0.9893277883529663],[-0.6891430020332336,-0.7688137292861938,2.684197187423706],[1.235275149345398,-0.4197847843170166,0.46318525075912476],[-1.0810366868972778,-1.0450482368469238,2.5933380126953125],[-0.293486624956131,-0.6234434247016907,-1.0412554740905762],[0.031310100108385086,0.5709038972854614,1.3246862888336182],[0.5097504258155823,0.5869424343109131,-0.009781398810446262],[-1.0063725709915161,0.37151843309402466,0.8760916590690613],[-0.7717710137367249,-0.8791407346725464,1.2982661724090576],[-0.09950237721204758,-1.3771172761917114,1.4377124309539795],[-0.12404347211122513,0.3609677851200104,-1.3783146142959595],[1.4630120992660522,1.4205431938171387,-0.5625633001327515],[-0.7277359366416931,1.1892032623291016,-0.9789236187934875],[1.0586005449295044,-1.1365684270858765,1.301456093788147],[-0.6276941895484924,-1.597100019454956,-0.532318651676178],[-2.16467547416687,1.5765596628189087,1.6351759433746338],[-1.0408636331558228,1.7452198266983032,0.012925280258059502],[-0.5453000664710999,2.1170592308044434,-1.4659091234207153],[0.8866893649101257,-1.2666751146316528,-0.5219841003417969],[-0.09453123062849045,-0.5620667338371277,-1.9334276914596558],[-0.3617801368236542,-0.1492561250925064,-0.24502074718475342],[-0.7489649057388306,0.5362321734428406,0.3749980926513672],[-0.6399117708206177,1.8785042762756348,1.3162503242492676],[-1.2693126201629639,0.8300194144248962,0.16368873417377472],[-0.3258855938911438,-0.9149966239929199,-0.14066529273986816],[-0.45056354999542236,0.1600385457277298,-0.7187671065330505],[0.2776210904121399,0.7932141423225403,-0.2887704372406006],[0.5202822685241699,1.7819874286651611,0.23196645081043243],[-0.09580263495445251,-1.060430645942688,-0.4755948483943939],[0.5883417129516602,-1.7514703273773193,1.814376950263977],[1.0762834548950195,-0.4944041073322296,-1.4095155000686646],[0.7289612293243408,0.5286377668380737,-0.4446057379245758],[1.314910650253296,0.02716468833386898,1.4701377153396606],[-0.5344987511634827,-0.9411649107933044,-0.7497097253799438],[0.009592304937541485,0.44658026099205017,-0.543928861618042],[-0.6451993584632874,0.31853869557380676,0.9259228706359863],[0.23658491671085358,1.6924675703048706,2.1488876342773438],[1.0662286281585693,1.4921585321426392,-0.16855645179748535],[-1.3963674306869507,1.2198176383972168,0.10110877454280853],[-0.49583277106285095,0.7993138432502747,0.487493634223938],[-2.3289623260498047,-0.25899845361709595,0.10257124155759811],[0.07065103948116302,0.11084917187690735,0.020303456112742424],[0.6245760321617126,0.35127997398376465,-0.8262454271316528],[1.124762773513794,-1.1145724058151245,0.6604684591293335],[-0.0575617253780365,-1.7888437509536743,1.5638347864151],[-0.7422308325767517,2.2909040451049805,-0.34719574451446533],[-0.6401920318603516,-0.4171184301376343,-0.7915039658546448],[1.637734055519104,-0.15394382178783417,-0.9271765947341919],[1.9800293445587158,0.22233927249908447,0.6706026196479797],[-0.9276086091995239,0.4917408227920532,-0.5121909976005554],[0.03683222085237503,-1.923250675201416,-0.1951567679643631],[1.7122219800949097,2.113508701324463,-1.0776454210281372],[0.1424354910850525,0.8194392919540405,0.03415180742740631],[0.40331631898880005,-0.6482622623443604,2.041987895965576],[0.2688518166542053,-0.7640560269355774,-1.8125998973846436],[1.1469173431396484,-0.6560671329498291,-0.43726110458374023],[-0.3091203570365906,1.5378973484039307,-1.6724950075149536],[0.3952600061893463,1.071364164352417,-0.47524282336235046],[0.3098370134830475,0.14166413247585297,-1.61493980884552],[0.25824224948883057,0.7101518511772156,-0.4349204897880554],[-0.12360528856515884,-1.1877304315567017,2.0264713764190674],[-0.7535350918769836,-2.2154157161712646,0.4720568358898163],[-1.2026803493499756,1.194512128829956,0.4031630754470825],[1.865479826927185,1.1858088970184326,1.7087987661361694],[1.442055583000183,-1.752245306968689,0.6939370036125183],[0.4133492112159729,0.17814448475837708,0.08398342877626419],[-0.7970094084739685,1.053387999534607,1.3961211442947388],[-0.7702863216400146,-0.5235996246337891,0.032984066754579544],[1.0953336954116821,1.4510166645050049,1.4710201025009155],[-1.2320760488510132,0.7084635496139526,0.7755368947982788],[-0.7657793760299683,-0.1828138530254364,1.4878588914871216],[0.02082003280520439,1.135740876197815,-0.2827862799167633],[0.9198614358901978,-0.6736643314361572,0.3127480745315552],[2.9909660816192627,-0.07656652480363846,-0.8121764659881592],[-0.044818948954343796,-1.2286614179611206,1.8103820085525513],[0.5104821920394897,0.24305269122123718,0.0056758965365588665],[-0.7651704549789429,-0.9842917323112488,0.42592179775238037],[-0.4432815909385681,-0.7797234058380127,-1.714348554611206],[2.1994926929473877,-0.9331554770469666,0.7569674849510193],[-0.23847739398479462,-1.624365210533142,-1.3364951610565186],[1.5902243852615356,0.6215983033180237,-3.130760669708252],[-0.7371174097061157,0.6819151043891907,0.36116427183151245],[-0.19738459587097168,-0.8038223385810852,0.7439830899238586],[-0.2558654546737671,0.25277599692344666,-1.6991798877716064],[0.004825342446565628,-0.5157719850540161,0.11483079940080643],[-0.0013870563125237823,-1.0516432523727417,-1.1563162803649902],[-0.8185856342315674,1.9146629571914673,0.20679932832717896],[-0.05086775869131088,0.552092969417572,1.7407374382019043],[0.7014475464820862,-0.12781400978565216,0.12776637077331543],[0.8262844085693359,-2.1844735145568848,-1.6484014987945557],[0.19101031124591827,1.3425709009170532,-0.5738804340362549]]},{"input_weights":[[0.5907321572303772,0.03444797545671463,0.14012059569358826,0.18936389684677124,1.1537615060806274,-0.09043913334608078,-0.1194038838148117,0.26460036635398865,-0.9730252027511597,-0.3780216574668884,0.09824743866920471,0.5789222717285156,-0.46994730830192566,-0.28971028327941895,0.16450251638889313,0.19367682933807373,0.36406558752059937,1.6053467988967896,0.0211739894002676,-0.8729051351547241,-0.9770657420158386,-0.8312714099884033,0.9891247749328613,0.5069594979286194,-0.5408861041069031,0.6722502708435059,0.47953110933303833,-0.42830538749694824,-1.367958903312683,0.5640776753425598,1.587609052658081,-1.592811107635498,-0.5992241501808167,-0.43604400753974915,0.5462456345558167,1.2788374423980713,0.26690253615379333,-1.1587109565734863,0.5885360240936279,-1.3674501180648804,-0.501094400882721,0.7769288420677185,-0.3341594636440277,-1.9133822917938232,1.6922519207000732,0.7322190999984741,0.6100430488586426,-2.261486053466797,-1.4480020999908447,0.22412839531898499,0.025164363905787468,0.24229416251182556,0.01708938553929329,0.2012154459953308,-0.5205253958702087,-0.06034129485487938,0.46355903148651123,-0.35668113827705383,-1.1431889533996582,-1.0186219215393066,-0.6577251553535461,0.8320526480674744,-0.028562190011143684,0.8481299877166748,1.2816965579986572,0.24289162456989288,-0.5729741454124451,0.6264424920082092,0.28218889236450195,1.3589755296707153,0.8069032430648804,0.5674023032188416,-0.485726535320282,-0.4333220422267914,0.8448989391326904,0.9724195003509521,-1.3252769708633423,1.6748583316802979,-0.5840307474136353,-0.3760721683502197,-0.3205338418483734,1.250857949256897,-1.7613931894302368,-0.6136707067489624,0.5738455653190613,0.5694109797477722,-0.2940109968185425,1.3390038013458252,2.102405309677124,0.6511541604995728,1.7026070356369019,1.4725078344345093,-1.36992609500885,1.2119479179382324,-1.6152739524841309,-0.7963483929634094,0.49686431884765625,-1.3714655637741089,0.03781631961464882,0.665095329284668],[0.0733916386961937,0.4363704025745392,0.9725098013877869,1.6534475088119507,1.7110283374786377,-0.8298839926719666,-0.8972041606903076,-0.32258185744285583,-0.3020473122596741,0.7192970514297485,-1.1196578741073608,0.6692389845848083,0.8882202506065369,0.1338004469871521,0.7824767827987671,-1.1429656744003296,-1.3175232410430908,-1.0878301858901978,0.1875944584608078,-0.6065680384635925,1.128401517868042,-0.17842347919940948,-0.26320672035217285,-2.108001708984375,1.674464225769043,-0.9548397660255432,1.8365812301635742,-0.9457324743270874,0.5707727074623108,-0.7369904518127441,-0.10230090469121933,0.5585358738899231,0.881091833114624,-1.1884493827819824,-1.505671739578247,-0.7711294889450073,0.21273250877857208,-0.5476051568984985,-2.2804174423217773,-1.207800269126892,1.3476252555847168,-0.6801658868789673,1.052888035774231,0.6658774018287659,-0.06148694083094597,0.13682794570922852,1.7852402925491333,-1.4541213512420654,0.36950868368148804,0.7404690384864807,0.5318143367767334,1.5503560304641724,0.8380870223045349,-0.3606855869293213,-0.07851703464984894,1.7181107997894287,1.028470754623413,-0.7414413094520569,1.5026817321777344,-0.5532439351081848,0.3521292805671692,-0.6536447405815125,-1.8211108446121216,0.4263468086719513,0.31101152300834656,-2.4693098068237305,-0.0622372105717659,-1.1899933815002441,0.9899023175239563,-0.09928137063980103,1.4885832071304321,-0.5146303772926331,1.1346385478973389,1.6772927045822144,0.25243157148361206,1.908084511756897,-0.31922972202301025,-0.03827822580933571,1.7587405443191528,1.7218592166900635,1.2489924430847168,0.9397209286689758,-0.2584817707538605,-0.6168621778488159,0.7154738306999207,-1.4628962278366089,0.8406410217285156,0.5878636240959167,0.16009311378002167,0.5254620313644409,-0.5721487998962402,-1.7991845607757568,0.5565561652183533,-0.7321246266365051,-0.4154907464981079,0.9228718876838684,-0.5714868307113647,-1.405136227607727,0.24145960807800293,-2.5986359119415283],[-0.6455551385879517,-0.756817638874054,-2.06339168548584,1.7257331609725952,0.11158610880374908,0.6491354703903198,-0.8908330202102661,1.0214272737503052,1.0052988529205322,-0.6827273964881897,1.880482792854309,-1.7724854946136475,-0.27085068821907043,2.7953667640686035,0.18573659658432007,0.25257232785224915,0.776486873626709,0.1823505461215973,1.6520845890045166,1.4953571557998657,-0.3320077061653137,-0.5631551742553711,0.5592367053031921,-0.231723815202713,-1.1541563272476196,-0.6306242346763611,-1.100386381149292,-1.1303399801254272,-1.2124375104904175,0.5492939949035645,-0.17016495764255524,0.4515593647956848,0.5739303231239319,0.9124346971511841,0.2818230986595154,-0.0668906569480896,0.9111986756324768,-0.30911868810653687,-0.20022699236869812,0.3460954427719116,1.469926118850708,-1.3167922496795654,0.08302581310272217,1.550384283065796,0.115110844373703,0.1498090624809265,1.2448135614395142,-0.6057798266410828,-0.10600470751523972,-0.3082347810268402,-0.4857946038246155,-0.7481839656829834,0.5132924318313599,0.39347317814826965,0.9595637321472168,-1.021060585975647,1.4532482624053955,0.5048663020133972,-1.2634071111679077,0.9848053455352783,0.6655809879302979,0.3289506137371063,-0.18987847864627838,-1.1884918212890625,1.014465093612671,-0.6386759877204895,0.8635640144348145,0.6274266839027405,-1.5325236320495605,0.9311677813529968,-0.24807485938072205,0.6736235618591309,0.0180189348757267,0.5843083262443542,0.6369465589523315,0.03116007335484028,-1.831148624420166,0.9351931214332581,1.031856656074524,0.17674483358860016,-0.8611083030700684,-0.850614607334137,-1.1468490362167358,-0.594677746295929,-1.0905174016952515,0.8264737725257874,-1.0071172714233398,1.8750028610229492,-0.7292309999465942,0.7173328399658203,0.7033362984657288,0.4982701241970062,0.042244091629981995,-0.2910807132720947,0.6300103664398193,-0.2775130271911621,0.49384987354278564,-0.019488412886857986,-0.10706350952386856,1.3296993970870972],[-0.6436294317245483,-0.5310371518135071,-0.8814080953598022,0.872573971748352,-0.32331690192222595,0.5186728239059448,0.7686528563499451,0.1746641993522644,0.5790029168128967,2.0002124309539795,-0.0741303414106369,0.7516286969184875,0.33222365379333496,0.5573817491531372,1.8680312633514404,0.8191601037979126,1.278594732284546,0.36375853419303894,-0.6443712115287781,0.2963680326938629,0.40332427620887756,1.3286014795303345,-0.5065152049064636,-2.166522264480591,0.4615475833415985,0.39907053112983704,0.48048752546310425,0.861068606376648,0.7019714117050171,0.11882254481315613,-1.1041029691696167,0.2318294495344162,-0.24513773620128632,1.2168015241622925,1.0526630878448486,-0.009508260525763035,-1.0655381679534912,1.0511454343795776,-0.295084148645401,1.0450360774993896,-0.7231038808822632,1.4487062692642212,0.2822667360305786,-0.27111971378326416,-0.7146837711334229,0.34969234466552734,-0.2563706040382385,0.9549528360366821,-1.5311444997787476,1.1363112926483154,1.7431398630142212,0.06628880649805069,-0.25371554493904114,0.603355884552002,0.5706590414047241,0.17781329154968262,-0.810961902141571,1.3678466081619263,1.1339861154556274,1.026638388633728,1.289070725440979,-1.949011206626892,-1.2352828979492188,0.0419045053422451,1.4865440130233765,1.432784080505371,0.9593533873558044,-1.587886929512024,-0.43140995502471924,0.2762194573879242,0.5829776525497437,0.8342511653900146,-2.021501064300537,-0.13705796003341675,1.0689566135406494,-0.39238667488098145,0.08905673772096634,0.3001217842102051,-1.3844051361083984,0.1327058970928192,1.492920160293579,0.15578830242156982,0.17879225313663483,-0.3027995824813843,0.07529645413160324,1.42005455493927,0.50567227602005,-1.5865648984909058,0.8620381355285645,1.4982187747955322,0.9444657564163208,0.10277261584997177,0.5530344247817993,0.5159008502960205,1.7615762948989868,-0.25426775217056274,-0.7046972513198853,-0.6047974824905396,-0.1279354840517044,1.361991047859192],[0.5179893970489502,0.38565006852149963,-1.355772614479065,1.727110743522644,2.1509759426116943,1.5192017555236816,1.037833333015442,-0.8924115896224976,1.707095742225647,-0.023579835891723633,-1.3778938055038452,-1.414860725402832,-0.14631129801273346,1.2677347660064697,1.0478944778442383,-0.361190527677536,-0.9330704808235168,0.5572256445884705,0.0018469489878043532,0.17628644406795502,0.8611251711845398,-0.23631496727466583,-0.7042897343635559,-1.5437092781066895,-0.7431082725524902,-0.4715963304042816,-0.5005701780319214,0.12358766794204712,-0.09108522534370422,-0.14620400965213776,0.2811528444290161,0.20860284566879272,1.3170580863952637,0.7830087542533875,0.30025002360343933,0.5930179357528687,0.12641219794750214,0.9792183041572571,0.08849621564149857,0.9632316827774048,-1.4399285316467285,-0.5433606505393982,0.904064953327179,0.011883492581546307,0.09940142929553986,0.30121076107025146,-0.7142474055290222,1.468867540359497,1.2589658498764038,-0.5203027129173279,0.02046256884932518,1.1730886697769165,-1.3253475427627563,-1.0488430261611938,-2.424708366394043,1.598554015159607,1.7101054191589355,-0.4910868704319,-0.5324880480766296,0.7054046988487244,-1.0391185283660889,0.06055675446987152,1.5778963565826416,1.1649317741394043,0.36878982186317444,0.6138820052146912,-1.96784508228302,0.6372643709182739,0.5908281207084656,-1.0403969287872314,0.48196959495544434,-0.18461062014102936,1.4507123231887817,0.09388305991888046,0.3065272569656372,0.003866679035127163,-0.39264336228370667,-0.4135325253009796,0.3016487956047058,0.9990639686584473,0.1421770602464676,-0.6043857932090759,1.6082077026367188,-0.09023846685886383,-0.23882624506950378,-1.1429742574691772,0.08933146297931671,-0.8156049847602844,-0.8580315113067627,-0.21202252805233002,0.2755805253982544,1.139189600944519,-1.9321608543395996,2.0161430835723877,-0.907444953918457,1.5267765522003174,0.04763764888048172,-0.12067914754152298,-1.312477946281433,0.36339879035949707],[-1.3204008340835571,1.10275137424469,0.30111315846443176,-1.5884233713150024,1.1413512229919434,1.8091343641281128,-0.06159893423318863,1.0820777416229248,0.4758511483669281,-0.36853641271591187,-0.01687898114323616,1.256113052368164,-1.0764744281768799,0.08467115461826324,-0.03442733734846115,-1.4973057508468628,0.9364840984344482,-1.3541624546051025,0.8013232350349426,0.29571688175201416,0.502686083316803,1.7150003910064697,1.1278600692749023,0.35717856884002686,-1.310050368309021,0.8690688610076904,-1.9766515493392944,1.1561847925186157,0.2966373860836029,1.1031439304351807,0.45965418219566345,0.1321779042482376,-0.056539420038461685,-0.3336851894855499,-0.6959109902381897,1.3282358646392822,0.055115848779678345,-0.0206441693007946,1.2991056442260742,0.6772430539131165,-0.24688424170017242,-2.2790017127990723,0.5990634560585022,2.0642635822296143,-0.6726146340370178,-0.1412145346403122,-0.3993731737136841,-0.2422446459531784,-0.37868598103523254,-0.8440636992454529,0.42457959055900574,-1.0014508962631226,1.1212007999420166,0.8555954098701477,-0.7575241327285767,-0.1787865161895752,1.4842642545700073,0.6564215421676636,-1.3065370321273804,-0.4311155080795288,-1.0879876613616943,-1.0082581043243408,0.6843678951263428,-0.20089632272720337,1.4138209819793701,0.37732359766960144,-0.4888749122619629,-0.5460564494132996,-1.2449848651885986,-0.03289913013577461,0.5271328687667847,-0.40061211585998535,0.21674220263957977,-0.9419671893119812,-0.47038859128952026,0.44667601585388184,-0.7987506985664368,1.831290602684021,1.524457573890686,-2.3071229457855225,2.0252439975738525,0.7557779550552368,-0.4778347611427307,1.6247916221618652,0.3326896131038666,-0.3867391347885132,0.2548314332962036,-0.3793463408946991,0.9593631029129028,-1.5709941387176514,-0.919538676738739,-0.44853442907333374,1.8030983209609985,0.5013132691383362,-0.8856342434883118,0.5918341279029846,1.8528681993484497,-0.24121548235416412,0.5392861366271973,0.07084500789642334],[-1.3000832796096802,-0.6159005165100098,-1.1792759895324707,-0.02935463935136795,-0.4247160255908966,1.335340142250061,0.062122855335474014,-0.8420308232307434,-0.061004530638456345,-0.772330641746521,1.2388814687728882,0.6780821084976196,0.8581234812736511,0.9806899428367615,1.2798713445663452,-0.6133795380592346,-1.5736522674560547,0.07306616008281708,-0.38902410864830017,0.3098675012588501,0.030258867889642715,-0.02516041323542595,-0.7306572198867798,-0.09677926450967789,0.7264229655265808,-0.45083388686180115,-0.16076809167861938,1.046541452407837,0.2789371609687805,-0.7453004717826843,1.087509036064148,-2.834911823272705,-0.21174927055835724,-1.408073902130127,-1.4315134286880493,0.4989612400531769,1.5006282329559326,-0.2134607881307602,1.1353081464767456,1.0785713195800781,1.047804832458496,0.3147408366203308,-0.7349791526794434,0.9460476040840149,-0.7473584413528442,-0.04921872168779373,0.47514498233795166,-1.767243504524231,0.5224910378456116,0.530021607875824,-0.35568365454673767,1.1253259181976318,-0.37341776490211487,-1.4967161417007446,-1.5198827981948853,-0.21693579852581024,0.22244597971439362,-1.144890546798706,0.18598385155200958,0.299623042345047,0.21245600283145905,0.9504714012145996,-0.28841739892959595,-0.3360334634780884,-0.3229545056819916,-1.1233083009719849,-0.6017381548881531,-0.13086263835430145,1.0345762968063354,0.3754570186138153,1.5854218006134033,-1.7955729961395264,-0.0826592966914177,-0.7143473625183105,0.7227065563201904,-0.03180670365691185,1.662116289138794,-0.9006143808364868,0.9070098400115967,-0.26888155937194824,0.6437411904335022,-0.0900094136595726,1.2665650844573975,0.08219935745000839,0.6693658828735352,1.3054229021072388,0.45959487557411194,0.3117654323577881,-2.384974241256714,-0.7724516987800598,0.44963380694389343,-0.4000954329967499,1.7430144548416138,1.3820734024047852,-0.45100948214530945,-0.922714114189148,-0.05949686840176582,0.5246416926383972,0.7395672798156738,1.0808688402175903],[-0.9378397464752197,0.8986499905586243,-1.372085452079773,-0.24724116921424866,1.3357772827148438,0.20356915891170502,-0.8977066874504089,-0.8127068281173706,-0.5346125960350037,2.1513240337371826,-1.523637056350708,0.7420579791069031,-0.15992973744869232,0.8620219230651855,0.9633778929710388,-2.439160108566284,1.637493371963501,-0.19003398716449738,-1.8258693218231201,1.5433716773986816,0.08839210867881775,-3.34395694732666,0.7092196345329285,-1.2914270162582397,-2.1915383338928223,-0.7752551436424255,1.10629141330719,-1.300687551498413,1.5185136795043945,0.6545117497444153,0.14184722304344177,1.2227885723114014,0.3092974126338959,2.670499324798584,-0.8264902234077454,1.245877742767334,-0.09036414325237274,-0.8896357417106628,-0.02214236930012703,0.29621103405952454,0.9517900943756104,1.445159912109375,1.4782973527908325,-0.09230821579694748,-1.5798228979110718,-0.006152478512376547,-0.2377973198890686,1.4796949625015259,-1.5407121181488037,-0.21402552723884583,-0.8155317902565002,-2.9628946781158447,-1.1687660217285156,-1.8338757753372192,-0.32481613755226135,-0.7301148772239685,0.15536029636859894,1.7125898599624634,-1.5184190273284912,-1.2787224054336548,-1.2740039825439453,2.049119234085083,-1.2095648050308228,0.9126576781272888,1.1737687587738037,0.28870338201522827,-0.470133513212204,-1.5927505493164062,1.3319449424743652,0.20547036826610565,1.1490849256515503,-2.2572641372680664,-0.6736482381820679,-0.6441636681556702,-0.09869634360074997,-0.9615570306777954,1.1981782913208008,-0.784747838973999,-0.8060666918754578,0.6412515640258789,-0.38744571805000305,1.4966856241226196,-1.4889434576034546,-0.35887405276298523,-0.5651692748069763,1.240065574645996,-0.20779995620250702,-1.283124327659607,-1.544873595237732,0.11251939833164215,-0.18359895050525665,0.1187225729227066,-1.0445526838302612,0.7498273849487305,-1.5033481121063232,-0.42823779582977295,0.14588864147663116,0.32463157176971436,0.6087085008621216,-0.7113235592842102],[0.2569965720176697,1.8382999897003174,0.2957313060760498,0.5882518887519836,-0.6086373329162598,-0.005095787812024355,-1.1112842559814453,-1.1870417594909668,-0.45390585064888,-0.6041252017021179,-0.6265742778778076,-0.13033591210842133,1.0553871393203735,0.21398982405662537,-1.2896738052368164,2.2145192623138428,-0.6785545349121094,-0.7975865006446838,-0.38479796051979065,-0.0032468095887452364,-0.29062017798423767,-1.2418978214263916,1.7553352117538452,-1.5621684789657593,-1.6006696224212646,0.9535909295082092,1.0514342784881592,0.70835942029953,-0.10302624106407166,-0.19587764143943787,-0.011209666728973389,0.35605260729789734,-0.20809489488601685,1.673590064048767,2.326124429702759,0.08536960184574127,-0.20159372687339783,0.005307894665747881,0.2521061301231384,0.10266128182411194,0.03098291903734207,0.17081007361412048,0.06954899430274963,-0.33719301223754883,-0.5475373864173889,0.048441316932439804,0.18475379049777985,-1.0282942056655884,-0.6839410066604614,0.38455116748809814,0.9387866258621216,0.25739216804504395,-0.6108502745628357,-0.7103967666625977,1.7618300914764404,1.2583967447280884,-0.9499019384384155,-0.890032947063446,1.2497286796569824,-2.055506467819214,-0.4795324504375458,-0.2959621548652649,